-1.000000000000000000e+00,1.600000000000000000e+02,6.000000000000000000e+01,0.000000000000000000e+00
-1.000000000000000000e+00,1.557460179364715316e+02,6.443615889590354584e+01,1.000000000000000000e+00
-1.000000000000000000e+00,1.613388234722312973e+02,6.167479906061689121e+01,1.000000000000000000e+00
-1.000000000000000000e+00,1.471675936808452434e+02,6.798598034688808411e+01,2.000000000000000000e+00
-1.000000000000000000e+00,1.516037125330172444e+02,5.728857256974304590e+01,2.000000000000000000e+00
-1.000000000000000000e+00,1.670787446441086104e+02,6.267028819864158606e+01,2.000000000000000000e+00
-1.000000000000000000e+00,1.601842190857805974e+02,6.584760667675402601e+01,2.000000000000000000e+00
-1.000000000000000000e+00,1.452484994896067860e+02,6.786388258241299809e+01,3.000000000000000000e+00
-1.000000000000000000e+00,1.468377141712043112e+02,7.164731167966826320e+01,3.000000000000000000e+00
-1.000000000000000000e+00,1.413866034505225002e+02,5.472828907159576062e+01,3.000000000000000000e+00
-1.000000000000000000e+00,1.527728127344943800e+02,6.211511534558034953e+01,3.000000000000000000e+00
-1.000000000000000000e+00,1.649674352097249823e+02,6.413868773300954729e+01,3.000000000000000000e+00
-1.000000000000000000e+00,1.663850130386864237e+02,5.818683654250671822e+01,3.000000000000000000e+00
-1.000000000000000000e+00,1.618760585071009359e+02,6.649980857898950148e+01,3.000000000000000000e+00
-1.000000000000000000e+00,1.612504426743499266e+02,6.553010013027605396e+01,3.000000000000000000e+00
-1.000000000000000000e+00,1.471786014856248244e+02,6.602685257800848717e+01,4.000000000000000000e+00
-1.000000000000000000e+00,1.452459446700790977e+02,7.746607359774753832e+01,4.000000000000000000e+00
-1.000000000000000000e+00,1.466745338922301300e+02,6.962211634647198366e+01,4.000000000000000000e+00
-1.000000000000000000e+00,1.424280386593889602e+02,6.349265650540299077e+01,4.000000000000000000e+00
-1.000000000000000000e+00,1.495655540797918377e+02,5.171796144707669640e+01,4.000000000000000000e+00
-1.000000000000000000e+00,1.416668891771009271e+02,4.984995316269851884e+01,4.000000000000000000e+00
-1.000000000000000000e+00,1.514323203269068188e+02,6.363231408521765786e+01,4.000000000000000000e+00
-1.000000000000000000e+00,1.513132361660032075e+02,6.886052498088514540e+01,4.000000000000000000e+00
-1.000000000000000000e+00,1.670365434825365014e+02,6.429374220294810982e+01,4.000000000000000000e+00
-1.000000000000000000e+00,1.653360404117103428e+02,6.078505348242617146e+01,4.000000000000000000e+00
-1.000000000000000000e+00,1.701154218434424763e+02,5.745782797331181513e+01,4.000000000000000000e+00
-1.000000000000000000e+00,1.680508837716759842e+02,6.512307880468968335e+01,4.000000000000000000e+00
-1.000000000000000000e+00,1.691406792683718550e+02,6.548153451250975365e+01,4.000000000000000000e+00
-1.000000000000000000e+00,1.615079080051233404e+02,6.162770438306346676e+01,4.000000000000000000e+00
-1.000000000000000000e+00,1.573393124861754302e+02,6.634000026168722286e+01,4.000000000000000000e+00
-1.000000000000000000e+00,1.600082413256609755e+02,5.449633446275041138e+01,4.000000000000000000e+00
-1.000000000000000000e+00,1.493858253791801474e+02,6.756705519566315843e+01,5.000000000000000000e+00
-1.000000000000000000e+00,1.472084706719828091e+02,6.676092291143048385e+01,5.000000000000000000e+00
-1.000000000000000000e+00,1.400982880381152995e+02,7.760620683790364183e+01,5.000000000000000000e+00
-1.000000000000000000e+00,1.450152278103388426e+02,7.617007269407237402e+01,5.000000000000000000e+00
-1.000000000000000000e+00,1.358420826155544319e+02,7.191006668505096400e+01,5.000000000000000000e+00
-1.000000000000000000e+00,1.476468340556925227e+02,7.967420576802652477e+01,5.000000000000000000e+00
-1.000000000000000000e+00,1.367667001369407274e+02,6.270163246786375311e+01,5.000000000000000000e+00
-1.000000000000000000e+00,1.426718031043588155e+02,5.826775641200391220e+01,5.000000000000000000e+00
-1.000000000000000000e+00,1.445493485757731662e+02,5.103551619413622831e+01,5.000000000000000000e+00
-1.000000000000000000e+00,1.491073957317121312e+02,5.549616131707399802e+01,5.000000000000000000e+00
-1.000000000000000000e+00,1.418843534761776652e+02,5.201905130310191083e+01,5.000000000000000000e+00
-1.000000000000000000e+00,1.474281207657161588e+02,4.935750161784486068e+01,5.000000000000000000e+00
-1.000000000000000000e+00,1.500480711885592768e+02,6.380041126363180837e+01,5.000000000000000000e+00
-1.000000000000000000e+00,1.496185896991711104e+02,6.287672271614943753e+01,5.000000000000000000e+00
-1.000000000000000000e+00,1.546738288931923648e+02,6.978939713587709548e+01,5.000000000000000000e+00
-1.000000000000000000e+00,1.513961673532857048e+02,7.376097129044885037e+01,5.000000000000000000e+00
-1.000000000000000000e+00,1.601812733495441137e+02,6.293115456685329434e+01,5.000000000000000000e+00
-1.000000000000000000e+00,1.686324098461942356e+02,7.327850696625289117e+01,5.000000000000000000e+00
-1.000000000000000000e+00,1.616143116183470738e+02,5.799133894291622937e+01,5.000000000000000000e+00
-1.000000000000000000e+00,1.691739884507005911e+02,6.093985328759542597e+01,5.000000000000000000e+00
-1.000000000000000000e+00,1.654646525034175966e+02,5.754658989467577612e+01,5.000000000000000000e+00
-1.000000000000000000e+00,1.733249920670563142e+02,6.240594087196906514e+01,5.000000000000000000e+00
-1.000000000000000000e+00,1.649164762359823726e+02,6.508366728205456297e+01,5.000000000000000000e+00
-1.000000000000000000e+00,1.676238118956794381e+02,6.561351642857664501e+01,5.000000000000000000e+00
-1.000000000000000000e+00,1.625533695183544012e+02,6.915889800663629217e+01,5.000000000000000000e+00
-1.000000000000000000e+00,1.706550839189587521e+02,6.866884365087298647e+01,5.000000000000000000e+00
-1.000000000000000000e+00,1.595242229415019324e+02,6.317940721581316410e+01,5.000000000000000000e+00
-1.000000000000000000e+00,1.643594365512731486e+02,6.135405311406765350e+01,5.000000000000000000e+00
-1.000000000000000000e+00,1.520852711468200198e+02,6.783954407373195750e+01,5.000000000000000000e+00
-1.000000000000000000e+00,1.559314533533817837e+02,6.394165421996615351e+01,5.000000000000000000e+00
-1.000000000000000000e+00,1.529959882919319796e+02,5.724480514873886250e+01,5.000000000000000000e+00
-1.000000000000000000e+00,1.593516470674529444e+02,5.681486992153863724e+01,5.000000000000000000e+00
-1.000000000000000000e+00,1.499638780291433591e+02,6.557883718958935049e+01,6.000000000000000000e+00
-1.000000000000000000e+00,1.524749354182517322e+02,7.499238870960975589e+01,6.000000000000000000e+00
-1.000000000000000000e+00,1.499740154148848887e+02,6.451074620332296661e+01,6.000000000000000000e+00
-1.000000000000000000e+00,1.477605125866076321e+02,6.284097472670001849e+01,6.000000000000000000e+00
-1.000000000000000000e+00,1.440222930758066013e+02,7.889579551985973183e+01,6.000000000000000000e+00
-1.000000000000000000e+00,1.379029425254806540e+02,7.993531596148012852e+01,6.000000000000000000e+00
-1.000000000000000000e+00,1.380279774877310217e+02,7.769655471403264357e+01,6.000000000000000000e+00
-1.000000000000000000e+00,1.503874651696334581e+02,7.121773301683965940e+01,6.000000000000000000e+00
-1.000000000000000000e+00,1.431097548387117797e+02,7.348161087828248128e+01,6.000000000000000000e+00
-1.000000000000000000e+00,1.341180840723391157e+02,7.539915470401435016e+01,6.000000000000000000e+00
-1.000000000000000000e+00,1.475630861599388766e+02,8.066898588840464868e+01,6.000000000000000000e+00
-1.000000000000000000e+00,1.468351908484055741e+02,8.191055449977490355e+01,6.000000000000000000e+00
-1.000000000000000000e+00,1.466571459977724885e+02,6.102294339104436460e+01,6.000000000000000000e+00
-1.000000000000000000e+00,1.375823517446114295e+02,6.727589596113547543e+01,6.000000000000000000e+00
-1.000000000000000000e+00,1.511491058194970378e+02,6.063552480861972072e+01,6.000000000000000000e+00
-1.000000000000000000e+00,1.416348292848029473e+02,6.228288925199251480e+01,6.000000000000000000e+00
-1.000000000000000000e+00,1.496632397396334113e+02,5.031839909873087180e+01,6.000000000000000000e+00
-1.000000000000000000e+00,1.464489476912089572e+02,5.664476443333539635e+01,6.000000000000000000e+00
-1.000000000000000000e+00,1.532218965331270795e+02,5.642067412332880849e+01,6.000000000000000000e+00
-1.000000000000000000e+00,1.451491452155586614e+02,6.388977694496362147e+01,6.000000000000000000e+00
-1.000000000000000000e+00,1.473421254340188966e+02,5.258705688249962407e+01,6.000000000000000000e+00
-1.000000000000000000e+00,1.415297671485443800e+02,5.311840233884423412e+01,6.000000000000000000e+00
-1.000000000000000000e+00,1.353170277665085166e+02,4.960607003920767966e+01,6.000000000000000000e+00
-1.000000000000000000e+00,1.493746589998875720e+02,5.254422531254372331e+01,6.000000000000000000e+00
-1.000000000000000000e+00,1.502098651892775365e+02,6.503705493767562018e+01,6.000000000000000000e+00
-1.000000000000000000e+00,1.476506234692850228e+02,6.941606896075258248e+01,6.000000000000000000e+00
-1.000000000000000000e+00,1.503447871855306630e+02,5.887063158774643767e+01,6.000000000000000000e+00
-1.000000000000000000e+00,1.470191533130599737e+02,6.938886717888517808e+01,6.000000000000000000e+00
-1.000000000000000000e+00,1.544435974432830960e+02,7.212894941812081129e+01,6.000000000000000000e+00
-1.000000000000000000e+00,1.566386111319700092e+02,7.460964094591172113e+01,6.000000000000000000e+00
-1.000000000000000000e+00,1.485719833606545421e+02,7.695259233970672597e+01,6.000000000000000000e+00
-1.000000000000000000e+00,1.566328735830015262e+02,7.681861549528227329e+01,6.000000000000000000e+00
-1.000000000000000000e+00,1.600789593289914592e+02,6.343355406712074540e+01,6.000000000000000000e+00
-1.000000000000000000e+00,1.591271556353902099e+02,6.099684219834495735e+01,6.000000000000000000e+00
-1.000000000000000000e+00,1.640683231346849027e+02,7.004644998476112505e+01,6.000000000000000000e+00
-1.000000000000000000e+00,1.713885903586807729e+02,6.783239656457986655e+01,6.000000000000000000e+00
-1.000000000000000000e+00,1.565558138940749018e+02,5.646159141876413656e+01,6.000000000000000000e+00
-1.000000000000000000e+00,1.583602118443240272e+02,5.953323670207897322e+01,6.000000000000000000e+00
-1.000000000000000000e+00,1.749543474815865522e+02,5.821041203677596343e+01,6.000000000000000000e+00
-1.000000000000000000e+00,1.696060663706334992e+02,5.352785999975650810e+01,6.000000000000000000e+00
-1.000000000000000000e+00,1.610414147116838421e+02,5.460379409275514462e+01,6.000000000000000000e+00
-1.000000000000000000e+00,1.674707763939635754e+02,5.302312254570847472e+01,6.000000000000000000e+00
-1.000000000000000000e+00,1.697544679212876986e+02,6.378658225704386808e+01,6.000000000000000000e+00
-1.000000000000000000e+00,1.755867997701535330e+02,5.778522389262064252e+01,6.000000000000000000e+00
-1.000000000000000000e+00,1.527161001050635605e+02,6.426121186617781689e+01,6.000000000000000000e+00
-1.000000000000000000e+00,1.709121318091105195e+02,5.626794901174286423e+01,6.000000000000000000e+00
-1.000000000000000000e+00,1.681466018810357639e+02,6.517027478421809406e+01,6.000000000000000000e+00
-1.000000000000000000e+00,1.679053476614369913e+02,5.960645527951022160e+01,6.000000000000000000e+00
-1.000000000000000000e+00,1.725485988451297032e+02,7.137515761354069355e+01,6.000000000000000000e+00
-1.000000000000000000e+00,1.657085601817884140e+02,7.625615884112092147e+01,6.000000000000000000e+00
-1.000000000000000000e+00,1.731143669793105460e+02,6.673815045724354889e+01,6.000000000000000000e+00
-1.000000000000000000e+00,1.704628163176706437e+02,7.876915067807685489e+01,6.000000000000000000e+00
-1.000000000000000000e+00,1.552335806869889154e+02,6.480658934509705205e+01,6.000000000000000000e+00
-1.000000000000000000e+00,1.566776127319635066e+02,6.674220857346882951e+01,6.000000000000000000e+00
-1.000000000000000000e+00,1.567369387875184259e+02,6.541770528356637726e+01,6.000000000000000000e+00
-1.000000000000000000e+00,1.631300751646807043e+02,6.678178806731210670e+01,6.000000000000000000e+00
-1.000000000000000000e+00,1.619350187925617490e+02,6.517382230012979960e+01,6.000000000000000000e+00
-1.000000000000000000e+00,1.561657895107999252e+02,5.743502369575899991e+01,6.000000000000000000e+00
-1.000000000000000000e+00,1.607691500743570714e+02,6.587713053873488889e+01,6.000000000000000000e+00
-1.000000000000000000e+00,1.514236603030377637e+02,6.678011428376311187e+01,6.000000000000000000e+00
-1.000000000000000000e+00,1.613005288733631630e+02,5.831225167245535346e+01,6.000000000000000000e+00
-1.000000000000000000e+00,1.504658549592157897e+02,6.065593109471043931e+01,6.000000000000000000e+00
-1.000000000000000000e+00,1.514277267574718167e+02,5.488646202987271749e+01,6.000000000000000000e+00
-1.000000000000000000e+00,1.633360444893149293e+02,5.566655644117919621e+01,6.000000000000000000e+00
-1.000000000000000000e+00,1.461197176487686420e+02,6.626017215336109700e+01,7.000000000000000000e+00
-1.000000000000000000e+00,1.470313530894405858e+02,6.495858315000741356e+01,7.000000000000000000e+00
-1.000000000000000000e+00,1.596730250744414832e+02,7.628643988965421840e+01,7.000000000000000000e+00
-1.000000000000000000e+00,1.561662749505054251e+02,7.594668664204098718e+01,7.000000000000000000e+00
-1.000000000000000000e+00,1.498725320674717807e+02,6.069765337420186313e+01,7.000000000000000000e+00
-1.000000000000000000e+00,1.514599563808772871e+02,6.243798121604716300e+01,7.000000000000000000e+00
-1.000000000000000000e+00,1.467462796029398362e+02,6.200318479593333620e+01,7.000000000000000000e+00
-1.000000000000000000e+00,1.525458193206205806e+02,5.504447449892750654e+01,7.000000000000000000e+00
-1.000000000000000000e+00,1.490613176385981831e+02,7.879707455426741092e+01,7.000000000000000000e+00
-1.000000000000000000e+00,1.435176361735294108e+02,6.605756788832140103e+01,7.000000000000000000e+00
-1.000000000000000000e+00,1.419410193376989753e+02,8.237685761864005940e+01,7.000000000000000000e+00
-1.000000000000000000e+00,1.401239618256180108e+02,8.022841683796416135e+01,7.000000000000000000e+00
-1.000000000000000000e+00,1.407619476030814951e+02,7.777146763226640758e+01,7.000000000000000000e+00
-1.000000000000000000e+00,1.382425187332090104e+02,8.833522661910988916e+01,7.000000000000000000e+00
-1.000000000000000000e+00,1.578071805897006641e+02,7.347400004356569525e+01,7.000000000000000000e+00
-1.000000000000000000e+00,1.516688594468612905e+02,6.406609882704435677e+01,7.000000000000000000e+00
-1.000000000000000000e+00,1.385032536121974545e+02,7.018188388516736609e+01,7.000000000000000000e+00
-1.000000000000000000e+00,1.438041434333156872e+02,6.368371797466407713e+01,7.000000000000000000e+00
-1.000000000000000000e+00,1.424828822406031463e+02,7.396456588807195942e+01,7.000000000000000000e+00
-1.000000000000000000e+00,1.341556638038948961e+02,7.599258020070934094e+01,7.000000000000000000e+00
-1.000000000000000000e+00,1.538691970177360986e+02,8.234144667776303095e+01,7.000000000000000000e+00
-1.000000000000000000e+00,1.467636041977342529e+02,7.671123892292372659e+01,7.000000000000000000e+00
-1.000000000000000000e+00,1.470225951423757920e+02,8.108683134731988673e+01,7.000000000000000000e+00
-1.000000000000000000e+00,1.527836456049688820e+02,8.121040186322100851e+01,7.000000000000000000e+00
-1.000000000000000000e+00,1.539125428052534517e+02,5.864810683103066680e+01,7.000000000000000000e+00
-1.000000000000000000e+00,1.452341122846247288e+02,6.310192633251122629e+01,7.000000000000000000e+00
-1.000000000000000000e+00,1.493114872651669600e+02,6.975787488619917553e+01,7.000000000000000000e+00
-1.000000000000000000e+00,1.395450664141876018e+02,6.733506898411347663e+01,7.000000000000000000e+00
-1.000000000000000000e+00,1.475156278231522151e+02,6.222144198177910823e+01,7.000000000000000000e+00
-1.000000000000000000e+00,1.466721094067112290e+02,6.025718438343315597e+01,7.000000000000000000e+00
-1.000000000000000000e+00,1.412825950214942452e+02,6.112620865517666147e+01,7.000000000000000000e+00
-1.000000000000000000e+00,1.418038579621692463e+02,6.613991913112909060e+01,7.000000000000000000e+00
-1.000000000000000000e+00,1.508755162655441211e+02,5.023652454879132989e+01,7.000000000000000000e+00
-1.000000000000000000e+00,1.457100521939142084e+02,4.765232251838656197e+01,7.000000000000000000e+00
-1.000000000000000000e+00,1.504733253001410276e+02,5.788361129692365381e+01,7.000000000000000000e+00
-1.000000000000000000e+00,1.420288487395279162e+02,5.374160598485416074e+01,7.000000000000000000e+00
-1.000000000000000000e+00,1.544845668274233219e+02,5.741201643326076720e+01,7.000000000000000000e+00
-1.000000000000000000e+00,1.544743618723407224e+02,5.647077488309339088e+01,7.000000000000000000e+00
-1.000000000000000000e+00,1.456227318768145267e+02,6.190012344112826526e+01,7.000000000000000000e+00
-1.000000000000000000e+00,1.457520170041728989e+02,6.762985983391740774e+01,7.000000000000000000e+00
-1.000000000000000000e+00,1.484030259675314767e+02,5.451935545083261303e+01,7.000000000000000000e+00
-1.000000000000000000e+00,1.489122182328679571e+02,5.343320530256275447e+01,7.000000000000000000e+00
-1.000000000000000000e+00,1.544347518693143684e+02,5.341964348413285535e+01,7.000000000000000000e+00
-1.000000000000000000e+00,1.410358492466274640e+02,4.801330309694890275e+01,7.000000000000000000e+00
-1.000000000000000000e+00,1.365868829920639484e+02,4.895429313940533689e+01,7.000000000000000000e+00
-1.000000000000000000e+00,1.369959438773398688e+02,4.980879642060886425e+01,7.000000000000000000e+00
-1.000000000000000000e+00,1.439220793760815980e+02,5.238096012178628769e+01,7.000000000000000000e+00
-1.000000000000000000e+00,1.513853290892595282e+02,5.631309037195808287e+01,7.000000000000000000e+00
-1.000000000000000000e+00,1.484644394684223982e+02,6.286804492692292712e+01,7.000000000000000000e+00
-1.000000000000000000e+00,1.526909448021714297e+02,6.944671557123899674e+01,7.000000000000000000e+00
-1.000000000000000000e+00,1.508563414226299244e+02,6.741734736036855224e+01,7.000000000000000000e+00
-1.000000000000000000e+00,1.519438800159512652e+02,6.258829835790314178e+01,7.000000000000000000e+00
-1.000000000000000000e+00,1.368071458593012721e+02,5.624116969202155047e+01,7.000000000000000000e+00
-1.000000000000000000e+00,1.508340015070909317e+02,5.619752133777148373e+01,7.000000000000000000e+00
-1.000000000000000000e+00,1.535301056249915916e+02,7.253565704742163689e+01,7.000000000000000000e+00
-1.000000000000000000e+00,1.519667801156168423e+02,6.338653575024113707e+01,7.000000000000000000e+00
-1.000000000000000000e+00,1.600070947371813190e+02,7.172400028861264332e+01,7.000000000000000000e+00
-1.000000000000000000e+00,1.554562457789371592e+02,8.286201496973880865e+01,7.000000000000000000e+00
-1.000000000000000000e+00,1.529532717185321076e+02,7.076802173152999842e+01,7.000000000000000000e+00
-1.000000000000000000e+00,1.600457005815270577e+02,8.442350669437520594e+01,7.000000000000000000e+00
-1.000000000000000000e+00,1.601779507697626457e+02,7.946076654492868840e+01,7.000000000000000000e+00
-1.000000000000000000e+00,1.489504304053548935e+02,8.483078842870800429e+01,7.000000000000000000e+00
-1.000000000000000000e+00,1.549011243056497733e+02,7.902436988669633422e+01,7.000000000000000000e+00
-1.000000000000000000e+00,1.606370335843154464e+02,8.204226333399886073e+01,7.000000000000000000e+00
-1.000000000000000000e+00,1.578382767631948411e+02,6.555669617348407030e+01,7.000000000000000000e+00
-1.000000000000000000e+00,1.658983373399923096e+02,5.376891450852752286e+01,7.000000000000000000e+00
-1.000000000000000000e+00,1.582011634333603922e+02,6.247483794467428453e+01,7.000000000000000000e+00
-1.000000000000000000e+00,1.571040868666054280e+02,5.551767566510888940e+01,7.000000000000000000e+00
-1.000000000000000000e+00,1.628635815817693526e+02,6.765385491276600760e+01,7.000000000000000000e+00
-1.000000000000000000e+00,1.652651108822389858e+02,7.557582382471549920e+01,7.000000000000000000e+00
-1.000000000000000000e+00,1.701454871969436056e+02,6.683044305358212966e+01,7.000000000000000000e+00
-1.000000000000000000e+00,1.719533565271944724e+02,6.739585918545310506e+01,7.000000000000000000e+00
-1.000000000000000000e+00,1.488964216334252058e+02,5.966973502321244638e+01,7.000000000000000000e+00
-1.000000000000000000e+00,1.575219643840636365e+02,6.055081690505187453e+01,7.000000000000000000e+00
-1.000000000000000000e+00,1.568272145144891851e+02,6.090555718289080289e+01,7.000000000000000000e+00
-1.000000000000000000e+00,1.575746908141650238e+02,6.324431599345986399e+01,7.000000000000000000e+00
-1.000000000000000000e+00,1.614563603812018471e+02,5.836759544792793974e+01,7.000000000000000000e+00
-1.000000000000000000e+00,1.811959304645246505e+02,5.504502128227474600e+01,7.000000000000000000e+00
-1.000000000000000000e+00,1.683492268545069805e+02,5.330961536878943008e+01,7.000000000000000000e+00
-1.000000000000000000e+00,1.711327599312297139e+02,5.409610974440813891e+01,7.000000000000000000e+00
-1.000000000000000000e+00,1.620067785353309944e+02,5.509171220713275829e+01,7.000000000000000000e+00
-1.000000000000000000e+00,1.617237946696223219e+02,4.995470366117402961e+01,7.000000000000000000e+00
-1.000000000000000000e+00,1.655705474305298708e+02,5.267779861348592618e+01,7.000000000000000000e+00
-1.000000000000000000e+00,1.690556667524874115e+02,5.867771240623096674e+01,7.000000000000000000e+00
-1.000000000000000000e+00,1.656911947330104056e+02,6.567555341001444447e+01,7.000000000000000000e+00
-1.000000000000000000e+00,1.659012794920333249e+02,5.149680833893709320e+01,7.000000000000000000e+00
-1.000000000000000000e+00,1.816006708490673134e+02,5.772568266493294686e+01,7.000000000000000000e+00
-1.000000000000000000e+00,1.741654409446892942e+02,5.795601649624347829e+01,7.000000000000000000e+00
-1.000000000000000000e+00,1.475866002641393493e+02,6.784327848377895975e+01,7.000000000000000000e+00
-1.000000000000000000e+00,1.521726207664866024e+02,5.426731808838901827e+01,7.000000000000000000e+00
-1.000000000000000000e+00,1.753834642164625279e+02,5.510659136766824417e+01,7.000000000000000000e+00
-1.000000000000000000e+00,1.722812264713261072e+02,5.578701360504485507e+01,7.000000000000000000e+00
-1.000000000000000000e+00,1.724193928960674498e+02,6.650659249878829371e+01,7.000000000000000000e+00
-1.000000000000000000e+00,1.672422108835168046e+02,6.189282826043235275e+01,7.000000000000000000e+00
-1.000000000000000000e+00,1.702079866550427312e+02,5.686396772538161315e+01,7.000000000000000000e+00
-1.000000000000000000e+00,1.744485277006378965e+02,6.503317965788657773e+01,7.000000000000000000e+00
-1.000000000000000000e+00,1.615146041138405337e+02,7.199417296033399793e+01,7.000000000000000000e+00
-1.000000000000000000e+00,1.685997156528146377e+02,7.426761507784867433e+01,7.000000000000000000e+00
-1.000000000000000000e+00,1.613350667724090215e+02,7.589296318343980374e+01,7.000000000000000000e+00
-1.000000000000000000e+00,1.669922277204461807e+02,6.679484942030842376e+01,7.000000000000000000e+00
-1.000000000000000000e+00,1.727903023318861813e+02,6.375502680287456769e+01,7.000000000000000000e+00
-1.000000000000000000e+00,1.699057649137257613e+02,5.927259751507283880e+01,7.000000000000000000e+00
-1.000000000000000000e+00,1.699921885716450731e+02,7.868728395151563859e+01,7.000000000000000000e+00
-1.000000000000000000e+00,1.705910796998847161e+02,9.153161276331505292e+01,7.000000000000000000e+00
-1.000000000000000000e+00,1.573932975417005196e+02,6.606026363526279965e+01,7.000000000000000000e+00
-1.000000000000000000e+00,1.569842589347611295e+02,6.168817548902772785e+01,7.000000000000000000e+00
-1.000000000000000000e+00,1.523374647828583761e+02,6.761264646230242192e+01,7.000000000000000000e+00
-1.000000000000000000e+00,1.604095764833355702e+02,5.612772475470356426e+01,7.000000000000000000e+00
-1.000000000000000000e+00,1.505999837348601318e+02,6.467020175519371605e+01,7.000000000000000000e+00
-1.000000000000000000e+00,1.533928129271118053e+02,5.390858722383047308e+01,7.000000000000000000e+00
-1.000000000000000000e+00,1.587978836245365244e+02,6.533462650735148713e+01,7.000000000000000000e+00
-1.000000000000000000e+00,1.660788801097681073e+02,7.459681905586472794e+01,7.000000000000000000e+00
-1.000000000000000000e+00,1.604605656288839839e+02,6.486224768830720677e+01,7.000000000000000000e+00
-1.000000000000000000e+00,1.559405064496648947e+02,7.177189602710515715e+01,7.000000000000000000e+00
-1.000000000000000000e+00,1.488634093851391071e+02,5.567624488441520469e+01,7.000000000000000000e+00
-1.000000000000000000e+00,1.570111038872223617e+02,5.756273659078355820e+01,7.000000000000000000e+00
-1.000000000000000000e+00,1.610802562039050656e+02,6.768046273597822449e+01,7.000000000000000000e+00
-1.000000000000000000e+00,1.647885469805330843e+02,6.991127205922845178e+01,7.000000000000000000e+00
-1.000000000000000000e+00,1.514330563945045185e+02,6.502649844440510662e+01,7.000000000000000000e+00
-1.000000000000000000e+00,1.470718603517674126e+02,6.419229115224240445e+01,7.000000000000000000e+00
-1.000000000000000000e+00,1.628590455982783283e+02,5.610130213114690889e+01,7.000000000000000000e+00
-1.000000000000000000e+00,1.626012599944459680e+02,5.042150143565434917e+01,7.000000000000000000e+00
-1.000000000000000000e+00,1.644480896561168493e+02,5.853418946192037708e+01,7.000000000000000000e+00
-1.000000000000000000e+00,1.454523744991276999e+02,5.953902518126673726e+01,7.000000000000000000e+00
-1.000000000000000000e+00,1.503877960293221179e+02,5.372378376895213847e+01,7.000000000000000000e+00
-1.000000000000000000e+00,1.523761673562293026e+02,5.017660020782722796e+01,7.000000000000000000e+00
-1.000000000000000000e+00,1.594228268834192193e+02,5.806213449041916164e+01,7.000000000000000000e+00
-1.000000000000000000e+00,1.592757273495980712e+02,6.211146915530045476e+01,7.000000000000000000e+00
1.000000000000000000e+00,1.800000000000000000e+02,1.000000000000000000e+02,0.000000000000000000e+00
1.000000000000000000e+00,1.797795187480670336e+02,1.040392827443396158e+02,1.000000000000000000e+00
1.000000000000000000e+00,1.679999365560654780e+02,9.952940318638377448e+01,1.000000000000000000e+00
1.000000000000000000e+00,1.662399917435749330e+02,1.050283189752234989e+02,2.000000000000000000e+00
1.000000000000000000e+00,1.956723897069701650e+02,1.084532172025248258e+02,2.000000000000000000e+00
1.000000000000000000e+00,1.722130096335883707e+02,1.042758480605641012e+02,2.000000000000000000e+00
1.000000000000000000e+00,1.716698235603614080e+02,9.933156485574889416e+01,2.000000000000000000e+00
1.000000000000000000e+00,1.721847207991087316e+02,1.023981902810780582e+02,3.000000000000000000e+00
1.000000000000000000e+00,1.746137110479374144e+02,9.944956703044385904e+01,3.000000000000000000e+00
1.000000000000000000e+00,1.884875247534597520e+02,1.103196531866715020e+02,3.000000000000000000e+00
1.000000000000000000e+00,1.811844204378596146e+02,1.137133249724890476e+02,3.000000000000000000e+00
1.000000000000000000e+00,1.748827876285805587e+02,1.114227693016209173e+02,3.000000000000000000e+00
1.000000000000000000e+00,1.756493242303343152e+02,1.045537335649344470e+02,3.000000000000000000e+00
1.000000000000000000e+00,1.786470169449954426e+02,9.774362220569780391e+01,3.000000000000000000e+00
1.000000000000000000e+00,1.898935876722935063e+02,1.035777859446693157e+02,3.000000000000000000e+00
1.000000000000000000e+00,1.738575303196532502e+02,1.064083586693257075e+02,4.000000000000000000e+00
1.000000000000000000e+00,1.822731083625572808e+02,9.951662677997789785e+01,4.000000000000000000e+00
1.000000000000000000e+00,1.661330617232961515e+02,1.040024507290916915e+02,4.000000000000000000e+00
1.000000000000000000e+00,1.636958283960731819e+02,9.949203913470256566e+01,4.000000000000000000e+00
1.000000000000000000e+00,1.976114859533756487e+02,1.083753969159392625e+02,4.000000000000000000e+00
1.000000000000000000e+00,1.709018551011357943e+02,1.173408351296693866e+02,4.000000000000000000e+00
1.000000000000000000e+00,1.794953795375086258e+02,1.117748779336814380e+02,4.000000000000000000e+00
1.000000000000000000e+00,1.826553946132015653e+02,1.151593179112772418e+02,4.000000000000000000e+00
1.000000000000000000e+00,1.673077935176746109e+02,1.073775731849023884e+02,4.000000000000000000e+00
1.000000000000000000e+00,1.736971212273279548e+02,1.138119172325499733e+02,4.000000000000000000e+00
1.000000000000000000e+00,1.754255368362128706e+02,1.022250463880074705e+02,4.000000000000000000e+00
1.000000000000000000e+00,1.769616749951269412e+02,9.653577724668249971e+01,4.000000000000000000e+00
1.000000000000000000e+00,1.835492997516935532e+02,9.645754400366072900e+01,4.000000000000000000e+00
1.000000000000000000e+00,1.820028017334289814e+02,1.000081435009429214e+02,4.000000000000000000e+00
1.000000000000000000e+00,1.816566864850467482e+02,1.085847600844338103e+02,4.000000000000000000e+00
1.000000000000000000e+00,2.046473654336526522e+02,1.005431660456709437e+02,4.000000000000000000e+00
1.000000000000000000e+00,1.752666261320459569e+02,1.089539238699216099e+02,5.000000000000000000e+00
1.000000000000000000e+00,1.611788602206684686e+02,1.030013090141294896e+02,5.000000000000000000e+00
1.000000000000000000e+00,1.724301053666032715e+02,9.649378369969036839e+01,5.000000000000000000e+00
1.000000000000000000e+00,1.633558234427432296e+02,9.959180630912923959e+01,5.000000000000000000e+00
1.000000000000000000e+00,1.660174565384601237e+02,1.049846033196460553e+02,5.000000000000000000e+00
1.000000000000000000e+00,1.629085639435172084e+02,1.039209320113839112e+02,5.000000000000000000e+00
1.000000000000000000e+00,1.759382734847548591e+02,1.024776145967592953e+02,5.000000000000000000e+00
1.000000000000000000e+00,1.755621836307532249e+02,9.508538735452670210e+01,5.000000000000000000e+00
1.000000000000000000e+00,1.885477431648486686e+02,1.026616462720188991e+02,5.000000000000000000e+00
1.000000000000000000e+00,2.028955683547781064e+02,1.129634726990724261e+02,5.000000000000000000e+00
1.000000000000000000e+00,1.737922451337022949e+02,1.158226429921083422e+02,5.000000000000000000e+00
1.000000000000000000e+00,1.644708016102526074e+02,1.121854364667723019e+02,5.000000000000000000e+00
1.000000000000000000e+00,1.782165279935015292e+02,1.127725311980892684e+02,5.000000000000000000e+00
1.000000000000000000e+00,2.067827839028507810e+02,1.154043397577611216e+02,5.000000000000000000e+00
1.000000000000000000e+00,1.945167301831675388e+02,1.172846463630670826e+02,5.000000000000000000e+00
1.000000000000000000e+00,1.711847703845140529e+02,1.126594840281647123e+02,5.000000000000000000e+00
1.000000000000000000e+00,1.538620570627837765e+02,1.081131135653761675e+02,5.000000000000000000e+00
1.000000000000000000e+00,1.903634021146164912e+02,1.090803445080749725e+02,5.000000000000000000e+00
1.000000000000000000e+00,1.720389070793558233e+02,1.146191110866884486e+02,5.000000000000000000e+00
1.000000000000000000e+00,1.925256898247341724e+02,1.115627880595336876e+02,5.000000000000000000e+00
1.000000000000000000e+00,1.711202574248047483e+02,1.027999737275170133e+02,5.000000000000000000e+00
1.000000000000000000e+00,1.768360210180232741e+02,9.799053271097402273e+01,5.000000000000000000e+00
1.000000000000000000e+00,1.816875326963514397e+02,1.025081247534089641e+02,5.000000000000000000e+00
1.000000000000000000e+00,1.454201034798618366e+02,9.001985525985740821e+01,5.000000000000000000e+00
1.000000000000000000e+00,1.896715647034245933e+02,1.013570768062685090e+02,5.000000000000000000e+00
1.000000000000000000e+00,1.824621510082914710e+02,1.002861141252711974e+02,5.000000000000000000e+00
1.000000000000000000e+00,1.756264124378084546e+02,9.852296634276768827e+01,5.000000000000000000e+00
1.000000000000000000e+00,1.857692227449167319e+02,1.062561518990980858e+02,5.000000000000000000e+00
1.000000000000000000e+00,1.820394179566672221e+02,1.132844017844712141e+02,5.000000000000000000e+00
1.000000000000000000e+00,1.863731188773917040e+02,1.055820479029135015e+02,5.000000000000000000e+00
1.000000000000000000e+00,2.057487721274719661e+02,1.015894641169957424e+02,5.000000000000000000e+00
1.000000000000000000e+00,1.836369685361898121e+02,1.025644671120740270e+02,5.000000000000000000e+00
1.000000000000000000e+00,1.766583560955023700e+02,1.074666057346629344e+02,6.000000000000000000e+00
1.000000000000000000e+00,1.536608258850641562e+02,1.070716497614162819e+02,6.000000000000000000e+00
1.000000000000000000e+00,1.533451150334302611e+02,9.519550209544081554e+01,6.000000000000000000e+00
1.000000000000000000e+00,1.523696205054535824e+02,1.043973774777168302e+02,6.000000000000000000e+00
1.000000000000000000e+00,1.681682278315227279e+02,9.843129395230455714e+01,6.000000000000000000e+00
1.000000000000000000e+00,1.651083634824960313e+02,9.502300291717595826e+01,6.000000000000000000e+00
1.000000000000000000e+00,1.705544778878640670e+02,9.982550061017522580e+01,6.000000000000000000e+00
1.000000000000000000e+00,1.425867327484427278e+02,9.290557319880883824e+01,6.000000000000000000e+00
1.000000000000000000e+00,1.719502256992678895e+02,1.084299083475368093e+02,6.000000000000000000e+00
1.000000000000000000e+00,1.746492844943765874e+02,1.064362707288869103e+02,6.000000000000000000e+00
1.000000000000000000e+00,1.568174705694857209e+02,1.101498202074718193e+02,6.000000000000000000e+00
1.000000000000000000e+00,1.422389506050114676e+02,9.704462076159821038e+01,6.000000000000000000e+00
1.000000000000000000e+00,1.835620515293116739e+02,1.009438276001863670e+02,6.000000000000000000e+00
1.000000000000000000e+00,1.724649780819640625e+02,1.019650155402469807e+02,6.000000000000000000e+00
1.000000000000000000e+00,1.778083319906130839e+02,9.402645274541680465e+01,6.000000000000000000e+00
1.000000000000000000e+00,1.924643557774816145e+02,8.944003560302351730e+01,6.000000000000000000e+00
1.000000000000000000e+00,1.904373336155479137e+02,1.034914613217358692e+02,6.000000000000000000e+00
1.000000000000000000e+00,1.845337144593603682e+02,1.025430543338566025e+02,6.000000000000000000e+00
1.000000000000000000e+00,2.218803798723255056e+02,1.141073387176607810e+02,6.000000000000000000e+00
1.000000000000000000e+00,2.372889180404857541e+02,1.195710656584952716e+02,6.000000000000000000e+00
1.000000000000000000e+00,1.878280358315087426e+02,1.114097185641098520e+02,6.000000000000000000e+00
1.000000000000000000e+00,1.859982484537711969e+02,1.190917738307724960e+02,6.000000000000000000e+00
1.000000000000000000e+00,1.650177759984950967e+02,1.112803462717445484e+02,6.000000000000000000e+00
1.000000000000000000e+00,1.647796837753625141e+02,1.130900216190274250e+02,6.000000000000000000e+00
1.000000000000000000e+00,1.719369697923887941e+02,1.123066078739851577e+02,6.000000000000000000e+00
1.000000000000000000e+00,1.748401841040946465e+02,1.172547205730816700e+02,6.000000000000000000e+00
1.000000000000000000e+00,1.870413179787100830e+02,1.124612771960378836e+02,6.000000000000000000e+00
1.000000000000000000e+00,1.784395473094238866e+02,1.132841897897957040e+02,6.000000000000000000e+00
1.000000000000000000e+00,2.030016980183453370e+02,1.226344694570851885e+02,6.000000000000000000e+00
1.000000000000000000e+00,1.757477466690825452e+02,1.263567129057297507e+02,6.000000000000000000e+00
1.000000000000000000e+00,1.672328268370885951e+02,1.098270887651282663e+02,6.000000000000000000e+00
1.000000000000000000e+00,1.830163073553514437e+02,1.230704216064055885e+02,6.000000000000000000e+00
1.000000000000000000e+00,1.464937098339252088e+02,1.054741408985720881e+02,6.000000000000000000e+00
1.000000000000000000e+00,1.501743255771595784e+02,1.085842457416074325e+02,6.000000000000000000e+00
1.000000000000000000e+00,1.907459163439624774e+02,1.030841532437813441e+02,6.000000000000000000e+00
1.000000000000000000e+00,1.689633666326450623e+02,1.098281711798794475e+02,6.000000000000000000e+00
1.000000000000000000e+00,1.690292291308090569e+02,1.080588458252151156e+02,6.000000000000000000e+00
1.000000000000000000e+00,1.712267500508376372e+02,1.180477705060859392e+02,6.000000000000000000e+00
1.000000000000000000e+00,1.850483618541928479e+02,1.124899260989529495e+02,6.000000000000000000e+00
1.000000000000000000e+00,2.255336432604291872e+02,1.199201425612097864e+02,6.000000000000000000e+00
1.000000000000000000e+00,1.678559173191318905e+02,1.031950671637584946e+02,6.000000000000000000e+00
1.000000000000000000e+00,1.615856316077395718e+02,1.127098738931475879e+02,6.000000000000000000e+00
1.000000000000000000e+00,1.877258763573363183e+02,9.368271157822235295e+01,6.000000000000000000e+00
1.000000000000000000e+00,1.433575493187665870e+02,9.578724459960785964e+01,6.000000000000000000e+00
1.000000000000000000e+00,1.773967618860974085e+02,1.053976058077677322e+02,6.000000000000000000e+00
1.000000000000000000e+00,1.988507081225107243e+02,1.010733472269587025e+02,6.000000000000000000e+00
1.000000000000000000e+00,1.447010098389931159e+02,9.078000099444284388e+01,6.000000000000000000e+00
1.000000000000000000e+00,1.390289601399064736e+02,9.005662529739628042e+01,6.000000000000000000e+00
1.000000000000000000e+00,1.899630063663218493e+02,1.049816694108647539e+02,6.000000000000000000e+00
1.000000000000000000e+00,2.150435320587405386e+02,9.893073130648154745e+01,6.000000000000000000e+00
1.000000000000000000e+00,1.863604100289992118e+02,9.697011823380471185e+01,6.000000000000000000e+00
1.000000000000000000e+00,1.709094948631201589e+02,1.037052313087219346e+02,6.000000000000000000e+00
1.000000000000000000e+00,1.758574035672530442e+02,9.772847118346062700e+01,6.000000000000000000e+00
1.000000000000000000e+00,1.736035537409913729e+02,1.039653943346941958e+02,6.000000000000000000e+00
1.000000000000000000e+00,1.910444978463546306e+02,1.147841176786239288e+02,6.000000000000000000e+00
1.000000000000000000e+00,1.868269446423334159e+02,1.066798729805416315e+02,6.000000000000000000e+00
1.000000000000000000e+00,1.770659950571475747e+02,1.110983511403334489e+02,6.000000000000000000e+00
1.000000000000000000e+00,1.981737500239109977e+02,1.148553165211747000e+02,6.000000000000000000e+00
1.000000000000000000e+00,1.748041199219431121e+02,1.029053597986513182e+02,6.000000000000000000e+00
1.000000000000000000e+00,1.966713855908148503e+02,1.066370956775471939e+02,6.000000000000000000e+00
1.000000000000000000e+00,2.137988339285421091e+02,1.079506546918369736e+02,6.000000000000000000e+00
1.000000000000000000e+00,2.038890929152623528e+02,1.000089959303021914e+02,6.000000000000000000e+00
1.000000000000000000e+00,1.824006668368120643e+02,9.718141900920348064e+01,6.000000000000000000e+00
1.000000000000000000e+00,1.796778588006709754e+02,1.028765861175898664e+02,6.000000000000000000e+00
1.000000000000000000e+00,1.847991052727288661e+02,1.037984121402114539e+02,7.000000000000000000e+00
1.000000000000000000e+00,1.833500904714460660e+02,1.097867838219457184e+02,7.000000000000000000e+00
1.000000000000000000e+00,1.493429731369576530e+02,1.046499493825281348e+02,7.000000000000000000e+00
1.000000000000000000e+00,1.570995646029077761e+02,1.075815098969692372e+02,7.000000000000000000e+00
1.000000000000000000e+00,1.534104345873872717e+02,9.765304949340298890e+01,7.000000000000000000e+00
1.000000000000000000e+00,1.464810540424689123e+02,1.007991071032208481e+02,7.000000000000000000e+00
1.000000000000000000e+00,1.565995797445916935e+02,1.076807615794771067e+02,7.000000000000000000e+00
1.000000000000000000e+00,1.508781741355628299e+02,1.050719377774423151e+02,7.000000000000000000e+00
1.000000000000000000e+00,1.676273710326584023e+02,1.024975093154006345e+02,7.000000000000000000e+00
1.000000000000000000e+00,1.710566178472033698e+02,9.739360859901886158e+01,7.000000000000000000e+00
1.000000000000000000e+00,1.598199232018305622e+02,1.002705891482459748e+02,7.000000000000000000e+00
1.000000000000000000e+00,1.604983083118209777e+02,9.359420298294010365e+01,7.000000000000000000e+00
1.000000000000000000e+00,1.737140252473914472e+02,9.723678635803267412e+01,7.000000000000000000e+00
1.000000000000000000e+00,1.584692797178183810e+02,9.832063291411412820e+01,7.000000000000000000e+00
1.000000000000000000e+00,1.448510108090063682e+02,9.386077278502443733e+01,7.000000000000000000e+00
1.000000000000000000e+00,1.509661593337215209e+02,9.708612376174677649e+01,7.000000000000000000e+00
1.000000000000000000e+00,1.828082065413237274e+02,1.052133077863554433e+02,7.000000000000000000e+00
1.000000000000000000e+00,1.736500418534063783e+02,1.086766265073193125e+02,7.000000000000000000e+00
1.000000000000000000e+00,1.818750222890973305e+02,1.063668628718612439e+02,7.000000000000000000e+00
1.000000000000000000e+00,1.487297395813282606e+02,1.099294657303594676e+02,7.000000000000000000e+00
1.000000000000000000e+00,1.507558953801814710e+02,1.058723466040499090e+02,7.000000000000000000e+00
1.000000000000000000e+00,1.572106447505527171e+02,1.093620956760882734e+02,7.000000000000000000e+00
1.000000000000000000e+00,1.395666947765919303e+02,1.034933370495111262e+02,7.000000000000000000e+00
1.000000000000000000e+00,1.354097522165006069e+02,9.457180189727004915e+01,7.000000000000000000e+00
1.000000000000000000e+00,1.879887900737984125e+02,1.042495381645325523e+02,7.000000000000000000e+00
1.000000000000000000e+00,1.878160903779070168e+02,1.006616693750749079e+02,7.000000000000000000e+00
1.000000000000000000e+00,1.781921700429245163e+02,1.043851787675929614e+02,7.000000000000000000e+00
1.000000000000000000e+00,1.756365185452280286e+02,9.682839836518989785e+01,7.000000000000000000e+00
1.000000000000000000e+00,1.767865308869077410e+02,9.896198284750025209e+01,7.000000000000000000e+00
1.000000000000000000e+00,1.771177997093192005e+02,9.929154695019546750e+01,7.000000000000000000e+00
1.000000000000000000e+00,1.869890256893532410e+02,8.459576316042574717e+01,7.000000000000000000e+00
1.000000000000000000e+00,1.594721003286581436e+02,8.736238408561892754e+01,7.000000000000000000e+00
1.000000000000000000e+00,1.869853444938104587e+02,9.716228626113594657e+01,7.000000000000000000e+00
1.000000000000000000e+00,1.716949952775772772e+02,1.026850478419947592e+02,7.000000000000000000e+00
1.000000000000000000e+00,1.869672964214873332e+02,1.034412591963069161e+02,7.000000000000000000e+00
1.000000000000000000e+00,1.832446373974338769e+02,1.023380406479396783e+02,7.000000000000000000e+00
1.000000000000000000e+00,2.082587149315888837e+02,1.141275518263282152e+02,7.000000000000000000e+00
1.000000000000000000e+00,2.429917443182118859e+02,1.079449038377295125e+02,7.000000000000000000e+00
1.000000000000000000e+00,2.396787725168386771e+02,1.243580563912296100e+02,7.000000000000000000e+00
1.000000000000000000e+00,2.377618659292364214e+02,1.186093752322999677e+02,7.000000000000000000e+00
1.000000000000000000e+00,1.905202988061740541e+02,1.038257097314429132e+02,7.000000000000000000e+00
1.000000000000000000e+00,1.879550418842350723e+02,1.130575715696558916e+02,7.000000000000000000e+00
1.000000000000000000e+00,1.866873511727560810e+02,1.168285172278011999e+02,7.000000000000000000e+00
1.000000000000000000e+00,1.773565846261215313e+02,1.164153937681931836e+02,7.000000000000000000e+00
1.000000000000000000e+00,1.679600389310955109e+02,1.113264015524090667e+02,7.000000000000000000e+00
1.000000000000000000e+00,1.709290706459087517e+02,1.087407198282856058e+02,7.000000000000000000e+00
1.000000000000000000e+00,1.536479864005252693e+02,1.127053049921315733e+02,7.000000000000000000e+00
1.000000000000000000e+00,1.954351767821881651e+02,1.140154629636891883e+02,7.000000000000000000e+00
1.000000000000000000e+00,1.662375086289036403e+02,1.131253431348596195e+02,7.000000000000000000e+00
1.000000000000000000e+00,1.690919590725791011e+02,1.143130095990668735e+02,7.000000000000000000e+00
1.000000000000000000e+00,1.741177352747843656e+02,1.180143070930668046e+02,7.000000000000000000e+00
1.000000000000000000e+00,1.763565287906607750e+02,1.142609413322582128e+02,7.000000000000000000e+00
1.000000000000000000e+00,1.839945203639891815e+02,1.099533769465979418e+02,7.000000000000000000e+00
1.000000000000000000e+00,2.080345907750781009e+02,1.081765756294822864e+02,7.000000000000000000e+00
1.000000000000000000e+00,1.693515264079920541e+02,1.084044530476476353e+02,7.000000000000000000e+00
1.000000000000000000e+00,1.717223455632074831e+02,1.142729322561346521e+02,7.000000000000000000e+00
1.000000000000000000e+00,2.073273237908069007e+02,1.273993946902292720e+02,7.000000000000000000e+00
1.000000000000000000e+00,1.922107162692362863e+02,1.144429348313187376e+02,7.000000000000000000e+00
1.000000000000000000e+00,1.796998951145099284e+02,1.318028634378251809e+02,7.000000000000000000e+00
1.000000000000000000e+00,1.776383184854337003e+02,1.178444757470793576e+02,7.000000000000000000e+00
1.000000000000000000e+00,1.675154776293738905e+02,1.159068483573629749e+02,7.000000000000000000e+00
1.000000000000000000e+00,1.803670268238436165e+02,1.058377077322397497e+02,7.000000000000000000e+00
1.000000000000000000e+00,1.907835566593786325e+02,1.284440967988694808e+02,7.000000000000000000e+00
1.000000000000000000e+00,1.655857139005329088e+02,1.234727467321141035e+02,7.000000000000000000e+00
1.000000000000000000e+00,1.586470571675873771e+02,1.031842723935669284e+02,7.000000000000000000e+00
1.000000000000000000e+00,1.614360563930601131e+02,1.006663778449659787e+02,7.000000000000000000e+00
1.000000000000000000e+00,1.502038790064071065e+02,1.092932476462959386e+02,7.000000000000000000e+00
1.000000000000000000e+00,1.440549525100754522e+02,1.114932279021837616e+02,7.000000000000000000e+00
1.000000000000000000e+00,1.875603740032493363e+02,1.042457713542252833e+02,7.000000000000000000e+00
1.000000000000000000e+00,1.935521667293455153e+02,1.021873957207160828e+02,7.000000000000000000e+00
1.000000000000000000e+00,1.639694636034590758e+02,1.096814006797328176e+02,7.000000000000000000e+00
1.000000000000000000e+00,1.575970836082059350e+02,1.122650253693629310e+02,7.000000000000000000e+00
1.000000000000000000e+00,1.651730112161663158e+02,1.123943592284688435e+02,7.000000000000000000e+00
1.000000000000000000e+00,1.570213454463732603e+02,1.056278607259522460e+02,7.000000000000000000e+00
1.000000000000000000e+00,1.747391667124978767e+02,1.208455764988505337e+02,7.000000000000000000e+00
1.000000000000000000e+00,1.924867786523369375e+02,1.191688971157383321e+02,7.000000000000000000e+00
1.000000000000000000e+00,1.811791487357618848e+02,1.072984607661260981e+02,7.000000000000000000e+00
1.000000000000000000e+00,1.859451576343095383e+02,1.202100803687309565e+02,7.000000000000000000e+00
1.000000000000000000e+00,2.351629239588126268e+02,1.232252379778580007e+02,7.000000000000000000e+00
1.000000000000000000e+00,2.254785704956058225e+02,1.150529083064893570e+02,7.000000000000000000e+00
1.000000000000000000e+00,1.712363762479359934e+02,1.004284238022530076e+02,7.000000000000000000e+00
1.000000000000000000e+00,1.698832914417347411e+02,1.048294585734368383e+02,7.000000000000000000e+00
1.000000000000000000e+00,1.677908270109981572e+02,1.101783443838871648e+02,7.000000000000000000e+00
1.000000000000000000e+00,1.795511930427862239e+02,1.073563950679716186e+02,7.000000000000000000e+00
1.000000000000000000e+00,1.876880800723636753e+02,9.817004305365796313e+01,7.000000000000000000e+00
1.000000000000000000e+00,1.853241288087433531e+02,9.357520604157478772e+01,7.000000000000000000e+00
1.000000000000000000e+00,1.431076126291923742e+02,9.611706464785603998e+01,7.000000000000000000e+00
1.000000000000000000e+00,1.519401322020346186e+02,9.798330515098238891e+01,7.000000000000000000e+00
1.000000000000000000e+00,1.778408977385448679e+02,1.015968376988925286e+02,7.000000000000000000e+00
1.000000000000000000e+00,1.775254544896011453e+02,1.124655425952422547e+02,7.000000000000000000e+00
1.000000000000000000e+00,1.918953739777180658e+02,9.544295932316356357e+01,7.000000000000000000e+00
1.000000000000000000e+00,2.035835953463945032e+02,1.024932291478762778e+02,7.000000000000000000e+00
1.000000000000000000e+00,1.400238017090526910e+02,9.434202374698891447e+01,7.000000000000000000e+00
1.000000000000000000e+00,1.423727715353178667e+02,9.343718983343931939e+01,7.000000000000000000e+00
1.000000000000000000e+00,1.441390866990948041e+02,9.377751601475677035e+01,7.000000000000000000e+00
1.000000000000000000e+00,1.469142768675997957e+02,9.124990133895366284e+01,7.000000000000000000e+00
1.000000000000000000e+00,1.876855589654947778e+02,1.123816945350294532e+02,7.000000000000000000e+00
1.000000000000000000e+00,1.703208506469416363e+02,1.064421430734921330e+02,7.000000000000000000e+00
1.000000000000000000e+00,1.975965407269786738e+02,9.998015695583882234e+01,7.000000000000000000e+00
1.000000000000000000e+00,2.149957384424884594e+02,9.716648960586398687e+01,7.000000000000000000e+00
1.000000000000000000e+00,1.851602759735024222e+02,9.616788120801155060e+01,7.000000000000000000e+00
1.000000000000000000e+00,2.121902655856129627e+02,1.028610630325196809e+02,7.000000000000000000e+00
1.000000000000000000e+00,1.801815598886895202e+02,1.084673662573956676e+02,7.000000000000000000e+00
1.000000000000000000e+00,1.481024009312114345e+02,1.025825527463967148e+02,7.000000000000000000e+00
1.000000000000000000e+00,1.678821360684119952e+02,9.740194914373037705e+01,7.000000000000000000e+00
1.000000000000000000e+00,1.548440378910012498e+02,9.631574489977555231e+01,7.000000000000000000e+00
1.000000000000000000e+00,1.741373818274080350e+02,1.033685837507676695e+02,7.000000000000000000e+00
1.000000000000000000e+00,1.752203275605582746e+02,1.069131989707043431e+02,7.000000000000000000e+00
1.000000000000000000e+00,1.931926043223557201e+02,1.126486316324212567e+02,7.000000000000000000e+00
1.000000000000000000e+00,2.078531633932581428e+02,1.165579025137208760e+02,7.000000000000000000e+00
1.000000000000000000e+00,1.897240444734912046e+02,1.118566282701484056e+02,7.000000000000000000e+00
1.000000000000000000e+00,1.849700920292579838e+02,1.109012112933311727e+02,7.000000000000000000e+00
1.000000000000000000e+00,1.778107898824123083e+02,1.102981280922973326e+02,7.000000000000000000e+00
1.000000000000000000e+00,1.841441499772666646e+02,1.124076176833994936e+02,7.000000000000000000e+00
1.000000000000000000e+00,1.836781637810257450e+02,1.201442048314549425e+02,7.000000000000000000e+00
1.000000000000000000e+00,1.890155912641676537e+02,1.120698807888140038e+02,7.000000000000000000e+00
1.000000000000000000e+00,1.765356293282424645e+02,1.019230025958608081e+02,7.000000000000000000e+00
1.000000000000000000e+00,1.898026641349810575e+02,1.004143675551148931e+02,7.000000000000000000e+00
1.000000000000000000e+00,1.983126586659457189e+02,1.030149015381471855e+02,7.000000000000000000e+00
1.000000000000000000e+00,1.972918672219515202e+02,1.151607380136061067e+02,7.000000000000000000e+00
1.000000000000000000e+00,2.224163909144265858e+02,1.100519758059614901e+02,7.000000000000000000e+00
1.000000000000000000e+00,2.135660673132732654e+02,1.156732516165719744e+02,7.000000000000000000e+00
1.000000000000000000e+00,1.990884069442813882e+02,1.023110889347370289e+02,7.000000000000000000e+00
1.000000000000000000e+00,2.147677648893509854e+02,1.024569370192183442e+02,7.000000000000000000e+00
1.000000000000000000e+00,1.862073453480672072e+02,9.482353888778129658e+01,7.000000000000000000e+00
1.000000000000000000e+00,1.893637632419259376e+02,9.436308504864639701e+01,7.000000000000000000e+00
1.000000000000000000e+00,1.849403427457224893e+02,9.933263636633337512e+01,7.000000000000000000e+00
1.000000000000000000e+00,1.818347585677785787e+02,9.294706528384806177e+01,7.000000000000000000e+00
-1.000000000000000000e+00,1.407090332674473245e+02,6.546015882594463164e+01,8.000000000000000000e+00
-1.000000000000000000e+00,1.516066314369165298e+02,7.283506357808630582e+01,8.000000000000000000e+00
-1.000000000000000000e+00,1.337989375440358515e+02,6.399488344820281327e+01,8.000000000000000000e+00
-1.000000000000000000e+00,1.473271847263860650e+02,6.593917915048541545e+01,8.000000000000000000e+00
-1.000000000000000000e+00,1.707639060108537592e+02,7.691960773207703994e+01,8.000000000000000000e+00
-1.000000000000000000e+00,1.534684808920714545e+02,7.954518153228866595e+01,8.000000000000000000e+00
-1.000000000000000000e+00,1.558350009322006144e+02,7.730400335572400650e+01,8.000000000000000000e+00
-1.000000000000000000e+00,1.586966454118866352e+02,7.403950073819355282e+01,8.000000000000000000e+00
-1.000000000000000000e+00,1.461806410016772588e+02,6.296215805306343327e+01,8.000000000000000000e+00
-1.000000000000000000e+00,1.457907625020826572e+02,5.748953483718469215e+01,8.000000000000000000e+00
-1.000000000000000000e+00,1.612079489788066269e+02,6.309420244769001584e+01,8.000000000000000000e+00
-1.000000000000000000e+00,1.582129812035288410e+02,5.707407599065161463e+01,8.000000000000000000e+00
-1.000000000000000000e+00,1.411208631072357491e+02,6.046748677669156535e+01,8.000000000000000000e+00
-1.000000000000000000e+00,1.484133746501468920e+02,6.898983593218200383e+01,8.000000000000000000e+00
-1.000000000000000000e+00,1.489804110088357163e+02,5.627611301216018092e+01,8.000000000000000000e+00
-1.000000000000000000e+00,1.562004158750855538e+02,5.465886513071055219e+01,8.000000000000000000e+00
-1.000000000000000000e+00,1.408957978774836590e+02,8.220879059998364369e+01,8.000000000000000000e+00
-1.000000000000000000e+00,1.499588271370132588e+02,8.589398803848801833e+01,8.000000000000000000e+00
-1.000000000000000000e+00,1.492861312962643012e+02,6.269470295082986411e+01,8.000000000000000000e+00
-1.000000000000000000e+00,1.482453543439581267e+02,6.667383147094351159e+01,8.000000000000000000e+00
-1.000000000000000000e+00,1.405783671894129441e+02,8.346225275823860557e+01,8.000000000000000000e+00
-1.000000000000000000e+00,1.417734830212803558e+02,8.542260427943710965e+01,8.000000000000000000e+00
-1.000000000000000000e+00,1.426069650080986264e+02,7.808223341774278481e+01,8.000000000000000000e+00
-1.000000000000000000e+00,1.406679237626431132e+02,8.257178604322596982e+01,8.000000000000000000e+00
-1.000000000000000000e+00,1.338141870099329083e+02,7.968938900065163011e+01,8.000000000000000000e+00
-1.000000000000000000e+00,1.396271119386850330e+02,8.719412544780929863e+01,8.000000000000000000e+00
-1.000000000000000000e+00,1.484705526344438908e+02,8.818023811720109961e+01,8.000000000000000000e+00
-1.000000000000000000e+00,1.393946983855564667e+02,8.745893941204180067e+01,8.000000000000000000e+00
-1.000000000000000000e+00,1.492423362920809211e+02,7.147348261960293314e+01,8.000000000000000000e+00
-1.000000000000000000e+00,1.592722777273511383e+02,6.906398148951356575e+01,8.000000000000000000e+00
-1.000000000000000000e+00,1.471078033196461377e+02,6.205729799893198617e+01,8.000000000000000000e+00
-1.000000000000000000e+00,1.539673849591509907e+02,5.657045985366615781e+01,8.000000000000000000e+00
-1.000000000000000000e+00,1.515274464681353663e+02,7.041530495019981117e+01,8.000000000000000000e+00
-1.000000000000000000e+00,1.395762337137824431e+02,7.752202774629269300e+01,8.000000000000000000e+00
-1.000000000000000000e+00,1.463394035389342491e+02,6.241845200856523235e+01,8.000000000000000000e+00
-1.000000000000000000e+00,1.423834516260810688e+02,6.123699402166563033e+01,8.000000000000000000e+00
-1.000000000000000000e+00,1.388588923136629774e+02,7.328396806812261843e+01,8.000000000000000000e+00
-1.000000000000000000e+00,1.421889160912500927e+02,7.162015541192855039e+01,8.000000000000000000e+00
-1.000000000000000000e+00,1.241618018504036058e+02,7.749149861281482288e+01,8.000000000000000000e+00
-1.000000000000000000e+00,1.355892345711714313e+02,7.800345078004063737e+01,8.000000000000000000e+00
-1.000000000000000000e+00,1.523674801256550495e+02,8.173296222488494323e+01,8.000000000000000000e+00
-1.000000000000000000e+00,1.491015376917849267e+02,9.115586236914059270e+01,8.000000000000000000e+00
-1.000000000000000000e+00,1.470153818657653346e+02,7.861514679670808903e+01,8.000000000000000000e+00
-1.000000000000000000e+00,1.448689072895664935e+02,7.623652069758770722e+01,8.000000000000000000e+00
-1.000000000000000000e+00,1.468760671166498071e+02,8.360126838488045564e+01,8.000000000000000000e+00
-1.000000000000000000e+00,1.480082934328505644e+02,7.998952878451531490e+01,8.000000000000000000e+00
-1.000000000000000000e+00,1.497440472100835223e+02,7.781820683978320119e+01,8.000000000000000000e+00
-1.000000000000000000e+00,1.536444041691004259e+02,7.791886195715343888e+01,8.000000000000000000e+00
-1.000000000000000000e+00,1.483401840760187724e+02,5.695398628746234237e+01,8.000000000000000000e+00
-1.000000000000000000e+00,1.542236311507544997e+02,7.268249141903740451e+01,8.000000000000000000e+00
-1.000000000000000000e+00,1.448123865686710303e+02,6.402853081353109133e+01,8.000000000000000000e+00
-1.000000000000000000e+00,1.456002131701708890e+02,5.916799639160883828e+01,8.000000000000000000e+00
-1.000000000000000000e+00,1.550049140479785876e+02,6.970045536385904938e+01,8.000000000000000000e+00
-1.000000000000000000e+00,1.497516271999013213e+02,7.298545717767882479e+01,8.000000000000000000e+00
-1.000000000000000000e+00,1.375172947943465260e+02,6.489601815922931394e+01,8.000000000000000000e+00
-1.000000000000000000e+00,1.413530040472648750e+02,5.866612273554144963e+01,8.000000000000000000e+00
-1.000000000000000000e+00,1.361027861940638672e+02,6.037316768608472017e+01,8.000000000000000000e+00
-1.000000000000000000e+00,1.474485207724606255e+02,6.816769359028033648e+01,8.000000000000000000e+00
-1.000000000000000000e+00,1.445353578994620705e+02,6.039000112764388462e+01,8.000000000000000000e+00
-1.000000000000000000e+00,1.446472141743264217e+02,5.666691006781402962e+01,8.000000000000000000e+00
-1.000000000000000000e+00,1.459536912542738207e+02,6.078389578389268877e+01,8.000000000000000000e+00
-1.000000000000000000e+00,1.397764600941740412e+02,5.984968387432225256e+01,8.000000000000000000e+00
-1.000000000000000000e+00,1.424584657094837610e+02,6.503456931228595295e+01,8.000000000000000000e+00
-1.000000000000000000e+00,1.409897150387876934e+02,7.152071311288409561e+01,8.000000000000000000e+00
-1.000000000000000000e+00,1.594452150071525693e+02,4.943212180541871703e+01,8.000000000000000000e+00
-1.000000000000000000e+00,1.492548205799765242e+02,4.791223781776884039e+01,8.000000000000000000e+00
-1.000000000000000000e+00,1.367995525164218691e+02,4.761057421652629529e+01,8.000000000000000000e+00
-1.000000000000000000e+00,1.439912303085492908e+02,5.605473919797299942e+01,8.000000000000000000e+00
-1.000000000000000000e+00,1.481269589797140327e+02,5.828385046208726550e+01,8.000000000000000000e+00
-1.000000000000000000e+00,1.531978569628452647e+02,6.285997807277541227e+01,8.000000000000000000e+00
-1.000000000000000000e+00,1.402755558090405259e+02,5.484133885051082302e+01,8.000000000000000000e+00
-1.000000000000000000e+00,1.450050971915538582e+02,4.763413595292590941e+01,8.000000000000000000e+00
-1.000000000000000000e+00,1.575218158171155096e+02,5.605963224650663790e+01,8.000000000000000000e+00
-1.000000000000000000e+00,1.538832807573899402e+02,5.342604178783860647e+01,8.000000000000000000e+00
-1.000000000000000000e+00,1.506583029133739728e+02,5.603753884871422741e+01,8.000000000000000000e+00
-1.000000000000000000e+00,1.536104567422224250e+02,5.686526788512848185e+01,8.000000000000000000e+00
-1.000000000000000000e+00,1.492960851033611220e+02,6.343785723653773800e+01,8.000000000000000000e+00
-1.000000000000000000e+00,1.456754627823862904e+02,5.131901661900813849e+01,8.000000000000000000e+00
-1.000000000000000000e+00,1.480548880484790857e+02,6.759488678265901740e+01,8.000000000000000000e+00
-1.000000000000000000e+00,1.403657868525556864e+02,7.609116681316933750e+01,8.000000000000000000e+00
-1.000000000000000000e+00,1.444709903550267711e+02,5.438880923360287056e+01,8.000000000000000000e+00
-1.000000000000000000e+00,1.522612596794521096e+02,5.731553704789043735e+01,8.000000000000000000e+00
-1.000000000000000000e+00,1.416491432741325411e+02,5.549381648269338285e+01,8.000000000000000000e+00
-1.000000000000000000e+00,1.500307223105496348e+02,5.403250042544686238e+01,8.000000000000000000e+00
-1.000000000000000000e+00,1.623544674915789869e+02,5.194264182865569524e+01,8.000000000000000000e+00
-1.000000000000000000e+00,1.553711514053065628e+02,5.092838359601975640e+01,8.000000000000000000e+00
-1.000000000000000000e+00,1.410887148381837335e+02,4.738028562394243437e+01,8.000000000000000000e+00
-1.000000000000000000e+00,1.426803427333819911e+02,4.134333805838825526e+01,8.000000000000000000e+00
-1.000000000000000000e+00,1.346747922063030387e+02,5.217557504506257260e+01,8.000000000000000000e+00
-1.000000000000000000e+00,1.351893791893511150e+02,3.864503030215564650e+01,8.000000000000000000e+00
-1.000000000000000000e+00,1.340130477173225074e+02,5.164794750648729149e+01,8.000000000000000000e+00
-1.000000000000000000e+00,1.384506229112028279e+02,5.239080952957315418e+01,8.000000000000000000e+00
-1.000000000000000000e+00,1.519299046175657679e+02,5.290520151292383133e+01,8.000000000000000000e+00
-1.000000000000000000e+00,1.417116929189143946e+02,5.270774032605823578e+01,8.000000000000000000e+00
-1.000000000000000000e+00,1.458472482352782151e+02,5.820720971267702737e+01,8.000000000000000000e+00
-1.000000000000000000e+00,1.512497909913312526e+02,5.862921887783442543e+01,8.000000000000000000e+00
-1.000000000000000000e+00,1.505062221085678402e+02,6.119851811234436667e+01,8.000000000000000000e+00
-1.000000000000000000e+00,1.519912354246515918e+02,6.133113764485266017e+01,8.000000000000000000e+00
-1.000000000000000000e+00,1.487626823194402732e+02,7.262136232262869839e+01,8.000000000000000000e+00
-1.000000000000000000e+00,1.489820358281048982e+02,7.028291559956934975e+01,8.000000000000000000e+00
-1.000000000000000000e+00,1.484914063936458319e+02,6.768940040017038484e+01,8.000000000000000000e+00
-1.000000000000000000e+00,1.486793323345434885e+02,7.876939055723023841e+01,8.000000000000000000e+00
-1.000000000000000000e+00,1.502025335921771898e+02,6.431580168417039545e+01,8.000000000000000000e+00
-1.000000000000000000e+00,1.573353451967844023e+02,5.258479288493182224e+01,8.000000000000000000e+00
-1.000000000000000000e+00,1.274757402818499941e+02,5.366053213202794581e+01,8.000000000000000000e+00
-1.000000000000000000e+00,1.395273364717935465e+02,4.963891170371259420e+01,8.000000000000000000e+00
-1.000000000000000000e+00,1.517013616287630100e+02,5.837910321253099255e+01,8.000000000000000000e+00
-1.000000000000000000e+00,1.508751391880639687e+02,5.649851150601033822e+01,8.000000000000000000e+00
-1.000000000000000000e+00,1.629220004555509149e+02,7.358607793030110145e+01,8.000000000000000000e+00
-1.000000000000000000e+00,1.522255118086703192e+02,8.385201256459893671e+01,8.000000000000000000e+00
-1.000000000000000000e+00,1.579341883494061278e+02,6.197266356726780856e+01,8.000000000000000000e+00
-1.000000000000000000e+00,1.546793434076157894e+02,6.183211152637333896e+01,8.000000000000000000e+00
-1.000000000000000000e+00,1.504470050841911757e+02,7.137367236617326682e+01,8.000000000000000000e+00
-1.000000000000000000e+00,1.603442363108203779e+02,8.002703325460072392e+01,8.000000000000000000e+00
-1.000000000000000000e+00,1.601858162880309635e+02,8.219275785756565256e+01,8.000000000000000000e+00
-1.000000000000000000e+00,1.579868038215676620e+02,7.991212930605119880e+01,8.000000000000000000e+00
-1.000000000000000000e+00,1.504897395108648652e+02,6.953191014492415434e+01,8.000000000000000000e+00
-1.000000000000000000e+00,1.577669818812965445e+02,6.969793970406091432e+01,8.000000000000000000e+00
-1.000000000000000000e+00,1.544462214225489731e+02,8.441209284191397444e+01,8.000000000000000000e+00
-1.000000000000000000e+00,1.605178497686381718e+02,8.875885256863976736e+01,8.000000000000000000e+00
-1.000000000000000000e+00,1.658986342979186475e+02,7.987871234051239355e+01,8.000000000000000000e+00
-1.000000000000000000e+00,1.582655435503176022e+02,8.003047018686284275e+01,8.000000000000000000e+00
-1.000000000000000000e+00,1.466392478472708945e+02,8.749598038404239730e+01,8.000000000000000000e+00
-1.000000000000000000e+00,1.487785790876507406e+02,7.013670299777336936e+01,8.000000000000000000e+00
-1.000000000000000000e+00,1.501227304593980705e+02,8.076746591567174960e+01,8.000000000000000000e+00
-1.000000000000000000e+00,1.577621382520548821e+02,8.086350625402766923e+01,8.000000000000000000e+00
-1.000000000000000000e+00,1.610228644329880012e+02,8.350604328994194248e+01,8.000000000000000000e+00
-1.000000000000000000e+00,1.609333745040295298e+02,7.921435058835363918e+01,8.000000000000000000e+00
-1.000000000000000000e+00,1.668575918177268136e+02,6.651481864075867634e+01,8.000000000000000000e+00
-1.000000000000000000e+00,1.603969770226781293e+02,6.897933364449042415e+01,8.000000000000000000e+00
-1.000000000000000000e+00,1.645681655683097802e+02,5.449551420777668653e+01,8.000000000000000000e+00
-1.000000000000000000e+00,1.675026364388273521e+02,5.263109665642727464e+01,8.000000000000000000e+00
-1.000000000000000000e+00,1.620909194582979467e+02,6.068965949191333920e+01,8.000000000000000000e+00
-1.000000000000000000e+00,1.525983069221147730e+02,5.770909267644391605e+01,8.000000000000000000e+00
-1.000000000000000000e+00,1.565063820296893482e+02,5.430136261587261970e+01,8.000000000000000000e+00
-1.000000000000000000e+00,1.544760920816573275e+02,5.431728200664370831e+01,8.000000000000000000e+00
-1.000000000000000000e+00,1.629772677419996967e+02,6.669068390470955876e+01,8.000000000000000000e+00
-1.000000000000000000e+00,1.651278426041095884e+02,7.312160876728341918e+01,8.000000000000000000e+00
-1.000000000000000000e+00,1.627049116699653553e+02,7.638779657711998539e+01,8.000000000000000000e+00
-1.000000000000000000e+00,1.701085423460988011e+02,6.871884614336090635e+01,8.000000000000000000e+00
-1.000000000000000000e+00,1.794695132005787173e+02,6.800502212017126169e+01,8.000000000000000000e+00
-1.000000000000000000e+00,1.692333684394852469e+02,7.171314935763582810e+01,8.000000000000000000e+00
-1.000000000000000000e+00,1.769327579196561260e+02,6.996960061604599446e+01,8.000000000000000000e+00
-1.000000000000000000e+00,1.683187860967140352e+02,5.897855187581149750e+01,8.000000000000000000e+00
-1.000000000000000000e+00,1.511195003635213254e+02,5.670406568981994866e+01,8.000000000000000000e+00
-1.000000000000000000e+00,1.502377697948434445e+02,6.280889870963223132e+01,8.000000000000000000e+00
-1.000000000000000000e+00,1.671236786393915565e+02,6.264727171183515964e+01,8.000000000000000000e+00
-1.000000000000000000e+00,1.559985659368498432e+02,5.864998401899526215e+01,8.000000000000000000e+00
-1.000000000000000000e+00,1.601534868551745774e+02,6.010838013032762461e+01,8.000000000000000000e+00
-1.000000000000000000e+00,1.586123038700611971e+02,6.769659337826098522e+01,8.000000000000000000e+00
-1.000000000000000000e+00,1.543013668630815118e+02,6.615100154919686304e+01,8.000000000000000000e+00
-1.000000000000000000e+00,1.596136210769407455e+02,6.292098673215163274e+01,8.000000000000000000e+00
-1.000000000000000000e+00,1.637839413769692385e+02,5.646102365832145153e+01,8.000000000000000000e+00
-1.000000000000000000e+00,1.569526036932429065e+02,5.895694886901493703e+01,8.000000000000000000e+00
-1.000000000000000000e+00,1.803854194258028656e+02,5.890604343773238583e+01,8.000000000000000000e+00
-1.000000000000000000e+00,1.826522698187548031e+02,4.939486597791069045e+01,8.000000000000000000e+00
-1.000000000000000000e+00,1.741604813220538688e+02,5.312550510761406031e+01,8.000000000000000000e+00
-1.000000000000000000e+00,1.734423575017389680e+02,4.800669022444496647e+01,8.000000000000000000e+00
-1.000000000000000000e+00,1.610954384544962465e+02,5.511909927212701632e+01,8.000000000000000000e+00
-1.000000000000000000e+00,1.788688541308061701e+02,4.450852672154442757e+01,8.000000000000000000e+00
-1.000000000000000000e+00,1.621232892242898913e+02,5.638955936047366890e+01,8.000000000000000000e+00
-1.000000000000000000e+00,1.623812820120865013e+02,5.139719426885324083e+01,8.000000000000000000e+00
-1.000000000000000000e+00,1.632382968761596658e+02,4.937293195375047361e+01,8.000000000000000000e+00
-1.000000000000000000e+00,1.633819436373168514e+02,3.833413215904091942e+01,8.000000000000000000e+00
-1.000000000000000000e+00,1.735706098707397871e+02,5.224229344092231031e+01,8.000000000000000000e+00
-1.000000000000000000e+00,1.718846646433963201e+02,5.450651935457059949e+01,8.000000000000000000e+00
-1.000000000000000000e+00,1.635597281437651418e+02,5.654249258469923234e+01,8.000000000000000000e+00
-1.000000000000000000e+00,1.691023329159584989e+02,5.959538916800654107e+01,8.000000000000000000e+00
-1.000000000000000000e+00,1.722105984935675451e+02,6.396882932638492036e+01,8.000000000000000000e+00
-1.000000000000000000e+00,1.673741855961202987e+02,7.098252719573224567e+01,8.000000000000000000e+00
-1.000000000000000000e+00,1.569817384832354605e+02,4.982965121650328655e+01,8.000000000000000000e+00
-1.000000000000000000e+00,1.652309954890716597e+02,4.668997620998033682e+01,8.000000000000000000e+00
-1.000000000000000000e+00,1.853920386085460166e+02,5.572893172282526564e+01,8.000000000000000000e+00
-1.000000000000000000e+00,1.774697297019431232e+02,4.796344687920640126e+01,8.000000000000000000e+00
-1.000000000000000000e+00,1.705053739182843060e+02,5.568879158371754556e+01,8.000000000000000000e+00
-1.000000000000000000e+00,1.818233101636336073e+02,6.765388789335308672e+01,8.000000000000000000e+00
-1.000000000000000000e+00,1.483059693433907853e+02,6.790544954465889305e+01,8.000000000000000000e+00
-1.000000000000000000e+00,1.494409007344398503e+02,7.467786707674476077e+01,8.000000000000000000e+00
-1.000000000000000000e+00,1.490011252165377584e+02,5.625824171085693592e+01,8.000000000000000000e+00
-1.000000000000000000e+00,1.459972031750781127e+02,5.737683707832808722e+01,8.000000000000000000e+00
-1.000000000000000000e+00,1.723885807608678817e+02,5.478155873537205167e+01,8.000000000000000000e+00
-1.000000000000000000e+00,1.718512162195534358e+02,5.069054517820772787e+01,8.000000000000000000e+00
-1.000000000000000000e+00,1.769803666723521189e+02,5.792455131756068454e+01,8.000000000000000000e+00
-1.000000000000000000e+00,1.733341578516186416e+02,5.189516489315967362e+01,8.000000000000000000e+00
-1.000000000000000000e+00,1.784345893062944981e+02,6.814828413525756901e+01,8.000000000000000000e+00
-1.000000000000000000e+00,1.742159005842926263e+02,6.212251713651223639e+01,8.000000000000000000e+00
-1.000000000000000000e+00,1.689922703917657145e+02,5.995525535086662217e+01,8.000000000000000000e+00
-1.000000000000000000e+00,1.692638438613741414e+02,6.589334476361644022e+01,8.000000000000000000e+00
-1.000000000000000000e+00,1.643643215960325961e+02,5.595004909321573194e+01,8.000000000000000000e+00
-1.000000000000000000e+00,1.758489149519355976e+02,6.426611185136323456e+01,8.000000000000000000e+00
-1.000000000000000000e+00,1.809572035743375977e+02,6.451698362300292899e+01,8.000000000000000000e+00
-1.000000000000000000e+00,1.766191581864825935e+02,7.553387164376329110e+01,8.000000000000000000e+00
-1.000000000000000000e+00,1.679111914986953309e+02,6.998215931407123946e+01,8.000000000000000000e+00
-1.000000000000000000e+00,1.622344427409847754e+02,6.612272579499139624e+01,8.000000000000000000e+00
-1.000000000000000000e+00,1.606664656105525069e+02,7.287057762222384838e+01,8.000000000000000000e+00
-1.000000000000000000e+00,1.654434395145505050e+02,8.382719617910055376e+01,8.000000000000000000e+00
-1.000000000000000000e+00,1.672230169881599409e+02,7.413435884019199307e+01,8.000000000000000000e+00
-1.000000000000000000e+00,1.599352195180497631e+02,8.260137871172435098e+01,8.000000000000000000e+00
-1.000000000000000000e+00,1.677511264011198193e+02,6.699801661377978235e+01,8.000000000000000000e+00
-1.000000000000000000e+00,1.662118467259165584e+02,7.026264379359884060e+01,8.000000000000000000e+00
-1.000000000000000000e+00,1.686006051801465446e+02,6.497972928295027373e+01,8.000000000000000000e+00
-1.000000000000000000e+00,1.721225533529917016e+02,6.542616397594896682e+01,8.000000000000000000e+00
-1.000000000000000000e+00,1.695769096690939080e+02,5.981059541382582267e+01,8.000000000000000000e+00
-1.000000000000000000e+00,1.667870074535427420e+02,4.862365770633109463e+01,8.000000000000000000e+00
-1.000000000000000000e+00,1.638951025024579735e+02,8.184855638010405698e+01,8.000000000000000000e+00
-1.000000000000000000e+00,1.710409416826866220e+02,7.294098817533429724e+01,8.000000000000000000e+00
-1.000000000000000000e+00,1.775578552839348561e+02,9.003066825572753373e+01,8.000000000000000000e+00
-1.000000000000000000e+00,1.770496981337555269e+02,8.599823128844016651e+01,8.000000000000000000e+00
-1.000000000000000000e+00,1.541724825895453819e+02,6.422940843386199106e+01,8.000000000000000000e+00
-1.000000000000000000e+00,1.537567453916764464e+02,6.197345803805629316e+01,8.000000000000000000e+00
-1.000000000000000000e+00,1.544470794947468164e+02,6.264975601000361394e+01,8.000000000000000000e+00
-1.000000000000000000e+00,1.530355668522828978e+02,5.937204193076725289e+01,8.000000000000000000e+00
-1.000000000000000000e+00,1.505668329235831209e+02,6.898973933668526115e+01,8.000000000000000000e+00
-1.000000000000000000e+00,1.550653690982047692e+02,7.225962837668535599e+01,8.000000000000000000e+00
-1.000000000000000000e+00,1.631746596539583152e+02,5.941384986578033534e+01,8.000000000000000000e+00
-1.000000000000000000e+00,1.618544637805575235e+02,5.117912074764927155e+01,8.000000000000000000e+00
-1.000000000000000000e+00,1.519567449999286453e+02,6.641048974407466687e+01,8.000000000000000000e+00
-1.000000000000000000e+00,1.522490701422240704e+02,6.400347612791196639e+01,8.000000000000000000e+00
-1.000000000000000000e+00,1.473177912483572811e+02,5.353341848125450753e+01,8.000000000000000000e+00
-1.000000000000000000e+00,1.540249296427301715e+02,5.528494917846499845e+01,8.000000000000000000e+00
-1.000000000000000000e+00,1.622234548855993523e+02,6.935144274459020153e+01,8.000000000000000000e+00
-1.000000000000000000e+00,1.593106154336956308e+02,7.266773323098878734e+01,8.000000000000000000e+00
-1.000000000000000000e+00,1.606527863745757543e+02,7.682312401213215480e+01,8.000000000000000000e+00
-1.000000000000000000e+00,1.677657016982830385e+02,7.555726009545740851e+01,8.000000000000000000e+00
-1.000000000000000000e+00,1.492929110870528007e+02,6.589993134103553984e+01,8.000000000000000000e+00
-1.000000000000000000e+00,1.579080184435728711e+02,7.679064517368144038e+01,8.000000000000000000e+00
-1.000000000000000000e+00,1.570730564025466833e+02,7.287746051360990407e+01,8.000000000000000000e+00
-1.000000000000000000e+00,1.543092049890854582e+02,6.858362409839330098e+01,8.000000000000000000e+00
-1.000000000000000000e+00,1.480251048705254107e+02,5.348087077661580935e+01,8.000000000000000000e+00
-1.000000000000000000e+00,1.491082073070807041e+02,4.739252669095929349e+01,8.000000000000000000e+00
-1.000000000000000000e+00,1.644959096167106907e+02,5.755969688288606534e+01,8.000000000000000000e+00
-1.000000000000000000e+00,1.560783150953616882e+02,5.456342799945301181e+01,8.000000000000000000e+00
-1.000000000000000000e+00,1.561495267833338971e+02,6.562044892978927635e+01,8.000000000000000000e+00
-1.000000000000000000e+00,1.633869644499244771e+02,7.507630070791473997e+01,8.000000000000000000e+00
-1.000000000000000000e+00,1.554820781056253907e+02,6.650707458304502495e+01,8.000000000000000000e+00
-1.000000000000000000e+00,1.660937155981891067e+02,6.846303416781898932e+01,8.000000000000000000e+00
-1.000000000000000000e+00,1.451299410092558162e+02,6.360925108427829855e+01,8.000000000000000000e+00
-1.000000000000000000e+00,1.473750266595662879e+02,6.759709887380634541e+01,8.000000000000000000e+00
-1.000000000000000000e+00,1.371235651681011802e+02,6.480508365785456704e+01,8.000000000000000000e+00
-1.000000000000000000e+00,1.490048984120600437e+02,7.468691238519676290e+01,8.000000000000000000e+00
-1.000000000000000000e+00,1.700147088251887340e+02,5.520978651246026914e+01,8.000000000000000000e+00
-1.000000000000000000e+00,1.661188761928961242e+02,5.048447218794659364e+01,8.000000000000000000e+00
-1.000000000000000000e+00,1.609648046199475857e+02,4.828642779683514163e+01,8.000000000000000000e+00
-1.000000000000000000e+00,1.605872011502636383e+02,6.171531487499282775e+01,8.000000000000000000e+00
-1.000000000000000000e+00,1.675690008924499921e+02,5.626503924584631733e+01,8.000000000000000000e+00
-1.000000000000000000e+00,1.634649961154719904e+02,6.291159673210817260e+01,8.000000000000000000e+00
-1.000000000000000000e+00,1.518539462285183106e+02,5.869502087703089188e+01,8.000000000000000000e+00
-1.000000000000000000e+00,1.496161178457254550e+02,6.421912939732318648e+01,8.000000000000000000e+00
-1.000000000000000000e+00,1.596264361178170930e+02,4.989100780926381162e+01,8.000000000000000000e+00
-1.000000000000000000e+00,1.467914026333085076e+02,5.230874361940187356e+01,8.000000000000000000e+00
-1.000000000000000000e+00,1.472151157758819693e+02,5.013993156492965397e+01,8.000000000000000000e+00
-1.000000000000000000e+00,1.539848371846998134e+02,5.270500022058627820e+01,8.000000000000000000e+00
-1.000000000000000000e+00,1.515523713121677645e+02,5.876454704345785274e+01,8.000000000000000000e+00
-1.000000000000000000e+00,1.579060665433768236e+02,6.298089578286332824e+01,8.000000000000000000e+00
-1.000000000000000000e+00,1.478505275106826673e+02,6.158785331422117792e+01,8.000000000000000000e+00
-1.000000000000000000e+00,1.582748929692327522e+02,6.097816777390943344e+01,8.000000000000000000e+00
1.000000000000000000e+00,1.865099975510923969e+02,1.033973338499699679e+02,8.000000000000000000e+00
1.000000000000000000e+00,1.886986921016154213e+02,1.028953571955878488e+02,8.000000000000000000e+00
1.000000000000000000e+00,1.975239446278421553e+02,1.104475845037940047e+02,8.000000000000000000e+00
1.000000000000000000e+00,1.577694633365777861e+02,1.125297443170600786e+02,8.000000000000000000e+00
1.000000000000000000e+00,1.514961915139210760e+02,1.032708475308401574e+02,8.000000000000000000e+00
1.000000000000000000e+00,1.509105700528085379e+02,1.050842060065869532e+02,8.000000000000000000e+00
1.000000000000000000e+00,1.439432399344473197e+02,1.035141417085350213e+02,8.000000000000000000e+00
1.000000000000000000e+00,1.780000211780706536e+02,1.077942317078252330e+02,8.000000000000000000e+00
1.000000000000000000e+00,1.495335604709304107e+02,9.757767547987802459e+01,8.000000000000000000e+00
1.000000000000000000e+00,1.526692690834930488e+02,9.865972203367218185e+01,8.000000000000000000e+00
1.000000000000000000e+00,1.522769724700997358e+02,9.901317249038585544e+01,8.000000000000000000e+00
1.000000000000000000e+00,1.498987558732000025e+02,1.043723943125427240e+02,8.000000000000000000e+00
1.000000000000000000e+00,1.607332171367563376e+02,1.007017099151839972e+02,8.000000000000000000e+00
1.000000000000000000e+00,1.424418037633455754e+02,9.954196020450898175e+01,8.000000000000000000e+00
1.000000000000000000e+00,1.498649830505775924e+02,1.015028476859508118e+02,8.000000000000000000e+00
1.000000000000000000e+00,1.518972698990452841e+02,1.123090529732029950e+02,8.000000000000000000e+00
1.000000000000000000e+00,1.676931960378892654e+02,1.037092315608436053e+02,8.000000000000000000e+00
1.000000000000000000e+00,1.689075576066936719e+02,1.004108775159393474e+02,8.000000000000000000e+00
1.000000000000000000e+00,1.714873238718494690e+02,9.680173544728297941e+01,8.000000000000000000e+00
1.000000000000000000e+00,1.841050294687003088e+02,9.178308595602453579e+01,8.000000000000000000e+00
1.000000000000000000e+00,1.544387463425830731e+02,9.874841057555035206e+01,8.000000000000000000e+00
1.000000000000000000e+00,1.701722333028712910e+02,9.930493585507574039e+01,8.000000000000000000e+00
1.000000000000000000e+00,1.609489440419753521e+02,9.087513036293933055e+01,8.000000000000000000e+00
1.000000000000000000e+00,1.761902958525872691e+02,9.458270241537765344e+01,8.000000000000000000e+00
1.000000000000000000e+00,1.736114049918539308e+02,1.000888788683523671e+02,8.000000000000000000e+00
1.000000000000000000e+00,1.933790633067981162e+02,8.971476380505338000e+01,8.000000000000000000e+00
1.000000000000000000e+00,1.671868835527375836e+02,9.500536078322352296e+01,8.000000000000000000e+00
1.000000000000000000e+00,1.571387637747079964e+02,9.899103841626534006e+01,8.000000000000000000e+00
1.000000000000000000e+00,1.392130424701520894e+02,9.667173984836315981e+01,8.000000000000000000e+00
1.000000000000000000e+00,1.627836723122146623e+02,9.839739205376947950e+01,8.000000000000000000e+00
1.000000000000000000e+00,1.563909821460241574e+02,1.034301612313518746e+02,8.000000000000000000e+00
1.000000000000000000e+00,1.612572497027470035e+02,1.036117820214027461e+02,8.000000000000000000e+00
1.000000000000000000e+00,1.768148520626220375e+02,1.070874736202104316e+02,8.000000000000000000e+00
1.000000000000000000e+00,1.916086502628589017e+02,1.037092897809995691e+02,8.000000000000000000e+00
1.000000000000000000e+00,1.836585706034667851e+02,1.112138152509448048e+02,8.000000000000000000e+00
1.000000000000000000e+00,1.684292623191953453e+02,1.120612933146218211e+02,8.000000000000000000e+00
1.000000000000000000e+00,1.789419790109315613e+02,1.107348190585903183e+02,8.000000000000000000e+00
1.000000000000000000e+00,1.922618913839994264e+02,1.123709949584267633e+02,8.000000000000000000e+00
1.000000000000000000e+00,1.478990643866872574e+02,1.098621287917146674e+02,8.000000000000000000e+00
1.000000000000000000e+00,1.454957803027010357e+02,1.085798592797109450e+02,8.000000000000000000e+00
1.000000000000000000e+00,1.435943566793419848e+02,1.026505160914506263e+02,8.000000000000000000e+00
1.000000000000000000e+00,1.530124435838776265e+02,1.037302635955498005e+02,8.000000000000000000e+00
1.000000000000000000e+00,1.683956169576211437e+02,1.079348061808492503e+02,8.000000000000000000e+00
1.000000000000000000e+00,1.510463823530370746e+02,1.049751361240018639e+02,8.000000000000000000e+00
1.000000000000000000e+00,1.402958628063589117e+02,1.097523819023840161e+02,8.000000000000000000e+00
1.000000000000000000e+00,1.220075812389111718e+02,1.036570580962453505e+02,8.000000000000000000e+00
1.000000000000000000e+00,1.322271603530800235e+02,9.975550545915848488e+01,8.000000000000000000e+00
1.000000000000000000e+00,1.397912000808224207e+02,9.580341293957310711e+01,8.000000000000000000e+00
1.000000000000000000e+00,1.832092699077712723e+02,1.106649662104148177e+02,8.000000000000000000e+00
1.000000000000000000e+00,1.937367581792374835e+02,1.006221366914719084e+02,8.000000000000000000e+00
1.000000000000000000e+00,1.778122046398716520e+02,1.019512287591892061e+02,8.000000000000000000e+00
1.000000000000000000e+00,2.036401599226948917e+02,1.018093173238527953e+02,8.000000000000000000e+00
1.000000000000000000e+00,1.688482295787366638e+02,1.081772305495337037e+02,8.000000000000000000e+00
1.000000000000000000e+00,1.860964256531229353e+02,9.886014186236150181e+01,8.000000000000000000e+00
1.000000000000000000e+00,1.676769186801738272e+02,9.516288428843829195e+01,8.000000000000000000e+00
1.000000000000000000e+00,2.011524856192324933e+02,9.451370467371324935e+01,8.000000000000000000e+00
1.000000000000000000e+00,1.769442010186267851e+02,1.000783698152943373e+02,8.000000000000000000e+00
1.000000000000000000e+00,1.809810822944178028e+02,1.038140151705537875e+02,8.000000000000000000e+00
1.000000000000000000e+00,1.759005586220526709e+02,1.041771501314630939e+02,8.000000000000000000e+00
1.000000000000000000e+00,1.710176511798189836e+02,1.043749403118012253e+02,8.000000000000000000e+00
1.000000000000000000e+00,1.862113433252743278e+02,8.206788285918747761e+01,8.000000000000000000e+00
1.000000000000000000e+00,1.888147127970260044e+02,8.611883158971600949e+01,8.000000000000000000e+00
1.000000000000000000e+00,1.546292956437507939e+02,8.583333672376915047e+01,8.000000000000000000e+00
1.000000000000000000e+00,1.596407048082242852e+02,9.093339420911811999e+01,8.000000000000000000e+00
1.000000000000000000e+00,1.987906589605034071e+02,9.578864915631413623e+01,8.000000000000000000e+00
1.000000000000000000e+00,1.875044881411464530e+02,9.917320626457943433e+01,8.000000000000000000e+00
1.000000000000000000e+00,1.702914581518846546e+02,1.037365618255426085e+02,8.000000000000000000e+00
1.000000000000000000e+00,1.501023094690136759e+02,1.039995587446506278e+02,8.000000000000000000e+00
1.000000000000000000e+00,1.869678024292304030e+02,1.041176831540862651e+02,8.000000000000000000e+00
1.000000000000000000e+00,1.630793400883701736e+02,1.080556399321405223e+02,8.000000000000000000e+00
1.000000000000000000e+00,1.851106578823359143e+02,1.050137548964716387e+02,8.000000000000000000e+00
1.000000000000000000e+00,1.925141713240872150e+02,1.046357165839629744e+02,8.000000000000000000e+00
1.000000000000000000e+00,2.061880147833818739e+02,1.159046907515948561e+02,8.000000000000000000e+00
1.000000000000000000e+00,2.027191884206959571e+02,1.173815274078278463e+02,8.000000000000000000e+00
1.000000000000000000e+00,2.281005053897909534e+02,1.113911650876314212e+02,8.000000000000000000e+00
1.000000000000000000e+00,2.510703062591867081e+02,1.021573749946536793e+02,8.000000000000000000e+00
1.000000000000000000e+00,2.367266209849483971e+02,1.229446308273885222e+02,8.000000000000000000e+00
1.000000000000000000e+00,2.466409165471094127e+02,1.178979637037309374e+02,8.000000000000000000e+00
1.000000000000000000e+00,2.273717758337170949e+02,1.177731906923153247e+02,8.000000000000000000e+00
1.000000000000000000e+00,2.702858586113262049e+02,1.173667594115674717e+02,8.000000000000000000e+00
1.000000000000000000e+00,1.940059503031806969e+02,9.775476139349345317e+01,8.000000000000000000e+00
1.000000000000000000e+00,2.146648840107441742e+02,1.024356018730660907e+02,8.000000000000000000e+00
1.000000000000000000e+00,1.986036036396495490e+02,1.090723393117187925e+02,8.000000000000000000e+00
1.000000000000000000e+00,2.163912720175778190e+02,1.143072535855570777e+02,8.000000000000000000e+00
1.000000000000000000e+00,1.816808616767738442e+02,1.161428071356926353e+02,8.000000000000000000e+00
1.000000000000000000e+00,1.883074824482540919e+02,1.117233131196797018e+02,8.000000000000000000e+00
1.000000000000000000e+00,1.687680928085622725e+02,1.151425396697877801e+02,8.000000000000000000e+00
1.000000000000000000e+00,1.726844530399258986e+02,1.168157410177173858e+02,8.000000000000000000e+00
1.000000000000000000e+00,1.658736980693477392e+02,1.087913121192743233e+02,8.000000000000000000e+00
1.000000000000000000e+00,1.685576475966335863e+02,1.103386576173230935e+02,8.000000000000000000e+00
1.000000000000000000e+00,1.638260939153007882e+02,1.068858820983474942e+02,8.000000000000000000e+00
1.000000000000000000e+00,1.846474577458604358e+02,9.941587502964874545e+01,8.000000000000000000e+00
1.000000000000000000e+00,1.481286223644647748e+02,1.108785143780912250e+02,8.000000000000000000e+00
1.000000000000000000e+00,1.765456537447006724e+02,1.021602443844099071e+02,8.000000000000000000e+00
1.000000000000000000e+00,1.983439961890661039e+02,1.101135861684300181e+02,8.000000000000000000e+00
1.000000000000000000e+00,1.969038013551026154e+02,1.194660346854108184e+02,8.000000000000000000e+00
1.000000000000000000e+00,1.680144409694006242e+02,1.106177533820789023e+02,8.000000000000000000e+00
1.000000000000000000e+00,1.676431246168691871e+02,1.130180808928453473e+02,8.000000000000000000e+00
1.000000000000000000e+00,1.667750498040379057e+02,1.151982872425637510e+02,8.000000000000000000e+00
1.000000000000000000e+00,1.828306924404801350e+02,1.174764738831786275e+02,8.000000000000000000e+00
1.000000000000000000e+00,1.771612953458692914e+02,1.246793287154548722e+02,8.000000000000000000e+00
1.000000000000000000e+00,1.702840948016888092e+02,1.217150748462454715e+02,8.000000000000000000e+00
1.000000000000000000e+00,1.795064194959690553e+02,1.184117907077391010e+02,8.000000000000000000e+00
1.000000000000000000e+00,1.754469563636568807e+02,1.140337658833637562e+02,8.000000000000000000e+00
1.000000000000000000e+00,1.924250194637128573e+02,1.065704353294373874e+02,8.000000000000000000e+00
1.000000000000000000e+00,1.905834027488767219e+02,1.117865909447916266e+02,8.000000000000000000e+00
1.000000000000000000e+00,2.181908628993089962e+02,1.070928495052308307e+02,8.000000000000000000e+00
1.000000000000000000e+00,2.094962996167166409e+02,1.006305507796249259e+02,8.000000000000000000e+00
1.000000000000000000e+00,1.607809024767644246e+02,1.048416320764430196e+02,8.000000000000000000e+00
1.000000000000000000e+00,1.553615464084694793e+02,1.089665545704719136e+02,8.000000000000000000e+00
1.000000000000000000e+00,1.776882915669064005e+02,1.197039426327902305e+02,8.000000000000000000e+00
1.000000000000000000e+00,1.675240178193686802e+02,1.166349328539026260e+02,8.000000000000000000e+00
1.000000000000000000e+00,2.030213634107904852e+02,1.182946094666458947e+02,8.000000000000000000e+00
1.000000000000000000e+00,2.149124317793665284e+02,1.276547876079530397e+02,8.000000000000000000e+00
1.000000000000000000e+00,1.861545352819419463e+02,1.091952978456064045e+02,8.000000000000000000e+00
1.000000000000000000e+00,1.923234394283945221e+02,1.245979099937054428e+02,8.000000000000000000e+00
1.000000000000000000e+00,1.792746566815459914e+02,1.352244676685426441e+02,8.000000000000000000e+00
1.000000000000000000e+00,1.957731466696995994e+02,1.407638524088783356e+02,8.000000000000000000e+00
1.000000000000000000e+00,1.764138745873671326e+02,1.159395661871206897e+02,8.000000000000000000e+00
1.000000000000000000e+00,2.073791309378127892e+02,1.233394259945425233e+02,8.000000000000000000e+00
1.000000000000000000e+00,1.634563207994549145e+02,1.205377878098423139e+02,8.000000000000000000e+00
1.000000000000000000e+00,1.360998262343430838e+02,1.171346419030356856e+02,8.000000000000000000e+00
1.000000000000000000e+00,1.746341784920865621e+02,1.063526071939922559e+02,8.000000000000000000e+00
1.000000000000000000e+00,1.586232887264653186e+02,1.008102219905316588e+02,8.000000000000000000e+00
1.000000000000000000e+00,1.844302736674157472e+02,1.261534630131346546e+02,8.000000000000000000e+00
1.000000000000000000e+00,2.059945290943892928e+02,1.257766161055453438e+02,8.000000000000000000e+00
1.000000000000000000e+00,1.506368527979967098e+02,1.158687479126794102e+02,8.000000000000000000e+00
1.000000000000000000e+00,1.564171567347542293e+02,1.303475545138832672e+02,8.000000000000000000e+00
1.000000000000000000e+00,1.635713869077595746e+02,1.024708396783417044e+02,8.000000000000000000e+00
1.000000000000000000e+00,1.480054006625830425e+02,1.020550885611227727e+02,8.000000000000000000e+00
1.000000000000000000e+00,1.684995053732197334e+02,1.057006089264418449e+02,8.000000000000000000e+00
1.000000000000000000e+00,1.472133256320267378e+02,1.012243815829590972e+02,8.000000000000000000e+00
1.000000000000000000e+00,1.437440868841823658e+02,1.039354668375978576e+02,8.000000000000000000e+00
1.000000000000000000e+00,1.338539413606503672e+02,1.072512506621706336e+02,8.000000000000000000e+00
1.000000000000000000e+00,1.420606620963548039e+02,1.191150737775569581e+02,8.000000000000000000e+00
1.000000000000000000e+00,1.539358480557777114e+02,1.117085646141059101e+02,8.000000000000000000e+00
1.000000000000000000e+00,1.805475405739915971e+02,1.045728167066539811e+02,8.000000000000000000e+00
1.000000000000000000e+00,2.054496414084371168e+02,1.059898479328239347e+02,8.000000000000000000e+00
1.000000000000000000e+00,2.013518403421973062e+02,1.022681801095020546e+02,8.000000000000000000e+00
1.000000000000000000e+00,2.039319158689936273e+02,1.022225560421309893e+02,8.000000000000000000e+00
1.000000000000000000e+00,1.584027013722833601e+02,1.029131244029419179e+02,8.000000000000000000e+00
1.000000000000000000e+00,1.772184604511502926e+02,1.200824363988187997e+02,8.000000000000000000e+00
1.000000000000000000e+00,1.487733063152689681e+02,1.125171142477709765e+02,8.000000000000000000e+00
1.000000000000000000e+00,1.426859730445648324e+02,1.069219586529473816e+02,8.000000000000000000e+00
1.000000000000000000e+00,1.641345178586319093e+02,1.128475553404151412e+02,8.000000000000000000e+00
1.000000000000000000e+00,1.513087145780751257e+02,1.156408403783359233e+02,8.000000000000000000e+00
1.000000000000000000e+00,1.549532529048069591e+02,1.042217954713448052e+02,8.000000000000000000e+00
1.000000000000000000e+00,1.514831104123865373e+02,1.051929224758171557e+02,8.000000000000000000e+00
1.000000000000000000e+00,1.703378189874332520e+02,1.188606108128116716e+02,8.000000000000000000e+00
1.000000000000000000e+00,1.816191815973543555e+02,1.307732335766008873e+02,8.000000000000000000e+00
1.000000000000000000e+00,1.929309391759914263e+02,1.278256643221218098e+02,8.000000000000000000e+00
1.000000000000000000e+00,1.641642217353008277e+02,1.132465245344009901e+02,8.000000000000000000e+00
1.000000000000000000e+00,1.805576025054910190e+02,1.077895275156625416e+02,8.000000000000000000e+00
1.000000000000000000e+00,1.870330871678555980e+02,1.085048474239384291e+02,8.000000000000000000e+00
1.000000000000000000e+00,1.894354342912761524e+02,1.125099413676973086e+02,8.000000000000000000e+00
1.000000000000000000e+00,1.888897547808140587e+02,1.195500836880665645e+02,8.000000000000000000e+00
1.000000000000000000e+00,2.233600591448635839e+02,1.235382763922889211e+02,8.000000000000000000e+00
1.000000000000000000e+00,2.300762652533689163e+02,1.233670484336168585e+02,8.000000000000000000e+00
1.000000000000000000e+00,2.101745108412250147e+02,1.135385563692409505e+02,8.000000000000000000e+00
1.000000000000000000e+00,2.127460196590926955e+02,1.141411241350156303e+02,8.000000000000000000e+00
1.000000000000000000e+00,1.711645739623999987e+02,9.951730272333321636e+01,8.000000000000000000e+00
1.000000000000000000e+00,1.998056047258941419e+02,1.022347516487184578e+02,8.000000000000000000e+00
1.000000000000000000e+00,1.689697874013910734e+02,1.010622862268156723e+02,8.000000000000000000e+00
1.000000000000000000e+00,1.467116252262585760e+02,9.735960923148201118e+01,8.000000000000000000e+00
1.000000000000000000e+00,1.729262222808773686e+02,1.036465021954988828e+02,8.000000000000000000e+00
1.000000000000000000e+00,1.462592998466185463e+02,1.075739344179840629e+02,8.000000000000000000e+00
1.000000000000000000e+00,1.642882321249949769e+02,1.036246168134295971e+02,8.000000000000000000e+00
1.000000000000000000e+00,1.658099887343116166e+02,1.099529330065255550e+02,8.000000000000000000e+00
1.000000000000000000e+00,1.829617617413570940e+02,9.909127088945813000e+01,8.000000000000000000e+00
1.000000000000000000e+00,1.676645622029797664e+02,9.699400034353797651e+01,8.000000000000000000e+00
1.000000000000000000e+00,1.994528078295577131e+02,9.904965315848242824e+01,8.000000000000000000e+00
1.000000000000000000e+00,1.616751100184516758e+02,9.816765736227196726e+01,8.000000000000000000e+00
1.000000000000000000e+00,1.380211558624057488e+02,9.787838859208028452e+01,8.000000000000000000e+00
1.000000000000000000e+00,1.473776322026217542e+02,8.915737316964639092e+01,8.000000000000000000e+00
1.000000000000000000e+00,1.566343212497022250e+02,9.388655219187167233e+01,8.000000000000000000e+00
1.000000000000000000e+00,1.391660552744806978e+02,1.001244142007309819e+02,8.000000000000000000e+00
1.000000000000000000e+00,1.660070202780154034e+02,1.040944740020538575e+02,8.000000000000000000e+00
1.000000000000000000e+00,1.725378175785237715e+02,1.032237651200105404e+02,8.000000000000000000e+00
1.000000000000000000e+00,1.648221407964902028e+02,1.175677572052388058e+02,8.000000000000000000e+00
1.000000000000000000e+00,1.536080431934584283e+02,1.130465028966345642e+02,8.000000000000000000e+00
1.000000000000000000e+00,1.942217560714494198e+02,9.434763453436690384e+01,8.000000000000000000e+00
1.000000000000000000e+00,1.774688564517911402e+02,9.430230911940709859e+01,8.000000000000000000e+00
1.000000000000000000e+00,2.072640089123079576e+02,1.027328077042393346e+02,8.000000000000000000e+00
1.000000000000000000e+00,1.975844188513769950e+02,1.025639170704162524e+02,8.000000000000000000e+00
1.000000000000000000e+00,1.406473877017395466e+02,9.440187163325164477e+01,8.000000000000000000e+00
1.000000000000000000e+00,1.248580733196660049e+02,9.725955016174734169e+01,8.000000000000000000e+00
1.000000000000000000e+00,1.370524339721268632e+02,8.887928420763113024e+01,8.000000000000000000e+00
1.000000000000000000e+00,1.266493093979912459e+02,9.172685771428389501e+01,8.000000000000000000e+00
1.000000000000000000e+00,1.422052395733373373e+02,9.476686154878832724e+01,8.000000000000000000e+00
1.000000000000000000e+00,1.537996208874057515e+02,9.892499974078391745e+01,8.000000000000000000e+00
1.000000000000000000e+00,1.555871799442994643e+02,9.316266863138426402e+01,8.000000000000000000e+00
1.000000000000000000e+00,1.647973089800971991e+02,9.224397633932717611e+01,8.000000000000000000e+00
1.000000000000000000e+00,1.985100980972906086e+02,1.176121243540388974e+02,8.000000000000000000e+00
1.000000000000000000e+00,2.123027549854908784e+02,1.095006258539649338e+02,8.000000000000000000e+00
1.000000000000000000e+00,1.676515173631009077e+02,1.028220921559286438e+02,8.000000000000000000e+00
1.000000000000000000e+00,1.543365052689803747e+02,1.028371153135071978e+02,8.000000000000000000e+00
1.000000000000000000e+00,1.969412213679854631e+02,9.501009846417494487e+01,8.000000000000000000e+00
1.000000000000000000e+00,1.983797130297861600e+02,1.034317873339854259e+02,8.000000000000000000e+00
1.000000000000000000e+00,2.104875138735049518e+02,9.750295325133474478e+01,8.000000000000000000e+00
1.000000000000000000e+00,2.138443890427674887e+02,9.901114926191858956e+01,8.000000000000000000e+00
1.000000000000000000e+00,1.907688339461723785e+02,1.043805498680132331e+02,8.000000000000000000e+00
1.000000000000000000e+00,1.719319857486996170e+02,9.499757361365125519e+01,8.000000000000000000e+00
1.000000000000000000e+00,2.142697749525804625e+02,1.066073034927478460e+02,8.000000000000000000e+00
1.000000000000000000e+00,2.099568936948667215e+02,9.867107343395218777e+01,8.000000000000000000e+00
1.000000000000000000e+00,1.719252921846493791e+02,1.086605595998747589e+02,8.000000000000000000e+00
1.000000000000000000e+00,1.810510503777758800e+02,1.145063637135376950e+02,8.000000000000000000e+00
1.000000000000000000e+00,1.420920228124870164e+02,1.038738972467111239e+02,8.000000000000000000e+00
1.000000000000000000e+00,1.648595342773202788e+02,9.425819397902850483e+01,8.000000000000000000e+00
1.000000000000000000e+00,1.727979601727219290e+02,9.336526998193046722e+01,8.000000000000000000e+00
1.000000000000000000e+00,1.827248134564662791e+02,9.544417463248258571e+01,8.000000000000000000e+00
1.000000000000000000e+00,1.468713994278477344e+02,9.240313343090306830e+01,8.000000000000000000e+00
1.000000000000000000e+00,1.529763258960995529e+02,9.562925361618469822e+01,8.000000000000000000e+00
1.000000000000000000e+00,1.815905603850376622e+02,1.024460848284489742e+02,8.000000000000000000e+00
1.000000000000000000e+00,1.803314065201291783e+02,1.046430506958506754e+02,8.000000000000000000e+00
1.000000000000000000e+00,1.719491666753423260e+02,1.100071035818010898e+02,8.000000000000000000e+00
1.000000000000000000e+00,1.833173503449865223e+02,1.047693911261923745e+02,8.000000000000000000e+00
1.000000000000000000e+00,1.925302522981622531e+02,1.168935498715430583e+02,8.000000000000000000e+00
1.000000000000000000e+00,1.988002543886635465e+02,1.180617432692807114e+02,8.000000000000000000e+00
1.000000000000000000e+00,2.126303512353023848e+02,1.157422084736007264e+02,8.000000000000000000e+00
1.000000000000000000e+00,1.966139036665793185e+02,1.135725506897468904e+02,8.000000000000000000e+00
1.000000000000000000e+00,1.923517975184132354e+02,1.119171708378871415e+02,8.000000000000000000e+00
1.000000000000000000e+00,2.043944443965486357e+02,1.186181081607470986e+02,8.000000000000000000e+00
1.000000000000000000e+00,1.842640421716291428e+02,1.079060434344728492e+02,8.000000000000000000e+00
1.000000000000000000e+00,1.940530097051780558e+02,1.116690562853647748e+02,8.000000000000000000e+00
1.000000000000000000e+00,1.739215338585096333e+02,1.037526236617134998e+02,8.000000000000000000e+00
1.000000000000000000e+00,1.885122234769379759e+02,1.025322794373561663e+02,8.000000000000000000e+00
1.000000000000000000e+00,1.792465992149338661e+02,1.178307448724349200e+02,8.000000000000000000e+00
1.000000000000000000e+00,2.026813545068898748e+02,1.184972982196447475e+02,8.000000000000000000e+00
