-1.000000000000000000e+00,1.660000000000000000e+02,6.750000000000000000e+01,0.000000000000000000e+00
-1.000000000000000000e+00,1.647684815450937208e+02,6.992013664617121549e+01,1.000000000000000000e+00
-1.000000000000000000e+00,1.651530974550400401e+02,7.444298959626476631e+01,1.000000000000000000e+00
-1.000000000000000000e+00,1.663111930778320300e+02,7.022456267791767459e+01,2.000000000000000000e+00
-1.000000000000000000e+00,1.718181767057872662e+02,7.543431664247128765e+01,2.000000000000000000e+00
-1.000000000000000000e+00,1.742347761690455457e+02,7.600107438761585854e+01,2.000000000000000000e+00
-1.000000000000000000e+00,1.623804735943678850e+02,7.537104859685400982e+01,2.000000000000000000e+00
-1.000000000000000000e+00,1.651622226208718871e+02,7.025033167547786661e+01,3.000000000000000000e+00
-1.000000000000000000e+00,1.685598632844273936e+02,7.097534822864969328e+01,3.000000000000000000e+00
-1.000000000000000000e+00,1.682101838919119814e+02,7.641591853445632410e+01,3.000000000000000000e+00
-1.000000000000000000e+00,1.730175129985478293e+02,6.285920259288761258e+01,3.000000000000000000e+00
-1.000000000000000000e+00,1.744469375837908842e+02,7.979829092875871766e+01,3.000000000000000000e+00
-1.000000000000000000e+00,1.769362186140292010e+02,7.272730577707847033e+01,3.000000000000000000e+00
-1.000000000000000000e+00,1.645775238892029790e+02,7.593532635156761046e+01,3.000000000000000000e+00
-1.000000000000000000e+00,1.615947659471361817e+02,7.707215691476285713e+01,3.000000000000000000e+00
-1.000000000000000000e+00,1.614591979762742255e+02,7.187202104143776182e+01,4.000000000000000000e+00
-1.000000000000000000e+00,1.647399968248940922e+02,7.058662879408363722e+01,4.000000000000000000e+00
-1.000000000000000000e+00,1.721670868977446389e+02,7.311041584899746226e+01,4.000000000000000000e+00
-1.000000000000000000e+00,1.672354953411997371e+02,7.041364318834892799e+01,4.000000000000000000e+00
-1.000000000000000000e+00,1.562571414791736402e+02,7.680457961490301955e+01,4.000000000000000000e+00
-1.000000000000000000e+00,1.663510750907310580e+02,7.898430449852637025e+01,4.000000000000000000e+00
-1.000000000000000000e+00,1.697327273104099277e+02,6.446446884414200440e+01,4.000000000000000000e+00
-1.000000000000000000e+00,1.718977638021416112e+02,6.393472341474689813e+01,4.000000000000000000e+00
-1.000000000000000000e+00,1.843314973946938835e+02,8.010451131991200668e+01,4.000000000000000000e+00
-1.000000000000000000e+00,1.761238900641629073e+02,8.698037754000112898e+01,4.000000000000000000e+00
-1.000000000000000000e+00,1.791196303958247995e+02,7.172517082088276652e+01,4.000000000000000000e+00
-1.000000000000000000e+00,1.791509515270909958e+02,8.064828075964264542e+01,4.000000000000000000e+00
-1.000000000000000000e+00,1.703343238554738832e+02,7.641501105478727141e+01,4.000000000000000000e+00
-1.000000000000000000e+00,1.651297279257958621e+02,7.731067096243366166e+01,4.000000000000000000e+00
-1.000000000000000000e+00,1.616070389502019680e+02,7.597984397192355743e+01,4.000000000000000000e+00
-1.000000000000000000e+00,1.588839698857632357e+02,8.129040633130870219e+01,4.000000000000000000e+00
-1.000000000000000000e+00,1.596003424173336782e+02,7.346447526329491495e+01,5.000000000000000000e+00
-1.000000000000000000e+00,1.586456427575395196e+02,7.194301341427525642e+01,5.000000000000000000e+00
-1.000000000000000000e+00,1.585798907402744078e+02,6.945492098694589345e+01,5.000000000000000000e+00
-1.000000000000000000e+00,1.625759908909631122e+02,7.912476684149419270e+01,5.000000000000000000e+00
-1.000000000000000000e+00,1.671352420845785502e+02,7.222436574562783562e+01,5.000000000000000000e+00
-1.000000000000000000e+00,1.737757352032463132e+02,7.832101738764198728e+01,5.000000000000000000e+00
-1.000000000000000000e+00,1.611197455828643115e+02,7.234630718923219206e+01,5.000000000000000000e+00
-1.000000000000000000e+00,1.692508542640808287e+02,6.977445159925999008e+01,5.000000000000000000e+00
-1.000000000000000000e+00,1.513505121821155797e+02,7.518862042549800151e+01,5.000000000000000000e+00
-1.000000000000000000e+00,1.535741923878390480e+02,7.657348054303098195e+01,5.000000000000000000e+00
-1.000000000000000000e+00,1.631822308218182229e+02,7.693516582410650528e+01,5.000000000000000000e+00
-1.000000000000000000e+00,1.669993566019376487e+02,8.571408493799545170e+01,5.000000000000000000e+00
-1.000000000000000000e+00,1.702829555372818220e+02,6.280594198181535148e+01,5.000000000000000000e+00
-1.000000000000000000e+00,1.674390344086682489e+02,7.079562509926934410e+01,5.000000000000000000e+00
-1.000000000000000000e+00,1.827152962908601808e+02,6.331942715378348652e+01,5.000000000000000000e+00
-1.000000000000000000e+00,1.763415340737517738e+02,5.692914297011616043e+01,5.000000000000000000e+00
-1.000000000000000000e+00,1.854542240947522771e+02,7.908321959301810011e+01,5.000000000000000000e+00
-1.000000000000000000e+00,1.866062966556597473e+02,8.050592768881877248e+01,5.000000000000000000e+00
-1.000000000000000000e+00,1.704982912727900555e+02,8.641501446291992750e+01,5.000000000000000000e+00
-1.000000000000000000e+00,1.782894149742898833e+02,8.721378315709927165e+01,5.000000000000000000e+00
-1.000000000000000000e+00,1.732879436596627158e+02,6.781821302377552740e+01,5.000000000000000000e+00
-1.000000000000000000e+00,1.784406171255119204e+02,6.377019528830421535e+01,5.000000000000000000e+00
-1.000000000000000000e+00,1.803156190467066438e+02,8.471042042211495016e+01,5.000000000000000000e+00
-1.000000000000000000e+00,1.761552438161427290e+02,8.831640236562338941e+01,5.000000000000000000e+00
-1.000000000000000000e+00,1.598902617147161607e+02,7.784454946188195379e+01,5.000000000000000000e+00
-1.000000000000000000e+00,1.737385256350438851e+02,7.439254447481916088e+01,5.000000000000000000e+00
-1.000000000000000000e+00,1.602032681619298842e+02,7.551317540888565816e+01,5.000000000000000000e+00
-1.000000000000000000e+00,1.623358896000861762e+02,6.983515626722399361e+01,5.000000000000000000e+00
-1.000000000000000000e+00,1.648557123247639140e+02,7.656387808099916015e+01,5.000000000000000000e+00
-1.000000000000000000e+00,1.590287486860610784e+02,7.527422955471946864e+01,5.000000000000000000e+00
-1.000000000000000000e+00,1.567859996995673271e+02,7.965530628344090758e+01,5.000000000000000000e+00
-1.000000000000000000e+00,1.651850853106198826e+02,9.576313397044876297e+01,5.000000000000000000e+00
-1.000000000000000000e+00,1.680182249288683352e+02,7.239276015197644654e+01,6.000000000000000000e+00
-1.000000000000000000e+00,1.642307572805142968e+02,6.785132798222747397e+01,6.000000000000000000e+00
-1.000000000000000000e+00,1.568330655880507152e+02,7.283811623362660725e+01,6.000000000000000000e+00
-1.000000000000000000e+00,1.585211772513138442e+02,7.688450837125283499e+01,6.000000000000000000e+00
-1.000000000000000000e+00,1.473713716305958314e+02,6.893700957877243241e+01,6.000000000000000000e+00
-1.000000000000000000e+00,1.604053801787042630e+02,7.705855776250054134e+01,6.000000000000000000e+00
-1.000000000000000000e+00,1.677759558610839576e+02,8.489554569625937575e+01,6.000000000000000000e+00
-1.000000000000000000e+00,1.617095651292322600e+02,7.273528968346151657e+01,6.000000000000000000e+00
-1.000000000000000000e+00,1.624032601476015145e+02,7.337101284971190296e+01,6.000000000000000000e+00
-1.000000000000000000e+00,1.689152071636648316e+02,6.920360594737911697e+01,6.000000000000000000e+00
-1.000000000000000000e+00,1.736373005410260077e+02,7.778561864759365108e+01,6.000000000000000000e+00
-1.000000000000000000e+00,1.741790267642608683e+02,7.082159471276955287e+01,6.000000000000000000e+00
-1.000000000000000000e+00,1.607928107252214716e+02,7.039649565297823131e+01,6.000000000000000000e+00
-1.000000000000000000e+00,1.601488522588305443e+02,8.108861815015981733e+01,6.000000000000000000e+00
-1.000000000000000000e+00,1.735379967672344037e+02,6.736532571295914806e+01,6.000000000000000000e+00
-1.000000000000000000e+00,1.707483566738814318e+02,7.623841951716381971e+01,6.000000000000000000e+00
-1.000000000000000000e+00,1.539353963156304701e+02,7.578827457852982263e+01,6.000000000000000000e+00
-1.000000000000000000e+00,1.497024057441514913e+02,7.596221506990728756e+01,6.000000000000000000e+00
-1.000000000000000000e+00,1.596611945300909952e+02,7.909972145345312811e+01,6.000000000000000000e+00
-1.000000000000000000e+00,1.520209290515950613e+02,7.466062891767879250e+01,6.000000000000000000e+00
-1.000000000000000000e+00,1.489183974474386218e+02,7.787455959248745785e+01,6.000000000000000000e+00
-1.000000000000000000e+00,1.608018933089862799e+02,8.200230563894524494e+01,6.000000000000000000e+00
-1.000000000000000000e+00,1.754707122630526897e+02,8.635908155654128393e+01,6.000000000000000000e+00
-1.000000000000000000e+00,1.694034270258282504e+02,6.850175376777730207e+01,6.000000000000000000e+00
-1.000000000000000000e+00,1.644718927576617205e+02,6.383414617886000997e+01,6.000000000000000000e+00
-1.000000000000000000e+00,1.743384736699775601e+02,6.284541738540489320e+01,6.000000000000000000e+00
-1.000000000000000000e+00,1.575895174733778958e+02,7.356151438920963415e+01,6.000000000000000000e+00
-1.000000000000000000e+00,1.697144398180456335e+02,7.067922080345942959e+01,6.000000000000000000e+00
-1.000000000000000000e+00,1.779231163775549760e+02,6.301632718085167539e+01,6.000000000000000000e+00
-1.000000000000000000e+00,1.831771367310514904e+02,6.631486044330883090e+01,6.000000000000000000e+00
-1.000000000000000000e+00,1.741828201899596422e+02,5.541151876797596287e+01,6.000000000000000000e+00
-1.000000000000000000e+00,1.797706079612246128e+02,5.579542404567825997e+01,6.000000000000000000e+00
-1.000000000000000000e+00,1.833571180393154236e+02,7.848337689755426538e+01,6.000000000000000000e+00
-1.000000000000000000e+00,1.830255865862915527e+02,9.005118161666322862e+01,6.000000000000000000e+00
-1.000000000000000000e+00,1.823225068084482814e+02,7.767838748599139365e+01,6.000000000000000000e+00
-1.000000000000000000e+00,1.865593513554908611e+02,7.769639716311885991e+01,6.000000000000000000e+00
-1.000000000000000000e+00,1.723253524164710768e+02,8.393819780353723559e+01,6.000000000000000000e+00
-1.000000000000000000e+00,1.703307295636494700e+02,8.680907518408695012e+01,6.000000000000000000e+00
-1.000000000000000000e+00,1.873323420400655550e+02,8.322800882124553823e+01,6.000000000000000000e+00
-1.000000000000000000e+00,1.766205038042324702e+02,8.327915222094600267e+01,6.000000000000000000e+00
-1.000000000000000000e+00,1.741640657013178384e+02,6.789088429342933750e+01,6.000000000000000000e+00
-1.000000000000000000e+00,1.774384327510617823e+02,6.722661348305072693e+01,6.000000000000000000e+00
-1.000000000000000000e+00,1.799746981013879861e+02,6.279539619672794970e+01,6.000000000000000000e+00
-1.000000000000000000e+00,1.843174716161265678e+02,5.494061263187703048e+01,6.000000000000000000e+00
-1.000000000000000000e+00,1.794905441845095595e+02,8.698284564343218506e+01,6.000000000000000000e+00
-1.000000000000000000e+00,1.814860162236665531e+02,9.831521930843493351e+01,6.000000000000000000e+00
-1.000000000000000000e+00,1.761310938464640401e+02,8.629263107930005106e+01,6.000000000000000000e+00
-1.000000000000000000e+00,1.747316370982679246e+02,9.034929738435923241e+01,6.000000000000000000e+00
-1.000000000000000000e+00,1.645468312488369520e+02,7.877208822289506429e+01,6.000000000000000000e+00
-1.000000000000000000e+00,1.614180477057042538e+02,6.746561226259719035e+01,6.000000000000000000e+00
-1.000000000000000000e+00,1.749843765018790975e+02,7.392282889725049699e+01,6.000000000000000000e+00
-1.000000000000000000e+00,1.734573537548399429e+02,7.030943767280308521e+01,6.000000000000000000e+00
-1.000000000000000000e+00,1.609147052915245979e+02,7.865649333993368941e+01,6.000000000000000000e+00
-1.000000000000000000e+00,1.670130695380962322e+02,7.365914317060008898e+01,6.000000000000000000e+00
-1.000000000000000000e+00,1.582765780005290992e+02,6.929026450869362463e+01,6.000000000000000000e+00
-1.000000000000000000e+00,1.658509272468628524e+02,7.029850535765072550e+01,6.000000000000000000e+00
-1.000000000000000000e+00,1.664698104123717712e+02,8.131255639019443038e+01,6.000000000000000000e+00
-1.000000000000000000e+00,1.678457415283762657e+02,6.678843330457313243e+01,6.000000000000000000e+00
-1.000000000000000000e+00,1.612663057546008361e+02,7.489528318013456953e+01,6.000000000000000000e+00
-1.000000000000000000e+00,1.595705796206871980e+02,8.080861251711729665e+01,6.000000000000000000e+00
-1.000000000000000000e+00,1.549098008458414313e+02,7.755698161595751117e+01,6.000000000000000000e+00
-1.000000000000000000e+00,1.535738035021614110e+02,8.681021387912861087e+01,6.000000000000000000e+00
-1.000000000000000000e+00,1.667199714009957177e+02,9.401105284807262308e+01,6.000000000000000000e+00
-1.000000000000000000e+00,1.633803375411312970e+02,9.198845651628248277e+01,6.000000000000000000e+00
-1.000000000000000000e+00,1.618615123284393178e+02,7.284309378755455100e+01,7.000000000000000000e+00
-1.000000000000000000e+00,1.697320746775464215e+02,7.861286995698957014e+01,7.000000000000000000e+00
-1.000000000000000000e+00,1.566166803729656465e+02,6.483019103494129354e+01,7.000000000000000000e+00
-1.000000000000000000e+00,1.697079276150799387e+02,6.504506481719570843e+01,7.000000000000000000e+00
-1.000000000000000000e+00,1.635627411569935532e+02,7.189253295675278821e+01,7.000000000000000000e+00
-1.000000000000000000e+00,1.596571819668899082e+02,7.225623433758708813e+01,7.000000000000000000e+00
-1.000000000000000000e+00,1.631526179059729031e+02,7.808309436612029231e+01,7.000000000000000000e+00
-1.000000000000000000e+00,1.549005384256512343e+02,7.798112812206233002e+01,7.000000000000000000e+00
-1.000000000000000000e+00,1.484787627087906117e+02,6.905320688887908886e+01,7.000000000000000000e+00
-1.000000000000000000e+00,1.504572531125489832e+02,7.390162297016067328e+01,7.000000000000000000e+00
-1.000000000000000000e+00,1.720930454082073027e+02,7.494228061478855807e+01,7.000000000000000000e+00
-1.000000000000000000e+00,1.669178499361898389e+02,8.854848109798940925e+01,7.000000000000000000e+00
-1.000000000000000000e+00,1.610925743723484231e+02,8.611166126602358872e+01,7.000000000000000000e+00
-1.000000000000000000e+00,1.674914541802478425e+02,8.585218725511451510e+01,7.000000000000000000e+00
-1.000000000000000000e+00,1.491411720944467447e+02,7.055696158769663384e+01,7.000000000000000000e+00
-1.000000000000000000e+00,1.597619739057315087e+02,7.093748103020816131e+01,7.000000000000000000e+00
-1.000000000000000000e+00,1.642534162359767436e+02,7.344877497824232648e+01,7.000000000000000000e+00
-1.000000000000000000e+00,1.593416612530387511e+02,7.284109735454835288e+01,7.000000000000000000e+00
-1.000000000000000000e+00,1.688745852175174491e+02,7.013215012152979000e+01,7.000000000000000000e+00
-1.000000000000000000e+00,1.654516824918963493e+02,7.074866006829651610e+01,7.000000000000000000e+00
-1.000000000000000000e+00,1.802728145026300979e+02,7.851787571413571243e+01,7.000000000000000000e+00
-1.000000000000000000e+00,1.756579781244227263e+02,7.352393028379991335e+01,7.000000000000000000e+00
-1.000000000000000000e+00,1.650092940435824289e+02,7.128777888310955291e+01,7.000000000000000000e+00
-1.000000000000000000e+00,1.775326972319673473e+02,7.232095354637939977e+01,7.000000000000000000e+00
-1.000000000000000000e+00,1.658905061172886519e+02,7.209000128201508062e+01,7.000000000000000000e+00
-1.000000000000000000e+00,1.613305560464446273e+02,7.033651648842752024e+01,7.000000000000000000e+00
-1.000000000000000000e+00,1.681892883814210222e+02,8.208296730726925716e+01,7.000000000000000000e+00
-1.000000000000000000e+00,1.599610012756031665e+02,7.049673844126921551e+01,7.000000000000000000e+00
-1.000000000000000000e+00,1.724598109690998342e+02,6.921817048588529531e+01,7.000000000000000000e+00
-1.000000000000000000e+00,1.713826623707921613e+02,6.844551736001257325e+01,7.000000000000000000e+00
-1.000000000000000000e+00,1.695197820885076396e+02,7.676794810481004561e+01,7.000000000000000000e+00
-1.000000000000000000e+00,1.758627547494716907e+02,6.871752913956400732e+01,7.000000000000000000e+00
-1.000000000000000000e+00,1.475839115802836261e+02,7.799963397952345190e+01,7.000000000000000000e+00
-1.000000000000000000e+00,1.503449778912837473e+02,7.377636292165625775e+01,7.000000000000000000e+00
-1.000000000000000000e+00,1.579238145943679967e+02,7.692046808592148466e+01,7.000000000000000000e+00
-1.000000000000000000e+00,1.447669398663914819e+02,8.013643096196160798e+01,7.000000000000000000e+00
-1.000000000000000000e+00,1.539412885731755125e+02,8.159550420479169475e+01,7.000000000000000000e+00
-1.000000000000000000e+00,1.549017156642263444e+02,7.214011072301676109e+01,7.000000000000000000e+00
-1.000000000000000000e+00,1.554493083753377789e+02,7.313637554916596173e+01,7.000000000000000000e+00
-1.000000000000000000e+00,1.504304746116621345e+02,7.542177160512000000e+01,7.000000000000000000e+00
-1.000000000000000000e+00,1.470516037855481386e+02,8.136796039374671352e+01,7.000000000000000000e+00
-1.000000000000000000e+00,1.482950181891710599e+02,8.317925071754201838e+01,7.000000000000000000e+00
-1.000000000000000000e+00,1.587900295810455020e+02,8.148480996542227217e+01,7.000000000000000000e+00
-1.000000000000000000e+00,1.623096788713232286e+02,7.378046055871655540e+01,7.000000000000000000e+00
-1.000000000000000000e+00,1.753231047004091465e+02,8.480320711703809877e+01,7.000000000000000000e+00
-1.000000000000000000e+00,1.752677712085723840e+02,8.638062633197102969e+01,7.000000000000000000e+00
-1.000000000000000000e+00,1.707545361566616577e+02,6.670444328320695604e+01,7.000000000000000000e+00
-1.000000000000000000e+00,1.754191080260156070e+02,6.812334592951847867e+01,7.000000000000000000e+00
-1.000000000000000000e+00,1.611085475101258737e+02,6.398974906031433108e+01,7.000000000000000000e+00
-1.000000000000000000e+00,1.683108629059076975e+02,6.254315357227906702e+01,7.000000000000000000e+00
-1.000000000000000000e+00,1.779862006321303909e+02,6.525879904129216413e+01,7.000000000000000000e+00
-1.000000000000000000e+00,1.712534380508414813e+02,6.520698638186591722e+01,7.000000000000000000e+00
-1.000000000000000000e+00,1.606255747227868085e+02,7.525579495642347183e+01,7.000000000000000000e+00
-1.000000000000000000e+00,1.605175581487000613e+02,6.696089144483175915e+01,7.000000000000000000e+00
-1.000000000000000000e+00,1.689524463908335576e+02,7.279398767276752835e+01,7.000000000000000000e+00
-1.000000000000000000e+00,1.744101703814291682e+02,7.508198823739775207e+01,7.000000000000000000e+00
-1.000000000000000000e+00,1.831539504722470610e+02,6.391644809745611155e+01,7.000000000000000000e+00
-1.000000000000000000e+00,1.793493638077934520e+02,6.029053892996881814e+01,7.000000000000000000e+00
-1.000000000000000000e+00,1.779109770544571063e+02,6.895446702853539023e+01,7.000000000000000000e+00
-1.000000000000000000e+00,1.844254370939662522e+02,7.312105588999591532e+01,7.000000000000000000e+00
-1.000000000000000000e+00,1.750756026233219416e+02,5.492684111808119951e+01,7.000000000000000000e+00
-1.000000000000000000e+00,1.806296474408905510e+02,6.149793151842288808e+01,7.000000000000000000e+00
-1.000000000000000000e+00,1.734922748296762336e+02,5.356854886414846106e+01,7.000000000000000000e+00
-1.000000000000000000e+00,1.746791008181687346e+02,5.549599958176810333e+01,7.000000000000000000e+00
-1.000000000000000000e+00,1.823013696134485997e+02,7.523794073884177180e+01,7.000000000000000000e+00
-1.000000000000000000e+00,1.835695710083836616e+02,6.960679743504319106e+01,7.000000000000000000e+00
-1.000000000000000000e+00,1.779751305922752067e+02,8.565049333949279742e+01,7.000000000000000000e+00
-1.000000000000000000e+00,1.820167131290419320e+02,8.952285317849990065e+01,7.000000000000000000e+00
-1.000000000000000000e+00,1.880839877826315956e+02,7.942216770900786571e+01,7.000000000000000000e+00
-1.000000000000000000e+00,1.863309384013417400e+02,7.325777791453847954e+01,7.000000000000000000e+00
-1.000000000000000000e+00,1.878005482272258462e+02,7.657958005076895347e+01,7.000000000000000000e+00
-1.000000000000000000e+00,1.887080142502492492e+02,9.333297551886045085e+01,7.000000000000000000e+00
-1.000000000000000000e+00,1.654990334300194945e+02,8.722531808066655401e+01,7.000000000000000000e+00
-1.000000000000000000e+00,1.682508159796514349e+02,8.987249368051334386e+01,7.000000000000000000e+00
-1.000000000000000000e+00,1.697661307207189623e+02,8.771632024998358190e+01,7.000000000000000000e+00
-1.000000000000000000e+00,1.702192226217782434e+02,9.261805749694127599e+01,7.000000000000000000e+00
-1.000000000000000000e+00,1.847141987811254751e+02,7.832510815984063868e+01,7.000000000000000000e+00
-1.000000000000000000e+00,1.931794190221527003e+02,8.086430839283087835e+01,7.000000000000000000e+00
-1.000000000000000000e+00,1.759304052823417237e+02,8.272531623584858096e+01,7.000000000000000000e+00
-1.000000000000000000e+00,1.783945441653227704e+02,8.132444928148858310e+01,7.000000000000000000e+00
-1.000000000000000000e+00,1.710453485830538511e+02,6.827000509617303692e+01,7.000000000000000000e+00
-1.000000000000000000e+00,1.756616634934505043e+02,7.202550179110791362e+01,7.000000000000000000e+00
-1.000000000000000000e+00,1.820859871674148565e+02,6.554863721913068275e+01,7.000000000000000000e+00
-1.000000000000000000e+00,1.780440882033486218e+02,6.910467725517402471e+01,7.000000000000000000e+00
-1.000000000000000000e+00,1.681298206386450431e+02,6.154910046855317773e+01,7.000000000000000000e+00
-1.000000000000000000e+00,1.802284396866477891e+02,5.121838335441631074e+01,7.000000000000000000e+00
-1.000000000000000000e+00,1.818531435282930886e+02,5.362150718344153688e+01,7.000000000000000000e+00
-1.000000000000000000e+00,1.798388577899998495e+02,6.776123890561827068e+01,7.000000000000000000e+00
-1.000000000000000000e+00,1.757025167473864826e+02,8.244115315605586147e+01,7.000000000000000000e+00
-1.000000000000000000e+00,1.759520751305790043e+02,1.004414788442555562e+02,7.000000000000000000e+00
-1.000000000000000000e+00,1.799597530653185515e+02,9.709223354230691427e+01,7.000000000000000000e+00
-1.000000000000000000e+00,1.868137445545137041e+02,9.715296471508233367e+01,7.000000000000000000e+00
-1.000000000000000000e+00,1.838917246635923561e+02,8.404145319943403081e+01,7.000000000000000000e+00
-1.000000000000000000e+00,1.737827503335444987e+02,7.332195338964505993e+01,7.000000000000000000e+00
-1.000000000000000000e+00,1.638042268300869750e+02,9.074690679978498054e+01,7.000000000000000000e+00
-1.000000000000000000e+00,1.686636385973771723e+02,7.467841954320985565e+01,7.000000000000000000e+00
-1.000000000000000000e+00,1.640047241669158211e+02,7.717471299388539308e+01,7.000000000000000000e+00
-1.000000000000000000e+00,1.688371161344311133e+02,7.977047451624289920e+01,7.000000000000000000e+00
-1.000000000000000000e+00,1.626312842591799779e+02,6.778551469161452303e+01,7.000000000000000000e+00
-1.000000000000000000e+00,1.619609970516248154e+02,6.645699746485666992e+01,7.000000000000000000e+00
-1.000000000000000000e+00,1.757138413524925511e+02,7.415832846750666363e+01,7.000000000000000000e+00
-1.000000000000000000e+00,1.795256657208540219e+02,7.448902152982327607e+01,7.000000000000000000e+00
-1.000000000000000000e+00,1.757055467452937876e+02,6.953594394085659758e+01,7.000000000000000000e+00
-1.000000000000000000e+00,1.723963680142480257e+02,7.543281343757246304e+01,7.000000000000000000e+00
-1.000000000000000000e+00,1.584644283172976884e+02,8.169188593428130218e+01,7.000000000000000000e+00
-1.000000000000000000e+00,1.590393008741450558e+02,7.903261493595313425e+01,7.000000000000000000e+00
-1.000000000000000000e+00,1.722273469804977708e+02,7.322572044163418070e+01,7.000000000000000000e+00
-1.000000000000000000e+00,1.679581141136760323e+02,7.369479316365163868e+01,7.000000000000000000e+00
-1.000000000000000000e+00,1.710999637203183568e+02,6.746367911731294953e+01,7.000000000000000000e+00
-1.000000000000000000e+00,1.591247394784980429e+02,7.198968262310526711e+01,7.000000000000000000e+00
-1.000000000000000000e+00,1.593062830216865677e+02,7.465337580453424948e+01,7.000000000000000000e+00
-1.000000000000000000e+00,1.662865053625378380e+02,6.688469955118684140e+01,7.000000000000000000e+00
-1.000000000000000000e+00,1.589396666063647956e+02,8.072679026977306194e+01,7.000000000000000000e+00
-1.000000000000000000e+00,1.656998715969001523e+02,8.870356748193650276e+01,7.000000000000000000e+00
-1.000000000000000000e+00,1.667184454941238982e+02,6.441510508175896632e+01,7.000000000000000000e+00
-1.000000000000000000e+00,1.637184709337008996e+02,6.320819319022701421e+01,7.000000000000000000e+00
-1.000000000000000000e+00,1.628477965638467992e+02,7.669582249641577221e+01,7.000000000000000000e+00
-1.000000000000000000e+00,1.640237969253617223e+02,7.232331921038533551e+01,7.000000000000000000e+00
-1.000000000000000000e+00,1.575467699040144112e+02,8.000709749866142317e+01,7.000000000000000000e+00
-1.000000000000000000e+00,1.547424955234772881e+02,7.637363727851257522e+01,7.000000000000000000e+00
-1.000000000000000000e+00,1.603590569104246129e+02,7.785486040782430450e+01,7.000000000000000000e+00
-1.000000000000000000e+00,1.529278994200638238e+02,7.545442198565382341e+01,7.000000000000000000e+00
-1.000000000000000000e+00,1.529399530223068950e+02,8.459583045372414745e+01,7.000000000000000000e+00
-1.000000000000000000e+00,1.523757115018860873e+02,8.173387076269854390e+01,7.000000000000000000e+00
-1.000000000000000000e+00,1.695617187032067079e+02,9.372651883901488645e+01,7.000000000000000000e+00
-1.000000000000000000e+00,1.670683773179990226e+02,9.619102169017530457e+01,7.000000000000000000e+00
-1.000000000000000000e+00,1.582243136101299115e+02,9.095052825021160459e+01,7.000000000000000000e+00
-1.000000000000000000e+00,1.610852987109363426e+02,8.162760033706742036e+01,7.000000000000000000e+00
1.000000000000000000e+00,1.800000000000000000e+02,8.240000000000000568e+01,0.000000000000000000e+00
1.000000000000000000e+00,1.712522787765087742e+02,8.327814912632754840e+01,1.000000000000000000e+00
1.000000000000000000e+00,1.809727828464654635e+02,7.771514427601540831e+01,1.000000000000000000e+00
1.000000000000000000e+00,1.691968436752907508e+02,8.290800559604831221e+01,2.000000000000000000e+00
1.000000000000000000e+00,1.786872883220755739e+02,8.828588491809669847e+01,2.000000000000000000e+00
1.000000000000000000e+00,1.929982085681410808e+02,7.916264121154972599e+01,2.000000000000000000e+00
1.000000000000000000e+00,1.798801351437713265e+02,7.326039154220811156e+01,2.000000000000000000e+00
1.000000000000000000e+00,1.757962690569391384e+02,8.745916406118941211e+01,3.000000000000000000e+00
1.000000000000000000e+00,1.683679668107870100e+02,8.673082260005718069e+01,3.000000000000000000e+00
1.000000000000000000e+00,1.737643292776812132e+02,9.176948282269495394e+01,3.000000000000000000e+00
1.000000000000000000e+00,1.857430312790471589e+02,9.144634860983693159e+01,3.000000000000000000e+00
1.000000000000000000e+00,2.058170240987752493e+02,8.569997283013191236e+01,3.000000000000000000e+00
1.000000000000000000e+00,2.045102935780182918e+02,8.334120949093379238e+01,3.000000000000000000e+00
1.000000000000000000e+00,1.725733283697658180e+02,7.308044345819904208e+01,3.000000000000000000e+00
1.000000000000000000e+00,1.786367622267748345e+02,7.626678773174641890e+01,3.000000000000000000e+00
1.000000000000000000e+00,1.804091548197467318e+02,9.088709290486035286e+01,4.000000000000000000e+00
1.000000000000000000e+00,1.813358638936467173e+02,9.255566236494229315e+01,4.000000000000000000e+00
1.000000000000000000e+00,1.749608280412726060e+02,8.847076398639751460e+01,4.000000000000000000e+00
1.000000000000000000e+00,1.732155319202563248e+02,8.754937747583490193e+01,4.000000000000000000e+00
1.000000000000000000e+00,1.703981640715233254e+02,9.230343787948666545e+01,4.000000000000000000e+00
1.000000000000000000e+00,1.813343521413758026e+02,9.670132821884416785e+01,4.000000000000000000e+00
1.000000000000000000e+00,1.759817769791378623e+02,9.739734331981728133e+01,4.000000000000000000e+00
1.000000000000000000e+00,1.774750433501835971e+02,8.913588837060501646e+01,4.000000000000000000e+00
1.000000000000000000e+00,2.154661541069724819e+02,8.870097014036404914e+01,4.000000000000000000e+00
1.000000000000000000e+00,1.966763244057652571e+02,8.739926876617658991e+01,4.000000000000000000e+00
1.000000000000000000e+00,2.049958809513409790e+02,7.855216082203290284e+01,4.000000000000000000e+00
1.000000000000000000e+00,2.078811171660146044e+02,7.758299104841128724e+01,4.000000000000000000e+00
1.000000000000000000e+00,1.880575842330219700e+02,6.966475472657705836e+01,4.000000000000000000e+00
1.000000000000000000e+00,1.760502183954778843e+02,7.140582741941575762e+01,4.000000000000000000e+00
1.000000000000000000e+00,1.787341470332542031e+02,7.010029874758950541e+01,4.000000000000000000e+00
1.000000000000000000e+00,1.839725096942068774e+02,7.813330206584035409e+01,4.000000000000000000e+00
1.000000000000000000e+00,1.823371754223135213e+02,9.200298340314886048e+01,5.000000000000000000e+00
1.000000000000000000e+00,1.763222827703472717e+02,8.703673074641751839e+01,5.000000000000000000e+00
1.000000000000000000e+00,1.860920760798187530e+02,8.943412573884987182e+01,5.000000000000000000e+00
1.000000000000000000e+00,1.832051221057949988e+02,9.204510800910622947e+01,5.000000000000000000e+00
1.000000000000000000e+00,1.844709386901237167e+02,9.032109120773154132e+01,5.000000000000000000e+00
1.000000000000000000e+00,1.729188381008157194e+02,9.014773978591509263e+01,5.000000000000000000e+00
1.000000000000000000e+00,1.764040997476496955e+02,8.832850674763564314e+01,5.000000000000000000e+00
1.000000000000000000e+00,1.665731149096501156e+02,8.676713403744020070e+01,5.000000000000000000e+00
1.000000000000000000e+00,1.706428705184889054e+02,8.813418464134335295e+01,5.000000000000000000e+00
1.000000000000000000e+00,1.717542685699732488e+02,9.116821486254664819e+01,5.000000000000000000e+00
1.000000000000000000e+00,1.824331005291557801e+02,9.366850524515808729e+01,5.000000000000000000e+00
1.000000000000000000e+00,1.718006552592680407e+02,9.433253449387075307e+01,5.000000000000000000e+00
1.000000000000000000e+00,1.686247475880791455e+02,9.273528206625471171e+01,5.000000000000000000e+00
1.000000000000000000e+00,1.878936355815033608e+02,9.056381612992129249e+01,5.000000000000000000e+00
1.000000000000000000e+00,1.771197596491808213e+02,9.195278674980743006e+01,5.000000000000000000e+00
1.000000000000000000e+00,1.800493413032382932e+02,8.587033328311122204e+01,5.000000000000000000e+00
1.000000000000000000e+00,2.133374462619405278e+02,8.452135088338481239e+01,5.000000000000000000e+00
1.000000000000000000e+00,2.046778468745918929e+02,9.464026358271527783e+01,5.000000000000000000e+00
1.000000000000000000e+00,1.931264187447461893e+02,8.407716622955948083e+01,5.000000000000000000e+00
1.000000000000000000e+00,1.950498235576028776e+02,8.477885770049033454e+01,5.000000000000000000e+00
1.000000000000000000e+00,2.152487463932812659e+02,7.708466230190062163e+01,5.000000000000000000e+00
1.000000000000000000e+00,1.986084455387755838e+02,8.158059904691690178e+01,5.000000000000000000e+00
1.000000000000000000e+00,2.068981709040065198e+02,7.789564824431673173e+01,5.000000000000000000e+00
1.000000000000000000e+00,2.005622730094133033e+02,7.956429879734399435e+01,5.000000000000000000e+00
1.000000000000000000e+00,1.940126622747296494e+02,7.556276600636019225e+01,5.000000000000000000e+00
1.000000000000000000e+00,1.807908584173778479e+02,6.800185312188074249e+01,5.000000000000000000e+00
1.000000000000000000e+00,1.813209448218062789e+02,7.472730300209160248e+01,5.000000000000000000e+00
1.000000000000000000e+00,1.831286144806691141e+02,7.423735620087462905e+01,5.000000000000000000e+00
1.000000000000000000e+00,1.785057922628029417e+02,6.932918758812610349e+01,5.000000000000000000e+00
1.000000000000000000e+00,1.700933030037780611e+02,7.080690330295308854e+01,5.000000000000000000e+00
1.000000000000000000e+00,1.760194105894603638e+02,7.908005380942876172e+01,5.000000000000000000e+00
1.000000000000000000e+00,1.813990430801494540e+02,8.053007144274975815e+01,5.000000000000000000e+00
1.000000000000000000e+00,1.932165000340368692e+02,9.795417213885127694e+01,6.000000000000000000e+00
1.000000000000000000e+00,1.765469761748606174e+02,9.602419799136444567e+01,6.000000000000000000e+00
1.000000000000000000e+00,1.879123264511647164e+02,8.891894975265870471e+01,6.000000000000000000e+00
1.000000000000000000e+00,1.769939305668579550e+02,8.128229001257295749e+01,6.000000000000000000e+00
1.000000000000000000e+00,1.874214933022894627e+02,9.228505088517299271e+01,6.000000000000000000e+00
1.000000000000000000e+00,1.872794610417514320e+02,9.519113525845833124e+01,6.000000000000000000e+00
1.000000000000000000e+00,1.805771340653358266e+02,8.631838561395593956e+01,6.000000000000000000e+00
1.000000000000000000e+00,1.805195105320025561e+02,9.753516449983146686e+01,6.000000000000000000e+00
1.000000000000000000e+00,1.759041002630454784e+02,9.324609473342277965e+01,6.000000000000000000e+00
1.000000000000000000e+00,1.863493862285008902e+02,9.078929099356254540e+01,6.000000000000000000e+00
1.000000000000000000e+00,1.727157061259687225e+02,9.024323738160286723e+01,6.000000000000000000e+00
1.000000000000000000e+00,1.752959006044471266e+02,9.503822985058053519e+01,6.000000000000000000e+00
1.000000000000000000e+00,1.729294061594925438e+02,9.084590502146348001e+01,6.000000000000000000e+00
1.000000000000000000e+00,1.703930090163404145e+02,8.917913877713795046e+01,6.000000000000000000e+00
1.000000000000000000e+00,1.624771615904072632e+02,8.236994128851286234e+01,6.000000000000000000e+00
1.000000000000000000e+00,1.758735422689399002e+02,8.593351799101682786e+01,6.000000000000000000e+00
1.000000000000000000e+00,1.563334783193317321e+02,9.040083643939422586e+01,6.000000000000000000e+00
1.000000000000000000e+00,1.701750734085331942e+02,8.961018268498006023e+01,6.000000000000000000e+00
1.000000000000000000e+00,1.717855726946512220e+02,9.656240016913021407e+01,6.000000000000000000e+00
1.000000000000000000e+00,1.659801105115982693e+02,9.009411791128955826e+01,6.000000000000000000e+00
1.000000000000000000e+00,1.835555503285679890e+02,9.817666694405487249e+01,6.000000000000000000e+00
1.000000000000000000e+00,1.842287984573418100e+02,9.469001602144265917e+01,6.000000000000000000e+00
1.000000000000000000e+00,1.786006842967277919e+02,8.763245322858062991e+01,6.000000000000000000e+00
1.000000000000000000e+00,1.679468925825489691e+02,9.253063718096156265e+01,6.000000000000000000e+00
1.000000000000000000e+00,1.571683342705769064e+02,9.577577629716002150e+01,6.000000000000000000e+00
1.000000000000000000e+00,1.683672199903243722e+02,8.837935475495802962e+01,6.000000000000000000e+00
1.000000000000000000e+00,1.790307279897128581e+02,8.571073360546955655e+01,6.000000000000000000e+00
1.000000000000000000e+00,1.923197438639496397e+02,8.291873303356899783e+01,6.000000000000000000e+00
1.000000000000000000e+00,1.710841399603747846e+02,9.399572049986420552e+01,6.000000000000000000e+00
1.000000000000000000e+00,1.772813933950853595e+02,9.475061414631392154e+01,6.000000000000000000e+00
1.000000000000000000e+00,1.854408501677124832e+02,8.356311975213246512e+01,6.000000000000000000e+00
1.000000000000000000e+00,1.775270568790626839e+02,8.357862214546744895e+01,6.000000000000000000e+00
1.000000000000000000e+00,2.271600451662297644e+02,8.009655200381412499e+01,6.000000000000000000e+00
1.000000000000000000e+00,2.140663000173144610e+02,8.468297027039966451e+01,6.000000000000000000e+00
1.000000000000000000e+00,2.160101525058771870e+02,9.171319138472863131e+01,6.000000000000000000e+00
1.000000000000000000e+00,2.177073713110006281e+02,9.482186809643147285e+01,6.000000000000000000e+00
1.000000000000000000e+00,1.995424143374624748e+02,7.771165686467884370e+01,6.000000000000000000e+00
1.000000000000000000e+00,1.906759156486567122e+02,8.294942373249459422e+01,6.000000000000000000e+00
1.000000000000000000e+00,1.930298620913702621e+02,8.228473100607996571e+01,6.000000000000000000e+00
1.000000000000000000e+00,1.903518101787268506e+02,8.553761697034593681e+01,6.000000000000000000e+00
1.000000000000000000e+00,2.113267676953530838e+02,7.847387251917595563e+01,6.000000000000000000e+00
1.000000000000000000e+00,2.076119474219207746e+02,8.163299525045549387e+01,6.000000000000000000e+00
1.000000000000000000e+00,2.010176857785560856e+02,7.666789943935046381e+01,6.000000000000000000e+00
1.000000000000000000e+00,1.954015800654395321e+02,7.978546268247482942e+01,6.000000000000000000e+00
1.000000000000000000e+00,1.989380367510868837e+02,7.813192953427576981e+01,6.000000000000000000e+00
1.000000000000000000e+00,2.046921759330451209e+02,8.175056134031217425e+01,6.000000000000000000e+00
1.000000000000000000e+00,1.984621218063070671e+02,8.621100690953419132e+01,6.000000000000000000e+00
1.000000000000000000e+00,2.040621470242381577e+02,7.418035469727293219e+01,6.000000000000000000e+00
1.000000000000000000e+00,1.938700995131653997e+02,7.190039279450024878e+01,6.000000000000000000e+00
1.000000000000000000e+00,1.904193619289855235e+02,8.218004759335411791e+01,6.000000000000000000e+00
1.000000000000000000e+00,1.825931742508196578e+02,6.354698531891165203e+01,6.000000000000000000e+00
1.000000000000000000e+00,1.784031617482636989e+02,6.862690004852886716e+01,6.000000000000000000e+00
1.000000000000000000e+00,1.729142941758844643e+02,7.249890006923159547e+01,6.000000000000000000e+00
1.000000000000000000e+00,1.878600672095273012e+02,7.700232715550798446e+01,6.000000000000000000e+00
1.000000000000000000e+00,1.808570598528458504e+02,7.391562829576156446e+01,6.000000000000000000e+00
1.000000000000000000e+00,1.754462534838611703e+02,7.898929908901038743e+01,6.000000000000000000e+00
1.000000000000000000e+00,1.733339343289215151e+02,7.495798039973664117e+01,6.000000000000000000e+00
1.000000000000000000e+00,1.784680971769489872e+02,6.619006637083457179e+01,6.000000000000000000e+00
1.000000000000000000e+00,1.731928567428750796e+02,6.735534853772976760e+01,6.000000000000000000e+00
1.000000000000000000e+00,1.828415656643940110e+02,6.894544184707478962e+01,6.000000000000000000e+00
1.000000000000000000e+00,1.805360654881637856e+02,7.596162871482901835e+01,6.000000000000000000e+00
1.000000000000000000e+00,1.720720976393173487e+02,7.900045555508772566e+01,6.000000000000000000e+00
1.000000000000000000e+00,1.905814818052122916e+02,7.744842890799671409e+01,6.000000000000000000e+00
1.000000000000000000e+00,1.705771738434549434e+02,7.615818788389373140e+01,6.000000000000000000e+00
1.000000000000000000e+00,1.929661633766591819e+02,1.014291494168783032e+02,7.000000000000000000e+00
1.000000000000000000e+00,1.934926886048272934e+02,1.001649654910493297e+02,7.000000000000000000e+00
1.000000000000000000e+00,1.810532569759729427e+02,9.766953440844410750e+01,7.000000000000000000e+00
1.000000000000000000e+00,1.728127776430101790e+02,9.227168942347721270e+01,7.000000000000000000e+00
1.000000000000000000e+00,1.942949097044705979e+02,8.936176949848969286e+01,7.000000000000000000e+00
1.000000000000000000e+00,1.871816270506868136e+02,8.939098554545397235e+01,7.000000000000000000e+00
1.000000000000000000e+00,1.757230719535462811e+02,7.791924231391377020e+01,7.000000000000000000e+00
1.000000000000000000e+00,1.817564296405298876e+02,8.057375585797886686e+01,7.000000000000000000e+00
1.000000000000000000e+00,1.806651820933134900e+02,8.583500397963018713e+01,7.000000000000000000e+00
1.000000000000000000e+00,1.794827813746746585e+02,8.989790144378487469e+01,7.000000000000000000e+00
1.000000000000000000e+00,1.850682232653796859e+02,9.447939425152685544e+01,7.000000000000000000e+00
1.000000000000000000e+00,1.895004840325705970e+02,9.166256288834151178e+01,7.000000000000000000e+00
1.000000000000000000e+00,1.753115559469439688e+02,9.042183427255432093e+01,7.000000000000000000e+00
1.000000000000000000e+00,1.853379528018236897e+02,9.070243495213200902e+01,7.000000000000000000e+00
1.000000000000000000e+00,1.811834898774028488e+02,9.419876305371751357e+01,7.000000000000000000e+00
1.000000000000000000e+00,1.813052629263808910e+02,9.833434473426542866e+01,7.000000000000000000e+00
1.000000000000000000e+00,1.738806927698476841e+02,8.857152409342262445e+01,7.000000000000000000e+00
1.000000000000000000e+00,1.744513158928828886e+02,9.733856375406919881e+01,7.000000000000000000e+00
1.000000000000000000e+00,1.874633446136492978e+02,9.413295467122978266e+01,7.000000000000000000e+00
1.000000000000000000e+00,1.839491580228445287e+02,9.045251259291835311e+01,7.000000000000000000e+00
1.000000000000000000e+00,1.799668594373482335e+02,8.614905824710706383e+01,7.000000000000000000e+00
1.000000000000000000e+00,1.773495594290059501e+02,9.336872933052566736e+01,7.000000000000000000e+00
1.000000000000000000e+00,1.760163676310500023e+02,9.305962810017047104e+01,7.000000000000000000e+00
1.000000000000000000e+00,1.790470596186414411e+02,9.819804593750058075e+01,7.000000000000000000e+00
1.000000000000000000e+00,1.603429632925491433e+02,9.231273666684339219e+01,7.000000000000000000e+00
1.000000000000000000e+00,1.739816780826136267e+02,9.400523804558392271e+01,7.000000000000000000e+00
1.000000000000000000e+00,1.575405506399969227e+02,9.218669368578507317e+01,7.000000000000000000e+00
1.000000000000000000e+00,1.653128138971765395e+02,8.874454188769489349e+01,7.000000000000000000e+00
1.000000000000000000e+00,1.663749372108310070e+02,8.644110280835694482e+01,7.000000000000000000e+00
1.000000000000000000e+00,1.612227367298961838e+02,7.784711520558566633e+01,7.000000000000000000e+00
1.000000000000000000e+00,1.855029315184673351e+02,8.038851490726318616e+01,7.000000000000000000e+00
1.000000000000000000e+00,1.640280652526199390e+02,8.594511882723736562e+01,7.000000000000000000e+00
1.000000000000000000e+00,1.529422686250097740e+02,9.131663253320682827e+01,7.000000000000000000e+00
1.000000000000000000e+00,1.494643954101427141e+02,8.927132152728314907e+01,7.000000000000000000e+00
1.000000000000000000e+00,1.664156964508278804e+02,8.801921560013555279e+01,7.000000000000000000e+00
1.000000000000000000e+00,1.730104110757277169e+02,9.211796355629553545e+01,7.000000000000000000e+00
1.000000000000000000e+00,1.757454466773656918e+02,9.860482292208794775e+01,7.000000000000000000e+00
1.000000000000000000e+00,1.605301666399809051e+02,9.166490684943887857e+01,7.000000000000000000e+00
1.000000000000000000e+00,1.667408944382267464e+02,8.894573626251140297e+01,7.000000000000000000e+00
1.000000000000000000e+00,1.642419710989683210e+02,8.577589863640314150e+01,7.000000000000000000e+00
1.000000000000000000e+00,1.866629817625280907e+02,9.414962437322189714e+01,7.000000000000000000e+00
1.000000000000000000e+00,1.831305432517067970e+02,9.581448814377644396e+01,7.000000000000000000e+00
1.000000000000000000e+00,1.859843699501505228e+02,9.499257978726126339e+01,7.000000000000000000e+00
1.000000000000000000e+00,1.821679978446890971e+02,9.433991603827210781e+01,7.000000000000000000e+00
1.000000000000000000e+00,1.767883401007902364e+02,8.523519168169434579e+01,7.000000000000000000e+00
1.000000000000000000e+00,1.759069958265875186e+02,8.280089109150948445e+01,7.000000000000000000e+00
1.000000000000000000e+00,1.662676772322226952e+02,8.802580382214912902e+01,7.000000000000000000e+00
1.000000000000000000e+00,1.713744877901876578e+02,8.948159146082736015e+01,7.000000000000000000e+00
1.000000000000000000e+00,1.514130118104712324e+02,9.500083962858182929e+01,7.000000000000000000e+00
1.000000000000000000e+00,1.514092561031235391e+02,1.028062045032562821e+02,7.000000000000000000e+00
1.000000000000000000e+00,1.729075973693452397e+02,9.061911266333700610e+01,7.000000000000000000e+00
1.000000000000000000e+00,1.693520631620675374e+02,8.996045120882021706e+01,7.000000000000000000e+00
1.000000000000000000e+00,1.789771989318324756e+02,8.428382492678466065e+01,7.000000000000000000e+00
1.000000000000000000e+00,1.687667531560034604e+02,8.682008285269269265e+01,7.000000000000000000e+00
1.000000000000000000e+00,1.909211523534786181e+02,8.095324703384352460e+01,7.000000000000000000e+00
1.000000000000000000e+00,1.933733015455810573e+02,8.467177739671505776e+01,7.000000000000000000e+00
1.000000000000000000e+00,1.679993163732097514e+02,8.920341511586441641e+01,7.000000000000000000e+00
1.000000000000000000e+00,1.690778045277519936e+02,9.442965192693654330e+01,7.000000000000000000e+00
1.000000000000000000e+00,1.775884156351665695e+02,9.078323114324008714e+01,7.000000000000000000e+00
1.000000000000000000e+00,1.779878060779217606e+02,9.449424940965251096e+01,7.000000000000000000e+00
1.000000000000000000e+00,1.872722342073491291e+02,8.476072968940360397e+01,7.000000000000000000e+00
1.000000000000000000e+00,1.949300860809601375e+02,8.723536603728487648e+01,7.000000000000000000e+00
1.000000000000000000e+00,1.858159980787041263e+02,8.078177567204132004e+01,7.000000000000000000e+00
1.000000000000000000e+00,1.764383508625577690e+02,8.476473592348324360e+01,7.000000000000000000e+00
1.000000000000000000e+00,2.189909484884957180e+02,8.075020868490079806e+01,7.000000000000000000e+00
1.000000000000000000e+00,2.365739813553709894e+02,7.753626483765204114e+01,7.000000000000000000e+00
1.000000000000000000e+00,2.096193786292197103e+02,8.735843815875648488e+01,7.000000000000000000e+00
1.000000000000000000e+00,2.189859334384168505e+02,8.924281361736899498e+01,7.000000000000000000e+00
1.000000000000000000e+00,2.063725168526207767e+02,8.991187952960969199e+01,7.000000000000000000e+00
1.000000000000000000e+00,2.183489527787071154e+02,8.922642747152687548e+01,7.000000000000000000e+00
1.000000000000000000e+00,2.072930982747999451e+02,9.927610223669159950e+01,7.000000000000000000e+00
1.000000000000000000e+00,2.090748382863303334e+02,1.015240362848701778e+02,7.000000000000000000e+00
1.000000000000000000e+00,1.988388258003393503e+02,7.952650479944117023e+01,7.000000000000000000e+00
1.000000000000000000e+00,1.912461704187090561e+02,8.114308076613596654e+01,7.000000000000000000e+00
1.000000000000000000e+00,1.851687340890894120e+02,8.177363698160753813e+01,7.000000000000000000e+00
1.000000000000000000e+00,1.951053212027731831e+02,7.901841077153112280e+01,7.000000000000000000e+00
1.000000000000000000e+00,1.981172278204293491e+02,7.669064637243830873e+01,7.000000000000000000e+00
1.000000000000000000e+00,1.926278457950369329e+02,8.887763085092024085e+01,7.000000000000000000e+00
1.000000000000000000e+00,1.818108069481911855e+02,8.398688934176917087e+01,7.000000000000000000e+00
1.000000000000000000e+00,1.902832541843673368e+02,8.514470412034593494e+01,7.000000000000000000e+00
1.000000000000000000e+00,2.166807063632367090e+02,7.318962851467844644e+01,7.000000000000000000e+00
1.000000000000000000e+00,2.124067853737679172e+02,7.347598172605842137e+01,7.000000000000000000e+00
1.000000000000000000e+00,1.988986919351404481e+02,8.036728873009907659e+01,7.000000000000000000e+00
1.000000000000000000e+00,2.121346884167360827e+02,8.162004110348027552e+01,7.000000000000000000e+00
1.000000000000000000e+00,2.085860396584578780e+02,8.281353647307597043e+01,7.000000000000000000e+00
1.000000000000000000e+00,1.968989671269516180e+02,7.757841128318374047e+01,7.000000000000000000e+00
1.000000000000000000e+00,1.941065233770474663e+02,8.014172658996916709e+01,7.000000000000000000e+00
1.000000000000000000e+00,1.951198652642152069e+02,7.818001650634086275e+01,7.000000000000000000e+00
1.000000000000000000e+00,1.901968046223408066e+02,7.847872752150014719e+01,7.000000000000000000e+00
1.000000000000000000e+00,1.926319911873118542e+02,7.351479957734561310e+01,7.000000000000000000e+00
1.000000000000000000e+00,2.060652747189233480e+02,7.552421109235287133e+01,7.000000000000000000e+00
1.000000000000000000e+00,2.061082036820221219e+02,7.941915720535889989e+01,7.000000000000000000e+00
1.000000000000000000e+00,1.970136810652175825e+02,8.454574728633062364e+01,7.000000000000000000e+00
1.000000000000000000e+00,1.882617727397387739e+02,9.166419048218574517e+01,7.000000000000000000e+00
1.000000000000000000e+00,2.166947446486088609e+02,7.455848550079610959e+01,7.000000000000000000e+00
1.000000000000000000e+00,1.997900603485418856e+02,7.344731825317126095e+01,7.000000000000000000e+00
1.000000000000000000e+00,1.866695463169167510e+02,6.815375470461276564e+01,7.000000000000000000e+00
1.000000000000000000e+00,2.008186890920992198e+02,7.478488482750843502e+01,7.000000000000000000e+00
1.000000000000000000e+00,1.872081918311444610e+02,8.823305989169953989e+01,7.000000000000000000e+00
1.000000000000000000e+00,1.835589870999802429e+02,7.637261201991724135e+01,7.000000000000000000e+00
1.000000000000000000e+00,1.834305238102751332e+02,6.768656846513972880e+01,7.000000000000000000e+00
1.000000000000000000e+00,1.823369805831252961e+02,6.178200597412484285e+01,7.000000000000000000e+00
1.000000000000000000e+00,1.832455845211041776e+02,6.727535417055453593e+01,7.000000000000000000e+00
1.000000000000000000e+00,1.788546912829352493e+02,6.367293169480102222e+01,7.000000000000000000e+00
1.000000000000000000e+00,1.672163485761697075e+02,7.206816938550963414e+01,7.000000000000000000e+00
1.000000000000000000e+00,1.727764687507018664e+02,7.445581209542751822e+01,7.000000000000000000e+00
1.000000000000000000e+00,1.748768260184686767e+02,7.671085137733633985e+01,7.000000000000000000e+00
1.000000000000000000e+00,1.892621366708077630e+02,7.421855538149077347e+01,7.000000000000000000e+00
1.000000000000000000e+00,1.815658506666973437e+02,7.254920401269643548e+01,7.000000000000000000e+00
1.000000000000000000e+00,1.770717374309338368e+02,8.013836838551594610e+01,7.000000000000000000e+00
1.000000000000000000e+00,1.809988588892265113e+02,8.091472500517126321e+01,7.000000000000000000e+00
1.000000000000000000e+00,1.661472816418493039e+02,7.979469134833811950e+01,7.000000000000000000e+00
1.000000000000000000e+00,1.827916285931040079e+02,7.824357260513654921e+01,7.000000000000000000e+00
1.000000000000000000e+00,1.669827068684741960e+02,7.649559291548739282e+01,7.000000000000000000e+00
1.000000000000000000e+00,1.713193776473297305e+02,6.184102644519521874e+01,7.000000000000000000e+00
1.000000000000000000e+00,1.707298188065447562e+02,6.731665555451667160e+01,7.000000000000000000e+00
1.000000000000000000e+00,1.761682628287080661e+02,6.088290584887793244e+01,7.000000000000000000e+00
1.000000000000000000e+00,1.745695196508992524e+02,6.426142522839516857e+01,7.000000000000000000e+00
1.000000000000000000e+00,1.756313148859485977e+02,6.728911932197482315e+01,7.000000000000000000e+00
1.000000000000000000e+00,1.786710447889571753e+02,7.039465880870959325e+01,7.000000000000000000e+00
1.000000000000000000e+00,1.860417284325779121e+02,8.065924004339018438e+01,7.000000000000000000e+00
1.000000000000000000e+00,1.810070061747011323e+02,7.171660928001210777e+01,7.000000000000000000e+00
1.000000000000000000e+00,1.705735175793691383e+02,8.184221984116238957e+01,7.000000000000000000e+00
1.000000000000000000e+00,1.774564054585087263e+02,7.963403898718375729e+01,7.000000000000000000e+00
1.000000000000000000e+00,1.898586720824075371e+02,7.989245668850158211e+01,7.000000000000000000e+00
1.000000000000000000e+00,1.929361561640334060e+02,7.933922603941890372e+01,7.000000000000000000e+00
1.000000000000000000e+00,1.756993154479552288e+02,8.185389986190058664e+01,7.000000000000000000e+00
1.000000000000000000e+00,1.614931758753409952e+02,8.140048170898354840e+01,7.000000000000000000e+00
-1.000000000000000000e+00,1.641767815406270188e+02,6.992108477131419875e+01,8.000000000000000000e+00
-1.000000000000000000e+00,1.593009253022277676e+02,6.881032780580692076e+01,8.000000000000000000e+00
-1.000000000000000000e+00,1.685607515722255982e+02,7.901504335609853058e+01,8.000000000000000000e+00
-1.000000000000000000e+00,1.703969988218184710e+02,7.035778611800213866e+01,8.000000000000000000e+00
-1.000000000000000000e+00,1.593007006344234355e+02,6.546534941325899126e+01,8.000000000000000000e+00
-1.000000000000000000e+00,1.583711720389775905e+02,5.965673958221950812e+01,8.000000000000000000e+00
-1.000000000000000000e+00,1.841838054447974855e+02,6.275753423966474287e+01,8.000000000000000000e+00
-1.000000000000000000e+00,1.707058946391530014e+02,6.095484341948080242e+01,8.000000000000000000e+00
-1.000000000000000000e+00,1.681653214039964723e+02,7.097123623457900976e+01,8.000000000000000000e+00
-1.000000000000000000e+00,1.579920129593124045e+02,8.325886872044621612e+01,8.000000000000000000e+00
-1.000000000000000000e+00,1.588983178220410366e+02,7.179056274564179319e+01,8.000000000000000000e+00
-1.000000000000000000e+00,1.585329958428634427e+02,7.144549326716564508e+01,8.000000000000000000e+00
-1.000000000000000000e+00,1.653801390583220439e+02,7.510052021016291235e+01,8.000000000000000000e+00
-1.000000000000000000e+00,1.700287398772866254e+02,7.698488852096950552e+01,8.000000000000000000e+00
-1.000000000000000000e+00,1.413689730685667598e+02,7.849875711080396457e+01,8.000000000000000000e+00
-1.000000000000000000e+00,1.561038403920367728e+02,7.896288064407998775e+01,8.000000000000000000e+00
-1.000000000000000000e+00,1.579948396320095867e+02,7.044138364638958194e+01,8.000000000000000000e+00
-1.000000000000000000e+00,1.493725423361186131e+02,7.034883575455697269e+01,8.000000000000000000e+00
-1.000000000000000000e+00,1.533343587774009222e+02,7.666359240124005225e+01,8.000000000000000000e+00
-1.000000000000000000e+00,1.460259996631321826e+02,6.894379059537557453e+01,8.000000000000000000e+00
-1.000000000000000000e+00,1.724755531749971169e+02,7.320670429542352053e+01,8.000000000000000000e+00
-1.000000000000000000e+00,1.688738113041473241e+02,8.193966498660307707e+01,8.000000000000000000e+00
-1.000000000000000000e+00,1.640789730125081860e+02,8.947165613001745044e+01,8.000000000000000000e+00
-1.000000000000000000e+00,1.627434817592333616e+02,8.086599243372459966e+01,8.000000000000000000e+00
-1.000000000000000000e+00,1.487144372070163456e+02,8.813291598388362047e+01,8.000000000000000000e+00
-1.000000000000000000e+00,1.642358240904434012e+02,8.571299214377746978e+01,8.000000000000000000e+00
-1.000000000000000000e+00,1.577701170030548212e+02,8.653507055247624180e+01,8.000000000000000000e+00
-1.000000000000000000e+00,1.699785182681950175e+02,8.720768410405980831e+01,8.000000000000000000e+00
-1.000000000000000000e+00,1.484621609352963105e+02,7.235509926773431744e+01,8.000000000000000000e+00
-1.000000000000000000e+00,1.430873214722823548e+02,6.543900002281645811e+01,8.000000000000000000e+00
-1.000000000000000000e+00,1.578423887854842462e+02,7.098058250463766683e+01,8.000000000000000000e+00
-1.000000000000000000e+00,1.566951917200150604e+02,5.605581776419140283e+01,8.000000000000000000e+00
-1.000000000000000000e+00,1.619770093916933718e+02,7.417166876578575341e+01,8.000000000000000000e+00
-1.000000000000000000e+00,1.639553251342704812e+02,7.886423832298753211e+01,8.000000000000000000e+00
-1.000000000000000000e+00,1.553670067583522325e+02,7.365817137109303303e+01,8.000000000000000000e+00
-1.000000000000000000e+00,1.616419270404502697e+02,8.339915717818730911e+01,8.000000000000000000e+00
-1.000000000000000000e+00,1.611353928471859547e+02,6.872753145400966446e+01,8.000000000000000000e+00
-1.000000000000000000e+00,1.683901658039253277e+02,7.990141517199351995e+01,8.000000000000000000e+00
-1.000000000000000000e+00,1.572955178703300589e+02,6.849015154026692187e+01,8.000000000000000000e+00
-1.000000000000000000e+00,1.594263703066340554e+02,7.767996907818353236e+01,8.000000000000000000e+00
-1.000000000000000000e+00,1.667050293075928380e+02,7.792122936776853237e+01,8.000000000000000000e+00
-1.000000000000000000e+00,1.753718598343141650e+02,7.346315510267216098e+01,8.000000000000000000e+00
-1.000000000000000000e+00,1.825231277537949666e+02,7.186294442624810586e+01,8.000000000000000000e+00
-1.000000000000000000e+00,1.740241883311828133e+02,7.304817902523325301e+01,8.000000000000000000e+00
-1.000000000000000000e+00,1.639554973358716268e+02,7.212928532716658481e+01,8.000000000000000000e+00
-1.000000000000000000e+00,1.649591030268546490e+02,7.682700914271639192e+01,8.000000000000000000e+00
-1.000000000000000000e+00,1.790412948298036611e+02,7.079639768633944641e+01,8.000000000000000000e+00
-1.000000000000000000e+00,1.786310374723545351e+02,7.832664006655325295e+01,8.000000000000000000e+00
-1.000000000000000000e+00,1.663031450977254337e+02,7.354904223001229013e+01,8.000000000000000000e+00
-1.000000000000000000e+00,1.722957791101278815e+02,6.876214372001183506e+01,8.000000000000000000e+00
-1.000000000000000000e+00,1.706430479311387103e+02,7.161717943484642035e+01,8.000000000000000000e+00
-1.000000000000000000e+00,1.590847752092608687e+02,6.673872936958498769e+01,8.000000000000000000e+00
-1.000000000000000000e+00,1.728241769942011388e+02,8.349348629911034436e+01,8.000000000000000000e+00
-1.000000000000000000e+00,1.660935731993066611e+02,7.969980660659666682e+01,8.000000000000000000e+00
-1.000000000000000000e+00,1.603047507662375324e+02,7.202403320391269403e+01,8.000000000000000000e+00
-1.000000000000000000e+00,1.623517442322095690e+02,5.409855187475042726e+01,8.000000000000000000e+00
-1.000000000000000000e+00,1.747959283744480672e+02,6.937568211050640343e+01,8.000000000000000000e+00
-1.000000000000000000e+00,1.796938547989946073e+02,7.523519481279029719e+01,8.000000000000000000e+00
-1.000000000000000000e+00,1.593905870616264906e+02,7.105031394897893904e+01,8.000000000000000000e+00
-1.000000000000000000e+00,1.680862101956478227e+02,7.256484937857082684e+01,8.000000000000000000e+00
-1.000000000000000000e+00,1.762447338750965855e+02,7.364162340715260768e+01,8.000000000000000000e+00
-1.000000000000000000e+00,1.720176455701451630e+02,7.751669870337856594e+01,8.000000000000000000e+00
-1.000000000000000000e+00,1.855781705018135881e+02,6.982771947269296220e+01,8.000000000000000000e+00
-1.000000000000000000e+00,1.815017710912472069e+02,6.637626724533070899e+01,8.000000000000000000e+00
-1.000000000000000000e+00,1.476163095300527743e+02,7.904568586977455880e+01,8.000000000000000000e+00
-1.000000000000000000e+00,1.460986629590812242e+02,7.689777066884362000e+01,8.000000000000000000e+00
-1.000000000000000000e+00,1.569367907812831788e+02,7.454784012430260987e+01,8.000000000000000000e+00
-1.000000000000000000e+00,1.536238781794645263e+02,7.754438960568631956e+01,8.000000000000000000e+00
-1.000000000000000000e+00,1.500211973121357687e+02,7.597492322509576468e+01,8.000000000000000000e+00
-1.000000000000000000e+00,1.549923386026781316e+02,7.786319490352838102e+01,8.000000000000000000e+00
-1.000000000000000000e+00,1.425637087033452701e+02,8.446530767114084881e+01,8.000000000000000000e+00
-1.000000000000000000e+00,1.472804753940180547e+02,8.128232596993426284e+01,8.000000000000000000e+00
-1.000000000000000000e+00,1.434905776525275485e+02,8.150946000130190328e+01,8.000000000000000000e+00
-1.000000000000000000e+00,1.542396312726957888e+02,8.165611753894305025e+01,8.000000000000000000e+00
-1.000000000000000000e+00,1.540712197373660786e+02,7.254360627254510518e+01,8.000000000000000000e+00
-1.000000000000000000e+00,1.518080161828722510e+02,7.438751879389833732e+01,8.000000000000000000e+00
-1.000000000000000000e+00,1.562273999307098507e+02,7.375607900548693863e+01,8.000000000000000000e+00
-1.000000000000000000e+00,1.563500851858680960e+02,6.438703026127916473e+01,8.000000000000000000e+00
-1.000000000000000000e+00,1.413853048457246189e+02,7.707804489573547357e+01,8.000000000000000000e+00
-1.000000000000000000e+00,1.525526698507366632e+02,7.643685660793742898e+01,8.000000000000000000e+00
-1.000000000000000000e+00,1.476602706662066566e+02,8.181822509138248734e+01,8.000000000000000000e+00
-1.000000000000000000e+00,1.493258017559325310e+02,7.086508433020196662e+01,8.000000000000000000e+00
-1.000000000000000000e+00,1.456422861976991783e+02,8.274483460222357678e+01,8.000000000000000000e+00
-1.000000000000000000e+00,1.483374254837368653e+02,8.113589420926858509e+01,8.000000000000000000e+00
-1.000000000000000000e+00,1.541721292001473387e+02,7.980170233158945337e+01,8.000000000000000000e+00
-1.000000000000000000e+00,1.554261458632184940e+02,7.762949058794964685e+01,8.000000000000000000e+00
-1.000000000000000000e+00,1.603027274102093997e+02,7.588804809982642041e+01,8.000000000000000000e+00
-1.000000000000000000e+00,1.610661900819615084e+02,7.404737980870042691e+01,8.000000000000000000e+00
-1.000000000000000000e+00,1.692659338658428112e+02,8.709955889346372260e+01,8.000000000000000000e+00
-1.000000000000000000e+00,1.698320388790048980e+02,8.824646498250947957e+01,8.000000000000000000e+00
-1.000000000000000000e+00,1.675459420150375820e+02,8.771276068054788766e+01,8.000000000000000000e+00
-1.000000000000000000e+00,1.747176715146811716e+02,9.565078297560540932e+01,8.000000000000000000e+00
-1.000000000000000000e+00,1.729019501451959968e+02,6.836802544213627186e+01,8.000000000000000000e+00
-1.000000000000000000e+00,1.724648197843231685e+02,6.990344327579587969e+01,8.000000000000000000e+00
-1.000000000000000000e+00,1.771931071710620245e+02,6.695593706006930290e+01,8.000000000000000000e+00
-1.000000000000000000e+00,1.755146177108990457e+02,6.652559871490774412e+01,8.000000000000000000e+00
-1.000000000000000000e+00,1.719543671134009344e+02,6.350499503185686478e+01,8.000000000000000000e+00
-1.000000000000000000e+00,1.665720518260991696e+02,5.151080911562607412e+01,8.000000000000000000e+00
-1.000000000000000000e+00,1.710251092234268810e+02,5.894862621819346771e+01,8.000000000000000000e+00
-1.000000000000000000e+00,1.649121577621987740e+02,6.397871433129080998e+01,8.000000000000000000e+00
-1.000000000000000000e+00,1.871409228133025238e+02,6.524812964775148316e+01,8.000000000000000000e+00
-1.000000000000000000e+00,1.836881708720694348e+02,6.626316416556844047e+01,8.000000000000000000e+00
-1.000000000000000000e+00,1.774321813043270026e+02,6.590084026412353069e+01,8.000000000000000000e+00
-1.000000000000000000e+00,1.713076990200734429e+02,5.434099460010694571e+01,8.000000000000000000e+00
-1.000000000000000000e+00,1.559147508214202560e+02,7.449684592585713006e+01,8.000000000000000000e+00
-1.000000000000000000e+00,1.621969128130071738e+02,7.204013156906256654e+01,8.000000000000000000e+00
-1.000000000000000000e+00,1.718775043965180771e+02,6.734788509117208832e+01,8.000000000000000000e+00
-1.000000000000000000e+00,1.610347439232829743e+02,6.999713452081114440e+01,8.000000000000000000e+00
-1.000000000000000000e+00,1.732953558854712810e+02,7.400616937573826704e+01,8.000000000000000000e+00
-1.000000000000000000e+00,1.633805256804590442e+02,7.835388244044494854e+01,8.000000000000000000e+00
-1.000000000000000000e+00,1.689577337759723719e+02,7.697932359423799653e+01,8.000000000000000000e+00
-1.000000000000000000e+00,1.754820504965297800e+02,7.090275741267815590e+01,8.000000000000000000e+00
-1.000000000000000000e+00,1.781035917117487202e+02,6.083188994061973887e+01,8.000000000000000000e+00
-1.000000000000000000e+00,1.858713670540508645e+02,6.651710680156206479e+01,8.000000000000000000e+00
-1.000000000000000000e+00,1.756400121857919601e+02,5.846828982513486039e+01,8.000000000000000000e+00
-1.000000000000000000e+00,1.837980164119131814e+02,5.494464307287228166e+01,8.000000000000000000e+00
-1.000000000000000000e+00,1.861176141092449541e+02,6.538833450433975258e+01,8.000000000000000000e+00
-1.000000000000000000e+00,1.763640714286332241e+02,7.281490726055633900e+01,8.000000000000000000e+00
-1.000000000000000000e+00,1.842617697883943890e+02,7.342839297915112695e+01,8.000000000000000000e+00
-1.000000000000000000e+00,1.875436243095742554e+02,8.435845928271366745e+01,8.000000000000000000e+00
-1.000000000000000000e+00,1.779902069906151780e+02,5.736720820307026258e+01,8.000000000000000000e+00
-1.000000000000000000e+00,1.741859981869194485e+02,5.397953919810841228e+01,8.000000000000000000e+00
-1.000000000000000000e+00,1.753810033740934671e+02,6.343647631161441325e+01,8.000000000000000000e+00
-1.000000000000000000e+00,1.822357891217295105e+02,6.743276960231450801e+01,8.000000000000000000e+00
-1.000000000000000000e+00,1.601494623330700620e+02,5.498769959444598499e+01,8.000000000000000000e+00
-1.000000000000000000e+00,1.676495896075464316e+02,5.447751839388927664e+01,8.000000000000000000e+00
-1.000000000000000000e+00,1.628189687506063876e+02,5.330523381086125312e+01,8.000000000000000000e+00
-1.000000000000000000e+00,1.739679011790963443e+02,5.994145167472560587e+01,8.000000000000000000e+00
-1.000000000000000000e+00,1.711729605216131631e+02,7.780521331095475546e+01,8.000000000000000000e+00
-1.000000000000000000e+00,1.843069704385089551e+02,7.068868010491142684e+01,8.000000000000000000e+00
-1.000000000000000000e+00,1.690131719954295590e+02,6.863943848664004577e+01,8.000000000000000000e+00
-1.000000000000000000e+00,1.770709328685674393e+02,7.148279080231461080e+01,8.000000000000000000e+00
-1.000000000000000000e+00,1.755664791689023332e+02,8.259504419404278508e+01,8.000000000000000000e+00
-1.000000000000000000e+00,1.838227313922276380e+02,8.673123256327151864e+01,8.000000000000000000e+00
-1.000000000000000000e+00,1.826269635659467951e+02,9.014468841922312947e+01,8.000000000000000000e+00
-1.000000000000000000e+00,1.821993157159287762e+02,9.579461499588011009e+01,8.000000000000000000e+00
-1.000000000000000000e+00,1.828175634543244144e+02,7.856856326123586598e+01,8.000000000000000000e+00
-1.000000000000000000e+00,1.817819743812006550e+02,8.287979403614838247e+01,8.000000000000000000e+00
-1.000000000000000000e+00,1.814103407172549964e+02,7.235665930953572911e+01,8.000000000000000000e+00
-1.000000000000000000e+00,1.819588392742598728e+02,7.936673981247534471e+01,8.000000000000000000e+00
-1.000000000000000000e+00,1.784636915094116887e+02,7.839130285701496348e+01,8.000000000000000000e+00
-1.000000000000000000e+00,1.805481161330030773e+02,7.151341190579624651e+01,8.000000000000000000e+00
-1.000000000000000000e+00,1.935370491902552317e+02,9.211741664697244403e+01,8.000000000000000000e+00
-1.000000000000000000e+00,1.801739167276999751e+02,9.306102989024914507e+01,8.000000000000000000e+00
-1.000000000000000000e+00,1.642356032426627905e+02,8.965424753379583933e+01,8.000000000000000000e+00
-1.000000000000000000e+00,1.645531244962124049e+02,8.328438681682266065e+01,8.000000000000000000e+00
-1.000000000000000000e+00,1.701119523622028566e+02,8.902684316554540089e+01,8.000000000000000000e+00
-1.000000000000000000e+00,1.697563769162104563e+02,8.541424119778571367e+01,8.000000000000000000e+00
-1.000000000000000000e+00,1.612845092091965569e+02,8.869879733508309982e+01,8.000000000000000000e+00
-1.000000000000000000e+00,1.688192180728360938e+02,8.226631891371323491e+01,8.000000000000000000e+00
-1.000000000000000000e+00,1.665226566304586129e+02,9.090110673909607897e+01,8.000000000000000000e+00
-1.000000000000000000e+00,1.700991537959293112e+02,8.810152976207038478e+01,8.000000000000000000e+00
-1.000000000000000000e+00,1.961763889266773333e+02,7.755641066246678861e+01,8.000000000000000000e+00
-1.000000000000000000e+00,1.799967799673398474e+02,7.402774466761594852e+01,8.000000000000000000e+00
-1.000000000000000000e+00,1.893530142918614274e+02,8.269379541211871754e+01,8.000000000000000000e+00
-1.000000000000000000e+00,1.945379505190173290e+02,8.732566194111893765e+01,8.000000000000000000e+00
-1.000000000000000000e+00,1.694054979606696349e+02,8.164054536823287833e+01,8.000000000000000000e+00
-1.000000000000000000e+00,1.787211174972941023e+02,7.297715363173735170e+01,8.000000000000000000e+00
-1.000000000000000000e+00,1.774075136466101128e+02,8.177544778943679660e+01,8.000000000000000000e+00
-1.000000000000000000e+00,1.815117898734630444e+02,8.636935666440376735e+01,8.000000000000000000e+00
-1.000000000000000000e+00,1.655303871403383482e+02,6.893656832799514689e+01,8.000000000000000000e+00
-1.000000000000000000e+00,1.703649010831452131e+02,6.515960274983973477e+01,8.000000000000000000e+00
-1.000000000000000000e+00,1.757822406779710036e+02,7.022925939782422233e+01,8.000000000000000000e+00
-1.000000000000000000e+00,1.833722170227440813e+02,5.970490872973270058e+01,8.000000000000000000e+00
-1.000000000000000000e+00,1.866843432563703971e+02,6.439834222145542242e+01,8.000000000000000000e+00
-1.000000000000000000e+00,1.835197348687723036e+02,6.357292929812488325e+01,8.000000000000000000e+00
-1.000000000000000000e+00,1.932502422530539263e+02,7.050330353617147239e+01,8.000000000000000000e+00
-1.000000000000000000e+00,1.768559304389865758e+02,6.689891108004377429e+01,8.000000000000000000e+00
-1.000000000000000000e+00,1.788473953371215543e+02,6.090488158880913261e+01,8.000000000000000000e+00
-1.000000000000000000e+00,1.661727747516600289e+02,6.709060435346920315e+01,8.000000000000000000e+00
-1.000000000000000000e+00,1.871230478170875244e+02,5.105924483786669299e+01,8.000000000000000000e+00
-1.000000000000000000e+00,1.790651680291534262e+02,4.650775710854556877e+01,8.000000000000000000e+00
-1.000000000000000000e+00,1.836554099323250568e+02,5.649207112571194500e+01,8.000000000000000000e+00
-1.000000000000000000e+00,1.823924399114380037e+02,5.111107274103714815e+01,8.000000000000000000e+00
-1.000000000000000000e+00,1.849812694512877727e+02,6.873168920528347314e+01,8.000000000000000000e+00
-1.000000000000000000e+00,1.845643089936914691e+02,7.576834691141263534e+01,8.000000000000000000e+00
-1.000000000000000000e+00,1.749277606460227616e+02,8.566250631414071393e+01,8.000000000000000000e+00
-1.000000000000000000e+00,1.693397295703450425e+02,8.989858401949176425e+01,8.000000000000000000e+00
-1.000000000000000000e+00,1.669671795442138205e+02,1.022763264273601180e+02,8.000000000000000000e+00
-1.000000000000000000e+00,1.749743731150244059e+02,9.896105999253659036e+01,8.000000000000000000e+00
-1.000000000000000000e+00,1.674281440050162644e+02,9.956153038845377523e+01,8.000000000000000000e+00
-1.000000000000000000e+00,1.789313986562274295e+02,9.829368971355049212e+01,8.000000000000000000e+00
-1.000000000000000000e+00,1.784324057490231894e+02,9.909133314350627586e+01,8.000000000000000000e+00
-1.000000000000000000e+00,1.899410086096824557e+02,9.850503801744338261e+01,8.000000000000000000e+00
-1.000000000000000000e+00,1.845657904957687379e+02,8.355360401892527022e+01,8.000000000000000000e+00
-1.000000000000000000e+00,1.854133568287643357e+02,9.672949403858187623e+01,8.000000000000000000e+00
-1.000000000000000000e+00,1.853597728876294752e+02,7.358947159640072755e+01,8.000000000000000000e+00
-1.000000000000000000e+00,1.775281457156565921e+02,7.490153422119533388e+01,8.000000000000000000e+00
-1.000000000000000000e+00,1.513815608435728848e+02,9.201609039669384060e+01,8.000000000000000000e+00
-1.000000000000000000e+00,1.633008907152265579e+02,8.031411130328568504e+01,8.000000000000000000e+00
-1.000000000000000000e+00,1.676927059404779641e+02,7.444249561319612951e+01,8.000000000000000000e+00
-1.000000000000000000e+00,1.695839181731480494e+02,6.798797571433442499e+01,8.000000000000000000e+00
-1.000000000000000000e+00,1.726604911758496144e+02,7.837487199243022928e+01,8.000000000000000000e+00
-1.000000000000000000e+00,1.596737163146632383e+02,7.426970055621447386e+01,8.000000000000000000e+00
-1.000000000000000000e+00,1.695636636321805781e+02,8.028630301098209543e+01,8.000000000000000000e+00
-1.000000000000000000e+00,1.702201833286490853e+02,8.512469793162149756e+01,8.000000000000000000e+00
-1.000000000000000000e+00,1.639145907989037880e+02,6.892330813909207166e+01,8.000000000000000000e+00
-1.000000000000000000e+00,1.576910371344428086e+02,7.065679253870497689e+01,8.000000000000000000e+00
-1.000000000000000000e+00,1.574801778098117779e+02,6.698584318946006988e+01,8.000000000000000000e+00
-1.000000000000000000e+00,1.642540155212907109e+02,5.713342228966008207e+01,8.000000000000000000e+00
-1.000000000000000000e+00,1.685785974139016048e+02,7.511805711236388561e+01,8.000000000000000000e+00
-1.000000000000000000e+00,1.743483998876603493e+02,8.418445911307910023e+01,8.000000000000000000e+00
-1.000000000000000000e+00,1.717284857263357196e+02,7.913111426784161040e+01,8.000000000000000000e+00
-1.000000000000000000e+00,1.785033539558816642e+02,7.810034520916266843e+01,8.000000000000000000e+00
-1.000000000000000000e+00,1.695269622513565935e+02,7.060016935960261719e+01,8.000000000000000000e+00
-1.000000000000000000e+00,1.827126692891046389e+02,7.463888032371903591e+01,8.000000000000000000e+00
-1.000000000000000000e+00,1.705867778014733176e+02,7.336490324172920907e+01,8.000000000000000000e+00
-1.000000000000000000e+00,1.721144644250994986e+02,7.746369143954153458e+01,8.000000000000000000e+00
-1.000000000000000000e+00,1.592920848198278350e+02,8.093321172322444568e+01,8.000000000000000000e+00
-1.000000000000000000e+00,1.641274770698605323e+02,7.374739604162874684e+01,8.000000000000000000e+00
-1.000000000000000000e+00,1.617917847006365832e+02,7.806389945457164004e+01,8.000000000000000000e+00
-1.000000000000000000e+00,1.570517136739971136e+02,8.522262166937039751e+01,8.000000000000000000e+00
-1.000000000000000000e+00,1.603975356979630646e+02,7.623684002081328970e+01,8.000000000000000000e+00
-1.000000000000000000e+00,1.684539285537381375e+02,7.282226532141348230e+01,8.000000000000000000e+00
-1.000000000000000000e+00,1.653930359674619126e+02,7.118323975599382436e+01,8.000000000000000000e+00
-1.000000000000000000e+00,1.664883706979022406e+02,7.555640782634587538e+01,8.000000000000000000e+00
-1.000000000000000000e+00,1.715087287635248856e+02,6.980119795168795349e+01,8.000000000000000000e+00
-1.000000000000000000e+00,1.705027153209262565e+02,5.781486921183900307e+01,8.000000000000000000e+00
-1.000000000000000000e+00,1.637945134109629635e+02,7.124707869831347296e+01,8.000000000000000000e+00
-1.000000000000000000e+00,1.638386657029406592e+02,6.205314669840811348e+01,8.000000000000000000e+00
-1.000000000000000000e+00,1.672512467255355659e+02,7.581970455295760303e+01,8.000000000000000000e+00
-1.000000000000000000e+00,1.599217706469984250e+02,7.578976954527483656e+01,8.000000000000000000e+00
-1.000000000000000000e+00,1.635929476322528728e+02,6.569319843418389837e+01,8.000000000000000000e+00
-1.000000000000000000e+00,1.658883214911972175e+02,6.327425787239775445e+01,8.000000000000000000e+00
-1.000000000000000000e+00,1.476392806506819966e+02,8.083468772478987319e+01,8.000000000000000000e+00
-1.000000000000000000e+00,1.559911904657044488e+02,6.677216071002492015e+01,8.000000000000000000e+00
-1.000000000000000000e+00,1.632123619305997693e+02,9.107840090122181209e+01,8.000000000000000000e+00
-1.000000000000000000e+00,1.658590966759077787e+02,8.189304603669015137e+01,8.000000000000000000e+00
-1.000000000000000000e+00,1.740200340288853340e+02,6.481861122131087427e+01,8.000000000000000000e+00
-1.000000000000000000e+00,1.628490369448037711e+02,5.549707084508288801e+01,8.000000000000000000e+00
-1.000000000000000000e+00,1.692794995611843660e+02,5.921202331772955318e+01,8.000000000000000000e+00
-1.000000000000000000e+00,1.614120372225983431e+02,6.145703482192319456e+01,8.000000000000000000e+00
-1.000000000000000000e+00,1.591787087946626684e+02,7.697155198910537877e+01,8.000000000000000000e+00
-1.000000000000000000e+00,1.678761835196227992e+02,7.798592016293436302e+01,8.000000000000000000e+00
-1.000000000000000000e+00,1.560086150337184847e+02,7.121448274948295420e+01,8.000000000000000000e+00
-1.000000000000000000e+00,1.647230676677671397e+02,7.509827577035829904e+01,8.000000000000000000e+00
-1.000000000000000000e+00,1.535714469749721047e+02,7.827791033411770627e+01,8.000000000000000000e+00
-1.000000000000000000e+00,1.555790929959869970e+02,7.882775206067431384e+01,8.000000000000000000e+00
-1.000000000000000000e+00,1.456233953162317505e+02,7.561984086608964617e+01,8.000000000000000000e+00
-1.000000000000000000e+00,1.537428070640633564e+02,8.116029817070901231e+01,8.000000000000000000e+00
-1.000000000000000000e+00,1.599759025904409100e+02,7.653660260668658566e+01,8.000000000000000000e+00
-1.000000000000000000e+00,1.598639744074129680e+02,7.836722160760061229e+01,8.000000000000000000e+00
-1.000000000000000000e+00,1.479985919785983981e+02,7.504402980440870863e+01,8.000000000000000000e+00
-1.000000000000000000e+00,1.543784557020963177e+02,8.593503455481945252e+01,8.000000000000000000e+00
-1.000000000000000000e+00,1.529606142530236355e+02,8.377618615474011676e+01,8.000000000000000000e+00
-1.000000000000000000e+00,1.518844338344110270e+02,7.723186274836511700e+01,8.000000000000000000e+00
-1.000000000000000000e+00,1.490115193395103574e+02,7.954087564768917673e+01,8.000000000000000000e+00
-1.000000000000000000e+00,1.478891142956649105e+02,8.658279716369334267e+01,8.000000000000000000e+00
-1.000000000000000000e+00,1.795323621093732811e+02,9.625896153047266068e+01,8.000000000000000000e+00
-1.000000000000000000e+00,1.704515521234441167e+02,7.258394644787429684e+01,8.000000000000000000e+00
-1.000000000000000000e+00,1.777220778901045151e+02,9.796125411073784051e+01,8.000000000000000000e+00
-1.000000000000000000e+00,1.692848258572093698e+02,1.051751577036657324e+02,8.000000000000000000e+00
-1.000000000000000000e+00,1.579176533637203192e+02,9.326488550807268041e+01,8.000000000000000000e+00
-1.000000000000000000e+00,1.547410367244860936e+02,9.340771265286414859e+01,8.000000000000000000e+00
-1.000000000000000000e+00,1.659346404191921067e+02,7.970534725929778119e+01,8.000000000000000000e+00
-1.000000000000000000e+00,1.624014733662262415e+02,7.255881767676889638e+01,8.000000000000000000e+00
1.000000000000000000e+00,1.926931853376215997e+02,9.968514021175114692e+01,8.000000000000000000e+00
1.000000000000000000e+00,1.871015034688368814e+02,9.881735364141708544e+01,8.000000000000000000e+00
1.000000000000000000e+00,1.975691280560393466e+02,1.025352963439894438e+02,8.000000000000000000e+00
1.000000000000000000e+00,1.891805395944606119e+02,1.058894055054600187e+02,8.000000000000000000e+00
1.000000000000000000e+00,1.866616914138533048e+02,9.771688243538596907e+01,8.000000000000000000e+00
1.000000000000000000e+00,1.758615946326360415e+02,9.424128884016050733e+01,8.000000000000000000e+00
1.000000000000000000e+00,1.764894546676395066e+02,9.046676621830111742e+01,8.000000000000000000e+00
1.000000000000000000e+00,1.662059546073972740e+02,9.368694122165872784e+01,8.000000000000000000e+00
1.000000000000000000e+00,1.953127780697062406e+02,8.914790379908602347e+01,8.000000000000000000e+00
1.000000000000000000e+00,1.858150546671666632e+02,8.567451993101313690e+01,8.000000000000000000e+00
1.000000000000000000e+00,1.864249169626337732e+02,8.833599192948544498e+01,8.000000000000000000e+00
1.000000000000000000e+00,1.910343857485278818e+02,9.438317802275567203e+01,8.000000000000000000e+00
1.000000000000000000e+00,1.673079020520386564e+02,8.283189843764689897e+01,8.000000000000000000e+00
1.000000000000000000e+00,1.844694867551598350e+02,7.731347666097703097e+01,8.000000000000000000e+00
1.000000000000000000e+00,1.854737709094212903e+02,7.756018975934671289e+01,8.000000000000000000e+00
1.000000000000000000e+00,1.934331732921526168e+02,8.000385879529004285e+01,8.000000000000000000e+00
1.000000000000000000e+00,1.781516068305842850e+02,9.315506146995274150e+01,8.000000000000000000e+00
1.000000000000000000e+00,1.880107409798222022e+02,8.133644965713389752e+01,8.000000000000000000e+00
1.000000000000000000e+00,1.913884671281819294e+02,9.685989046214690745e+01,8.000000000000000000e+00
1.000000000000000000e+00,1.815163927128768364e+02,8.677518777132895877e+01,8.000000000000000000e+00
1.000000000000000000e+00,1.791686740076776800e+02,9.842359974975583725e+01,8.000000000000000000e+00
1.000000000000000000e+00,1.878728747464401181e+02,8.651558143002635859e+01,8.000000000000000000e+00
1.000000000000000000e+00,1.928573411068842915e+02,8.921326202145249340e+01,8.000000000000000000e+00
1.000000000000000000e+00,1.851169461202397883e+02,9.009136569802605266e+01,8.000000000000000000e+00
1.000000000000000000e+00,1.882957354875231033e+02,9.461707641126636759e+01,8.000000000000000000e+00
1.000000000000000000e+00,1.756105386072437113e+02,8.250655524974806099e+01,8.000000000000000000e+00
1.000000000000000000e+00,1.820807004130702182e+02,8.842858685570332966e+01,8.000000000000000000e+00
1.000000000000000000e+00,1.874167255120099185e+02,8.871564907540422951e+01,8.000000000000000000e+00
1.000000000000000000e+00,1.765509618293199310e+02,9.411506669889027421e+01,8.000000000000000000e+00
1.000000000000000000e+00,1.818804466386544050e+02,9.403890074192617021e+01,8.000000000000000000e+00
1.000000000000000000e+00,1.780626710988334764e+02,9.395158870474782020e+01,8.000000000000000000e+00
1.000000000000000000e+00,1.845274127178902006e+02,9.640399532186958709e+01,8.000000000000000000e+00
1.000000000000000000e+00,1.838768448260048274e+02,9.153789076041471162e+01,8.000000000000000000e+00
1.000000000000000000e+00,1.736329051049924033e+02,9.238136166347356948e+01,8.000000000000000000e+00
1.000000000000000000e+00,1.732640688685903001e+02,9.557459998744242569e+01,8.000000000000000000e+00
1.000000000000000000e+00,1.668228094634989986e+02,1.008885862294197722e+02,8.000000000000000000e+00
1.000000000000000000e+00,1.727086208383483665e+02,9.666772744082443580e+01,8.000000000000000000e+00
1.000000000000000000e+00,1.913133613579507823e+02,9.148105499553452091e+01,8.000000000000000000e+00
1.000000000000000000e+00,1.842307334249258588e+02,9.013666565795782049e+01,8.000000000000000000e+00
1.000000000000000000e+00,1.844123386623146814e+02,8.622888138862442986e+01,8.000000000000000000e+00
1.000000000000000000e+00,1.789403604045609484e+02,8.546256058112729193e+01,8.000000000000000000e+00
1.000000000000000000e+00,1.822597763151593426e+02,8.758569842789361815e+01,8.000000000000000000e+00
1.000000000000000000e+00,1.785538437011685460e+02,9.318627289260915347e+01,8.000000000000000000e+00
1.000000000000000000e+00,1.850394559218694042e+02,9.157554100554327192e+01,8.000000000000000000e+00
1.000000000000000000e+00,1.646703739902806944e+02,8.991230348477321854e+01,8.000000000000000000e+00
1.000000000000000000e+00,1.764822788139555882e+02,9.585411494343867389e+01,8.000000000000000000e+00
1.000000000000000000e+00,1.720099744989698536e+02,9.835815590513928441e+01,8.000000000000000000e+00
1.000000000000000000e+00,1.711383246090287855e+02,1.010622062624731115e+02,8.000000000000000000e+00
1.000000000000000000e+00,1.626503364163722551e+02,8.819303586253955984e+01,8.000000000000000000e+00
1.000000000000000000e+00,1.553533608358473828e+02,9.141938427512079102e+01,8.000000000000000000e+00
1.000000000000000000e+00,1.644966832998533732e+02,9.380040340792028530e+01,8.000000000000000000e+00
1.000000000000000000e+00,1.748117092798930514e+02,8.926716047199685988e+01,8.000000000000000000e+00
1.000000000000000000e+00,1.455513519975494887e+02,8.683766301190958359e+01,8.000000000000000000e+00
1.000000000000000000e+00,1.531402148838476762e+02,9.883118125770155871e+01,8.000000000000000000e+00
1.000000000000000000e+00,1.702770691618560477e+02,8.744252631923593810e+01,8.000000000000000000e+00
1.000000000000000000e+00,1.577661016352612933e+02,9.329713689553902611e+01,8.000000000000000000e+00
1.000000000000000000e+00,1.748511587121828086e+02,8.526573937495349753e+01,8.000000000000000000e+00
1.000000000000000000e+00,1.604517190857635001e+02,8.554330717995031819e+01,8.000000000000000000e+00
1.000000000000000000e+00,1.630446573988415651e+02,7.954823890589517532e+01,8.000000000000000000e+00
1.000000000000000000e+00,1.641721235646606090e+02,7.833192257760909172e+01,8.000000000000000000e+00
1.000000000000000000e+00,1.933462343853664720e+02,8.230426435868699286e+01,8.000000000000000000e+00
1.000000000000000000e+00,1.935991424985096785e+02,7.637683440556374137e+01,8.000000000000000000e+00
1.000000000000000000e+00,1.606131629217109946e+02,8.693585690955754330e+01,8.000000000000000000e+00
1.000000000000000000e+00,1.609305101129973252e+02,8.267083254318100671e+01,8.000000000000000000e+00
1.000000000000000000e+00,1.547443321383405817e+02,8.779603043677305152e+01,8.000000000000000000e+00
1.000000000000000000e+00,1.479300239044987961e+02,9.781351796513263253e+01,8.000000000000000000e+00
1.000000000000000000e+00,1.506770595251009581e+02,8.663517395186244130e+01,8.000000000000000000e+00
1.000000000000000000e+00,1.478240359775767274e+02,8.781596807706308994e+01,8.000000000000000000e+00
1.000000000000000000e+00,1.564110970968568495e+02,9.204411500938675772e+01,8.000000000000000000e+00
1.000000000000000000e+00,1.708875474990748273e+02,9.306031654771688011e+01,8.000000000000000000e+00
1.000000000000000000e+00,1.810485112239788350e+02,9.529813842299070359e+01,8.000000000000000000e+00
1.000000000000000000e+00,1.705304653388578515e+02,9.053968448686740089e+01,8.000000000000000000e+00
1.000000000000000000e+00,1.698231808654020369e+02,9.420123879056269800e+01,8.000000000000000000e+00
1.000000000000000000e+00,1.679736293380421159e+02,1.079060598336292571e+02,8.000000000000000000e+00
1.000000000000000000e+00,1.582288760153489591e+02,9.519539034166007241e+01,8.000000000000000000e+00
1.000000000000000000e+00,1.547829084327583189e+02,8.794310507282477829e+01,8.000000000000000000e+00
1.000000000000000000e+00,1.640374370039729399e+02,9.307664829569048948e+01,8.000000000000000000e+00
1.000000000000000000e+00,1.672077018331837905e+02,8.908382939925851929e+01,8.000000000000000000e+00
1.000000000000000000e+00,1.770193318642196516e+02,8.094869533960510921e+01,8.000000000000000000e+00
1.000000000000000000e+00,1.589063152566944552e+02,8.042319773179987408e+01,8.000000000000000000e+00
1.000000000000000000e+00,1.893946002427541941e+02,1.000208782111982515e+02,8.000000000000000000e+00
1.000000000000000000e+00,1.758523115653315472e+02,9.784393956789350000e+01,8.000000000000000000e+00
1.000000000000000000e+00,1.775404165120088464e+02,1.003141640511978068e+02,8.000000000000000000e+00
1.000000000000000000e+00,1.954584398582880738e+02,9.372961588888573203e+01,8.000000000000000000e+00
1.000000000000000000e+00,1.844402299494123554e+02,9.057708189275723498e+01,8.000000000000000000e+00
1.000000000000000000e+00,1.808910665889496272e+02,9.628948149906287313e+01,8.000000000000000000e+00
1.000000000000000000e+00,1.821452841066690951e+02,9.188492285156137029e+01,8.000000000000000000e+00
1.000000000000000000e+00,1.820352694687957467e+02,9.817128535416617297e+01,8.000000000000000000e+00
1.000000000000000000e+00,1.891414426575406367e+02,8.435083643339851278e+01,8.000000000000000000e+00
1.000000000000000000e+00,1.766691695282943897e+02,8.910255900358035319e+01,8.000000000000000000e+00
1.000000000000000000e+00,1.679051667087319117e+02,7.885003878364035756e+01,8.000000000000000000e+00
1.000000000000000000e+00,1.829005301178977163e+02,8.750654683884596352e+01,8.000000000000000000e+00
1.000000000000000000e+00,1.641975227631529037e+02,8.746684542509125038e+01,8.000000000000000000e+00
1.000000000000000000e+00,1.709789584898916530e+02,9.383986479409669812e+01,8.000000000000000000e+00
1.000000000000000000e+00,1.724597472794829116e+02,8.357005943825593874e+01,8.000000000000000000e+00
1.000000000000000000e+00,1.771681410797552871e+02,8.957011633388387395e+01,8.000000000000000000e+00
1.000000000000000000e+00,1.521178960590614224e+02,9.737648010374046237e+01,8.000000000000000000e+00
1.000000000000000000e+00,1.553598905083730699e+02,9.549539511223612465e+01,8.000000000000000000e+00
1.000000000000000000e+00,1.597095623455387567e+02,1.030482003868645222e+02,8.000000000000000000e+00
1.000000000000000000e+00,1.459638037415270446e+02,1.017411902298260742e+02,8.000000000000000000e+00
1.000000000000000000e+00,1.792414553475524315e+02,8.656194827384597090e+01,8.000000000000000000e+00
1.000000000000000000e+00,1.693936643565132556e+02,8.802566282779174855e+01,8.000000000000000000e+00
1.000000000000000000e+00,1.661719388272584581e+02,8.819998710954678245e+01,8.000000000000000000e+00
1.000000000000000000e+00,1.677118563278091870e+02,9.507075601786425523e+01,8.000000000000000000e+00
1.000000000000000000e+00,1.733127181506386876e+02,8.836321682749384365e+01,8.000000000000000000e+00
1.000000000000000000e+00,1.868708013937614396e+02,8.194040706722373102e+01,8.000000000000000000e+00
1.000000000000000000e+00,1.640146840159391672e+02,9.004840666209177868e+01,8.000000000000000000e+00
1.000000000000000000e+00,1.711856851674849622e+02,9.012414457464244322e+01,8.000000000000000000e+00
1.000000000000000000e+00,1.862286001508592221e+02,8.130657937875746200e+01,8.000000000000000000e+00
1.000000000000000000e+00,1.837668291950287767e+02,8.211812324777797301e+01,8.000000000000000000e+00
1.000000000000000000e+00,1.795433742342889047e+02,8.351137963497097871e+01,8.000000000000000000e+00
1.000000000000000000e+00,1.908165122646310010e+02,8.250777434787401887e+01,8.000000000000000000e+00
1.000000000000000000e+00,1.694161412838913350e+02,8.833569788722891758e+01,8.000000000000000000e+00
1.000000000000000000e+00,1.607977688898595829e+02,8.631970562861519625e+01,8.000000000000000000e+00
1.000000000000000000e+00,1.681411763222163529e+02,1.010187068472786933e+02,8.000000000000000000e+00
1.000000000000000000e+00,1.668094552974261546e+02,9.239157914821541340e+01,8.000000000000000000e+00
1.000000000000000000e+00,1.763676963303347520e+02,9.425011957027619758e+01,8.000000000000000000e+00
1.000000000000000000e+00,1.757804486228312442e+02,8.620724354931573430e+01,8.000000000000000000e+00
1.000000000000000000e+00,1.897052100274294730e+02,9.709543848306489622e+01,8.000000000000000000e+00
1.000000000000000000e+00,1.762911869554535542e+02,9.080757282860226098e+01,8.000000000000000000e+00
1.000000000000000000e+00,1.806932450116799203e+02,7.979179658674782161e+01,8.000000000000000000e+00
1.000000000000000000e+00,1.859211266533184812e+02,8.337380989420232424e+01,8.000000000000000000e+00
1.000000000000000000e+00,1.986223092380512867e+02,8.333908456344614990e+01,8.000000000000000000e+00
1.000000000000000000e+00,1.950749473805400953e+02,8.654405362741296415e+01,8.000000000000000000e+00
1.000000000000000000e+00,1.752793558834964074e+02,8.052333019809626080e+01,8.000000000000000000e+00
1.000000000000000000e+00,1.869368492380129396e+02,8.037922282793272188e+01,8.000000000000000000e+00
1.000000000000000000e+00,1.684457770864641475e+02,8.436452664352313491e+01,8.000000000000000000e+00
1.000000000000000000e+00,1.751726708576719886e+02,8.458932147795928813e+01,8.000000000000000000e+00
1.000000000000000000e+00,2.165253270538374863e+02,8.120225910963863214e+01,8.000000000000000000e+00
1.000000000000000000e+00,2.196597753510016844e+02,7.933501981662278979e+01,8.000000000000000000e+00
1.000000000000000000e+00,2.259640765418068611e+02,7.675583214312901248e+01,8.000000000000000000e+00
1.000000000000000000e+00,2.330373662721578398e+02,8.005408815019970348e+01,8.000000000000000000e+00
1.000000000000000000e+00,2.083376780422167940e+02,8.648469196073857290e+01,8.000000000000000000e+00
1.000000000000000000e+00,2.153922595670007354e+02,8.759675228956442083e+01,8.000000000000000000e+00
1.000000000000000000e+00,2.077334351828569368e+02,9.071500863706782525e+01,8.000000000000000000e+00
1.000000000000000000e+00,2.212187849786818674e+02,8.937622930886763584e+01,8.000000000000000000e+00
1.000000000000000000e+00,1.936486351131447350e+02,8.594782908506834929e+01,8.000000000000000000e+00
1.000000000000000000e+00,2.047309497176817956e+02,8.583042152576254580e+01,8.000000000000000000e+00
1.000000000000000000e+00,2.293374368074439644e+02,9.365424323084009472e+01,8.000000000000000000e+00
1.000000000000000000e+00,2.172571963549360987e+02,8.911774112187920593e+01,8.000000000000000000e+00
1.000000000000000000e+00,2.031649433513529743e+02,1.024816640224155719e+02,8.000000000000000000e+00
1.000000000000000000e+00,1.976757269884761001e+02,9.769941651324725740e+01,8.000000000000000000e+00
1.000000000000000000e+00,2.040815866889223003e+02,9.983546514847716935e+01,8.000000000000000000e+00
1.000000000000000000e+00,2.086473670277671602e+02,1.007278659042028721e+02,8.000000000000000000e+00
1.000000000000000000e+00,1.905861310160682365e+02,7.799060320682261249e+01,8.000000000000000000e+00
1.000000000000000000e+00,2.116350883748694116e+02,7.406882056072740284e+01,8.000000000000000000e+00
1.000000000000000000e+00,1.928675097685436981e+02,8.607081238131371492e+01,8.000000000000000000e+00
1.000000000000000000e+00,2.006761676286159570e+02,8.041308433862813843e+01,8.000000000000000000e+00
1.000000000000000000e+00,1.987213868741225440e+02,8.265654199763777399e+01,8.000000000000000000e+00
1.000000000000000000e+00,1.788471793571594333e+02,8.446484086877339337e+01,8.000000000000000000e+00
1.000000000000000000e+00,1.951882354975776650e+02,7.881598155820083207e+01,8.000000000000000000e+00
1.000000000000000000e+00,1.951502768052990859e+02,7.629801838990941576e+01,8.000000000000000000e+00
1.000000000000000000e+00,1.951658132768048972e+02,7.304062783000568970e+01,8.000000000000000000e+00
1.000000000000000000e+00,1.966805640574472420e+02,7.680450943690522081e+01,8.000000000000000000e+00
1.000000000000000000e+00,1.919840051389875555e+02,9.123211076134600717e+01,8.000000000000000000e+00
1.000000000000000000e+00,1.973500369301456487e+02,8.773201007324489353e+01,8.000000000000000000e+00
1.000000000000000000e+00,1.963210440910780790e+02,8.374314347063771891e+01,8.000000000000000000e+00
1.000000000000000000e+00,1.814521394468700919e+02,8.546995010171985996e+01,8.000000000000000000e+00
1.000000000000000000e+00,1.947010939194159960e+02,8.104699329212817815e+01,8.000000000000000000e+00
1.000000000000000000e+00,2.012651647644507023e+02,9.022566318774305216e+01,8.000000000000000000e+00
1.000000000000000000e+00,2.040123661547359006e+02,6.771231805836384865e+01,8.000000000000000000e+00
1.000000000000000000e+00,2.264595203785438002e+02,7.375162458843882973e+01,8.000000000000000000e+00
1.000000000000000000e+00,2.074784946308878659e+02,7.686391769692592391e+01,8.000000000000000000e+00
1.000000000000000000e+00,2.202678783475260786e+02,7.452175745994065892e+01,8.000000000000000000e+00
1.000000000000000000e+00,2.046549800555557965e+02,8.242477430747487688e+01,8.000000000000000000e+00
1.000000000000000000e+00,2.058090463297758106e+02,8.501349847555972872e+01,8.000000000000000000e+00
1.000000000000000000e+00,1.971732006227914553e+02,7.786425579487158188e+01,8.000000000000000000e+00
1.000000000000000000e+00,2.212092906029613744e+02,8.186362306951028245e+01,8.000000000000000000e+00
1.000000000000000000e+00,2.089189120284396779e+02,7.801603089624011034e+01,8.000000000000000000e+00
1.000000000000000000e+00,2.159185676545242529e+02,7.739036604675825970e+01,8.000000000000000000e+00
1.000000000000000000e+00,1.893365549648156900e+02,7.490244478260352423e+01,8.000000000000000000e+00
1.000000000000000000e+00,1.971600452513937114e+02,7.457796227118929266e+01,8.000000000000000000e+00
1.000000000000000000e+00,1.939217844159285278e+02,8.599669926141112342e+01,8.000000000000000000e+00
1.000000000000000000e+00,2.018567521272663043e+02,7.692248959600003388e+01,8.000000000000000000e+00
1.000000000000000000e+00,1.844167940212876431e+02,8.243155141058387869e+01,8.000000000000000000e+00
1.000000000000000000e+00,1.896629079824419080e+02,7.737632562682581749e+01,8.000000000000000000e+00
1.000000000000000000e+00,1.951546883870674662e+02,7.892243350962718296e+01,8.000000000000000000e+00
1.000000000000000000e+00,1.907606922895144237e+02,8.041509555631456863e+01,8.000000000000000000e+00
1.000000000000000000e+00,1.949267125088555019e+02,6.888134182453306664e+01,8.000000000000000000e+00
1.000000000000000000e+00,1.911523109133834737e+02,7.288105858584495422e+01,8.000000000000000000e+00
1.000000000000000000e+00,2.036048661467483214e+02,7.646370475469971950e+01,8.000000000000000000e+00
1.000000000000000000e+00,1.971862124303688404e+02,7.586732413031543842e+01,8.000000000000000000e+00
1.000000000000000000e+00,2.085201490096915791e+02,7.987688018325263783e+01,8.000000000000000000e+00
1.000000000000000000e+00,2.072791813427749332e+02,8.338020036652967804e+01,8.000000000000000000e+00
1.000000000000000000e+00,1.897419238654984213e+02,8.526536874618751938e+01,8.000000000000000000e+00
1.000000000000000000e+00,1.989681841466858145e+02,8.290929404144519310e+01,8.000000000000000000e+00
1.000000000000000000e+00,1.832226333786292116e+02,9.145762038267695004e+01,8.000000000000000000e+00
1.000000000000000000e+00,1.897926920853627450e+02,9.798189614300883932e+01,8.000000000000000000e+00
1.000000000000000000e+00,2.223570014509820965e+02,7.779859020763606736e+01,8.000000000000000000e+00
1.000000000000000000e+00,2.091216038045553773e+02,7.299283165084504788e+01,8.000000000000000000e+00
1.000000000000000000e+00,2.129321263038394534e+02,7.615964907589388133e+01,8.000000000000000000e+00
1.000000000000000000e+00,1.987151994757756199e+02,7.674402297249379501e+01,8.000000000000000000e+00
1.000000000000000000e+00,1.927415343902378879e+02,7.127013138913983425e+01,8.000000000000000000e+00
1.000000000000000000e+00,1.875215812801333186e+02,7.134409182945012162e+01,8.000000000000000000e+00
1.000000000000000000e+00,1.910767782213421242e+02,7.131119681768272756e+01,8.000000000000000000e+00
1.000000000000000000e+00,2.022973750345654196e+02,7.261064628031940060e+01,8.000000000000000000e+00
1.000000000000000000e+00,1.891409258870837959e+02,8.395536808602363976e+01,8.000000000000000000e+00
1.000000000000000000e+00,1.950209919602457376e+02,8.880759909459341372e+01,8.000000000000000000e+00
1.000000000000000000e+00,1.786833695615627846e+02,7.678822651492438922e+01,8.000000000000000000e+00
1.000000000000000000e+00,1.852308145832726325e+02,7.919006963054260950e+01,8.000000000000000000e+00
1.000000000000000000e+00,1.731728828686502766e+02,6.859297912466398373e+01,8.000000000000000000e+00
1.000000000000000000e+00,1.843236867451242915e+02,6.783776596494271871e+01,8.000000000000000000e+00
1.000000000000000000e+00,1.788633554015127061e+02,6.726607964713811327e+01,8.000000000000000000e+00
1.000000000000000000e+00,1.825345732045490195e+02,5.575584889882816242e+01,8.000000000000000000e+00
1.000000000000000000e+00,1.734310722001978888e+02,6.220917421550538506e+01,8.000000000000000000e+00
1.000000000000000000e+00,1.789503453012964940e+02,6.863028526089087222e+01,8.000000000000000000e+00
1.000000000000000000e+00,1.845972145076739253e+02,5.870436573855487694e+01,8.000000000000000000e+00
1.000000000000000000e+00,1.794655988471081685e+02,6.576564415850474177e+01,8.000000000000000000e+00
1.000000000000000000e+00,1.643110733769387082e+02,7.816295666275898668e+01,8.000000000000000000e+00
1.000000000000000000e+00,1.664783452425567134e+02,7.190227114314815537e+01,8.000000000000000000e+00
1.000000000000000000e+00,1.680115425113443735e+02,7.190180321125478713e+01,8.000000000000000000e+00
1.000000000000000000e+00,1.773122145301972523e+02,7.109480369714032122e+01,8.000000000000000000e+00
1.000000000000000000e+00,1.615389965889783639e+02,7.613441284159679867e+01,8.000000000000000000e+00
1.000000000000000000e+00,1.770023155436190052e+02,7.659009696231831299e+01,8.000000000000000000e+00
1.000000000000000000e+00,1.871348037244849252e+02,7.305384829238035138e+01,8.000000000000000000e+00
1.000000000000000000e+00,1.894258687344035650e+02,7.275413758974934808e+01,8.000000000000000000e+00
1.000000000000000000e+00,1.829874259719615281e+02,7.514447237703240035e+01,8.000000000000000000e+00
1.000000000000000000e+00,1.809670262266456859e+02,7.058200376578423629e+01,8.000000000000000000e+00
1.000000000000000000e+00,1.804324739490635352e+02,8.100468842483989818e+01,8.000000000000000000e+00
1.000000000000000000e+00,1.765569728692779279e+02,7.898360817273494661e+01,8.000000000000000000e+00
1.000000000000000000e+00,1.776284057956763149e+02,8.374055617732655321e+01,8.000000000000000000e+00
1.000000000000000000e+00,1.828451252906781122e+02,8.169151914923011759e+01,8.000000000000000000e+00
1.000000000000000000e+00,1.604424618903499322e+02,8.426973257090881475e+01,8.000000000000000000e+00
1.000000000000000000e+00,1.699531731472198146e+02,8.200697825193482515e+01,8.000000000000000000e+00
1.000000000000000000e+00,1.817074310628072169e+02,8.021156571235215438e+01,8.000000000000000000e+00
1.000000000000000000e+00,1.758356856493335272e+02,7.813802315680689503e+01,8.000000000000000000e+00
1.000000000000000000e+00,1.794303220070289626e+02,7.506123772551302409e+01,8.000000000000000000e+00
1.000000000000000000e+00,1.701513406915843518e+02,7.739460768514757660e+01,8.000000000000000000e+00
